{
  "hiddenBiasWeights": [
    0.553216,
    0.672291,
    0.197885,
    0.0239043,
    -0.224791,
    -0.468068,
    0.366885,
    -0.287333,
    -0.726951,
    0.0591472
  ],
  "hiddenNodes": 81,
  "hiddenWeights": [
    0.258768,
    -0.889511,
    -1.53144,
    -0.202007,
    -0.705891,
    -0.0585647,
    0.220364,
    0.388698,
    -1.14228,
    -0.578239,
    0.106647,
    -0.782488,
    -0.0679543,
    -0.820902,
    -0.546163,
    -0.90174,
    -0.526987,
    0.781648,
    -0.468485,
    -0.198839,
    -0.358176,
    0.77225,
    -0.558704,
    -0.375628,
    0.101747,
    0.126254,
    -0.000688962,
    0.633892,
    0.547263,
    -0.271244,
    0.704105,
    0.352273,
    -0.678495,
    0.0782322,
    -0.765859,
    -0.675888,
    -0.138691,
    0.518549,
    -0.360125,
    -0.283401,
    -0.351189,
    -0.832953,
    -0.13936,
    0.0773704,
    -0.217427,
    0.707992,
    0.0908062,
    -0.882976,
    0.0945809,
    0.167656,
    -0.958434,
    -0.72927,
    -0.180466,
    -0.576247,
    -0.135103,
    0.164809,
    -0.411499,
    -0.886112,
    0.293922,
    -0.221706,
    -0.862414,
    0.0306714,
    -0.162244,
    0.204971,
    0.32039,
    0.967734,
    -0.326281,
    -0.750674,
    -0.430599,
    0.903033,
    0.0121944,
    -0.937396,
    0.708416,
    -0.519625,
    -0.074451,
    -0.117559,
    -0.525024,
    0.359205,
    -0.893555,
    -0.381038,
    0.764743,
    -0.00262308,
    -1.00086,
    -0.458756,
    0.238171,
    0.178827,
    0.0358938,
    -0.177084,
    -0.99522,
    -0.491802,
    -0.967928,
    -0.601383,
    0.248058,
    0.288346,
    0.782185,
    0.395376,
    0.875658,
    -0.895722,
    -0.650942,
    -0.29439,
    -0.788309,
    0.782375,
    0.317302,
    0.334308,
    0.96003,
    0.813361,
    -0.811229,
    0.84478,
    0.858559,
    -0.1243,
    0.00740882,
    -0.915618,
    0.403608,
    0.362435,
    -0.933123,
    0.958254,
    0.267502,
    -0.0475923,
    -0.287261,
    -0.153033,
    -0.365635,
    -0.430578,
    -1.12217,
    -0.226817,
    -0.282904,
    -0.129307,
    -0.7134,
    -0.567232,
    -0.262017,
    -1.04421,
    -0.038892,
    -0.0566234,
    0.324605,
    0.309261,
    0.625631,
    -0.385062,
    -0.117211,
    -0.318535,
    0.19863,
    0.284406,
    0.603153,
    -0.6987,
    0.365996,
    0.472118,
    0.160803,
    0.722671,
    -0.316121,
    -0.455513,
    0.0115419,
    1.01763,
    -0.289681,
    0.124513,
    -0.596876,
    0.28545,
    -0.167749,
    0.103643,
    -0.767597,
    0.190583,
    0.19243,
    0.803641,
    0.249477,
    -0.407515,
    0.375073,
    -0.146362,
    0.432272,
    0.0835315,
    0.67136,
    -0.0467458,
    1.03565,
    0.870888,
    0.467206,
    0.622033,
    0.973736,
    0.288245,
    0.162257,
    0.776459,
    -0.238547,
    0.386557,
    -0.424507,
    0.447913,
    0.0602609,
    -0.699315,
    -0.841709,
    0.89802,
    0.433602,
    0.332938,
    -0.817213,
    -0.0352284,
    0.0791952,
    0.650804,
    0.398992,
    0.090901,
    -1.11159,
    -0.074258,
    -0.0527568,
    -0.664737,
    0.946824,
    0.615204,
    0.320578,
    -0.255547,
    0.163948,
    0.805477,
    -0.626804,
    -0.203028,
    -0.053963,
    -0.90203,
    0.509465,
    -0.182667,
    -0.336329,
    0.717369,
    -0.357276,
    -0.867609,
    0.501443,
    0.570911,
    -0.796496,
    -0.068587,
    -0.208427,
    0.68451,
    0.710072,
    0.564574,
    0.513475,
    -0.599524,
    0.655016,
    -0.195875,
    -0.670134,
    -0.277187,
    0.72653,
    -0.33246,
    0.807802,
    0.640387,
    -0.688194,
    -0.0246003,
    -0.280979,
    0.907099,
    -1.09213,
    -0.681964,
    -0.871675,
    -0.878267,
    -0.566274,
    -0.92913,
    0.395692,
    -0.011295,
    -0.578233,
    0.857813,
    0.263315,
    0.571263,
    -0.141311,
    0.516718,
    0.761902,
    -0.989629,
    0.374728,
    -0.547151,
    0.124966,
    -0.0234595,
    -0.349769,
    -0.0449833,
    0.806648,
    0.034518,
    -0.543634,
    -0.395539,
    0.48957,
    -0.373975,
    0.482831,
    -0.797028,
    0.497,
    0.183561,
    -0.619442,
    0.649891,
    -0.972108,
    -0.179101,
    0.261723,
    0.726411,
    1.08368,
    0.00902294,
    0.484594,
    -0.243222,
    0.772972,
    0.294582,
    0.28679,
    -0.205338,
    0.749815,
    0.129777,
    -0.0785482,
    -0.761075,
    0.460214,
    -0.596018,
    -0.734392,
    0.566215,
    -0.181899,
    0.790644,
    -0.669859,
    -0.664967,
    -1.31405,
    -0.00501806,
    0.837528,
    0.779864,
    -0.585721,
    -0.762584,
    -0.0444643,
    -0.352114,
    -0.108715,
    -1.09868,
    -0.334898,
    -0.447785,
    -0.857129,
    -0.978793,
    -1.08789,
    -0.805559,
    0.322775,
    -0.75904,
    -1.03637,
    -0.533851,
    -0.974641,
    -0.220178,
    -0.030893,
    -0.842905,
    -0.403357,
    0.500877,
    -0.913749,
    -0.735123,
    0.809063,
    0.104746,
    0.360964,
    -0.372431,
    0.296111,
    -0.0192643,
    0.0087665,
    -0.258566,
    0.940731,
    -0.202278,
    -0.313359,
    -0.295288,
    -0.401991,
    -0.756671,
    0.472986,
    -0.749376,
    -0.572279,
    -0.208188,
    -0.645269,
    0.49098,
    0.448952,
    -0.965469,
    -0.738706,
    0.197408,
    -0.616072,
    0.121143,
    -0.850473,
    -0.131634,
    -1.04231,
    -1.01264,
    -0.775216,
    -0.115686,
    0.0867973,
    0.0991509,
    0.399012,
    -0.455685,
    -0.596645,
    0.857959,
    0.0345496,
    0.223668,
    -1.06472,
    0.191548,
    -1.1734,
    -0.0402452,
    -0.178673,
    -0.712492,
    -0.959566,
    0.932259,
    -0.065956,
    -0.151208,
    0.386285,
    -0.829202,
    -0.435953,
    0.630937,
    0.579832,
    -0.844562,
    0.908529,
    0.239391,
    -0.87562,
    0.290633,
    0.031098,
    -0.612373,
    0.171591,
    0.625712,
    0.36966,
    -0.0793602,
    -0.599437,
    0.402193,
    0.898451,
    0.0520615,
    -0.420039,
    0.0202093,
    0.48285,
    0.17035,
    0.728238,
    0.31766,
    0.589642,
    -0.271556,
    -0.0737675,
    -0.529587,
    -0.741681,
    -0.206559,
    -0.658917,
    -0.592446,
    -0.676066,
    -1.07019,
    -0.970225,
    -1.01295,
    -0.457633,
    -1.11771,
    0.817677,
    -0.294085,
    0.262844,
    0.700801,
    -0.0457903,
    -0.359959,
    -0.806114,
    0.0257759,
    -0.544834,
    -0.637285,
    -0.0405853,
    0.657441,
    -1.0738,
    0.0700709,
    0.267958,
    0.626747,
    0.123778,
    -0.641649,
    0.0122682,
    -0.673129,
    -0.206952,
    0.263405,
    0.0243744,
    0.426314,
    0.0399022,
    -0.123532,
    -0.744039,
    0.196647,
    0.331529,
    -0.189759,
    0.510594,
    -0.224349,
    -0.0406608,
    0.919553,
    -0.90207,
    -0.362557,
    -0.020951,
    0.331425,
    0.675852,
    -0.502759,
    0.80863,
    0.373099,
    -0.141369,
    -0.361318,
    -1.12511,
    0.628447,
    1.15002,
    0.989759,
    -0.303986,
    1.04051,
    -0.736201,
    -0.36088,
    -1.03329,
    0.524633,
    -0.186178,
    -0.391146,
    -0.394827,
    0.371165,
    -0.313414,
    0.46099,
    0.00632708,
    0.136383,
    1.29322,
    1.17818,
    0.0878032,
    1.01465,
    1.14393,
    0.389456,
    -0.720018,
    0.319085,
    0.469739,
    -0.511589,
    0.652497,
    -0.83489,
    -0.892993,
    0.33969,
    -0.0329243,
    0.921602,
    -0.494229,
    0.725376,
    0.283728,
    0.272059,
    -0.406064,
    -0.165665,
    0.245994,
    -0.587881,
    0.0451387,
    0.871624,
    0.708912,
    -0.167263,
    -0.817524,
    0.446017,
    0.723192,
    -0.82715,
    0.443011,
    0.239822,
    1.02713,
    -0.470476,
    0.892216,
    0.854211,
    0.835616,
    0.238906,
    -1.00926,
    0.314803,
    0.25021,
    -0.891983,
    0.0667176,
    0.228932,
    -0.713345,
    0.799598,
    -0.0607867,
    0.577048,
    -0.527364,
    -0.339139,
    0.583539,
    -0.608465,
    -0.971431,
    -0.556779,
    -0.013113,
    0.273202,
    -0.0121115,
    0.393315,
    0.185585,
    -0.928815,
    -0.910894,
    -1.02677,
    0.638619,
    0.442802,
    -0.556858,
    0.0905898,
    -0.774693,
    0.297053,
    0.28703,
    -0.656337,
    0.0919332,
    0.738797,
    -0.667469,
    -0.588107,
    0.936321,
    0.772421,
    0.639534,
    0.674588,
    0.982634,
    -0.148405,
    -0.484285,
    -0.233651,
    1.04826,
    0.386553,
    -0.0231315,
    0.112574,
    -0.24247,
    0.916397,
    1.08414,
    -0.613265,
    -0.644453,
    -0.488669,
    -0.208051,
    -0.431936,
    0.928832,
    0.251843,
    -0.799741,
    0.156691,
    0.517669,
    0.25221,
    0.309152,
    0.639872,
    -0.563812,
    0.40368,
    -0.6083,
    -0.602147,
    0.45145,
    0.423001,
    -0.17444,
    -0.561993,
    -1.08368,
    -0.239183,
    0.527244,
    -1.05368,
    0.599269,
    -0.229974,
    0.268209,
    0.946652,
    0.497146,
    0.288259,
    0.28461,
    0.0868885,
    0.575529,
    1.08533,
    1.14475,
    0.438977,
    -0.0610533,
    -0.353246,
    -0.202683,
    -0.860353,
    0.320036,
    -0.703423,
    -0.72527,
    0.169684,
    -0.279172,
    0.271044,
    0.0936128,
    0.919706,
    -0.773533,
    -0.329469,
    -0.829951,
    0.428436,
    -0.132699,
    -0.348677,
    -0.0202195,
    -1.06868,
    0.384432,
    1.20105,
    0.920021,
    1.12619,
    0.445681,
    0.579438,
    -0.179648,
    0.0711476,
    -0.295412,
    -0.507701,
    0.719276,
    0.45226,
    0.43746,
    0.790692,
    0.365976,
    0.267101,
    -0.360538,
    -0.363597,
    -0.782414,
    0.0774835,
    1.0348,
    -0.257805,
    0.956818,
    0.0969215,
    -0.541046,
    -0.107145,
    0.725903,
    -0.275387,
    0.329457,
    0.384716,
    -0.696169,
    0.41854,
    0.125454,
    -0.436739,
    0.718269,
    -0.975556,
    0.0709889,
    0.568849,
    -0.727029,
    -0.488898,
    0.443134,
    -0.592333,
    0.341862,
    0.182989,
    0.818243,
    0.579989,
    0.744913,
    0.300358,
    0.249741,
    -0.271479,
    0.940194,
    0.0714187,
    0.13125,
    0.561139,
    -1.15611,
    0.273956,
    -0.385523,
    -0.0629522,
    -0.734806,
    0.0915357,
    0.397988,
    0.0647994,
    -0.511945,
    0.94659,
    0.618805,
    0.0294028,
    -0.719181,
    -0.809175,
    -0.458698,
    -0.396354,
    0.452334,
    0.744617,
    -0.774329,
    -0.338238,
    -1.02073,
    0.518315,
    -1.02319,
    -0.732779,
    -0.0828346,
    0.110684,
    -0.0662609,
    -0.780416,
    -1.61386,
    -0.0839382,
    -0.14039,
    -0.581984,
    -0.569759,
    0.144372,
    -1.24445,
    -0.460777,
    -0.904748,
    0.287896,
    0.231624,
    -0.712075,
    0.403947,
    -0.585073,
    0.756888,
    0.273605,
    -0.151196,
    -0.0813833,
    0.727955,
    -0.478064,
    0.264305,
    -0.719617,
    -0.0109079,
    0.349716,
    -0.0931199,
    0.400316,
    -0.384972,
    0.677213,
    -0.406884,
    0.291001,
    -0.328878,
    -0.595576,
    0.554339,
    -0.21208,
    0.869465,
    0.549665,
    -0.0506093,
    0.026134,
    -0.236018,
    -0.218031,
    0.221068,
    -0.821451,
    -0.985345,
    -0.853788,
    0.776172,
    0.239472,
    0.816693,
    0.979622,
    -0.261878,
    0.919975,
    0.387872,
    -0.227236,
    -0.943773,
    0.382073,
    -0.676871,
    -0.286956,
    -1.03154,
    -0.756158,
    0.269119,
    0.673702,
    -0.250818,
    0.31844,
    0.673928,
    0.100746,
    0.0633534,
    0.236074,
    -0.0188698,
    0.622673,
    0.236132,
    0.671984,
    0.579204,
    -0.350164,
    -0.939393,
    -0.376685,
    0.709791,
    -0.541698,
    -0.574101,
    -0.96849,
    -0.712606,
    0.73202,
    0.180237,
    -1.00853,
    0.739455,
    -0.363918,
    0.268495,
    0.729082,
    0.655886,
    -0.770909,
    -0.378502,
    0.234108,
    -0.188385,
    -0.840303,
    -0.926825,
    -0.816211,
    0.661653,
    -0.884282,
    0.342707,
    -0.296068,
    -0.929173,
    -0.193133,
    -1.28225,
    0.153749,
    -0.612608,
    -0.120851,
    0.674898,
    -0.218677,
    -1.03627,
    -0.0491056
  ],
  "inputBiasWeights": [
    0.422829,
    -0.729164,
    0.314458,
    -0.202297,
    0.302473,
    -0.765978,
    -0.202359,
    0.366678,
    0.865739,
    -0.845826,
    0.5843,
    0.400123,
    -0.759873,
    -0.323036,
    0.5295,
    0.912285,
    0.755378,
    -0.778623,
    -0.578492,
    -0.566861,
    0.198669,
    -0.527349,
    -0.354449,
    -0.804691,
    -0.674948,
    0.76893,
    0.635686,
    0.797158,
    0.284074,
    -0.464994,
    -0.388386,
    -1.05251,
    -0.307628,
    0.239775,
    0.904492,
    0.271547,
    0.885561,
    0.984816,
    0.170229,
    -0.88702,
    -1.1118,
    -0.0596346,
    0.413372,
    0.9063,
    0.366241,
    -0.00444764,
    -0.384202,
    0.52106,
    0.917779,
    -0.7297,
    -0.661041,
    0.234243,
    -0.627167,
    0.907631,
    0.882154,
    1.14038,
    0.375879,
    1.0014,
    0.890902,
    1.31042,
    0.110353,
    -0.297597,
    0.282242,
    0.57154,
    0.0837536,
    0.75273,
    0.418818,
    -0.851002,
    -0.856269,
    -0.215972,
    0.678026,
    -0.2725,
    -0.129728,
    0.964989,
    0.35171,
    -0.0876313,
    0.287444,
    0.0804851,
    0.858913,
    -0.468266,
    0.840863
  ],
  "inputNodes": 17,
  "inputWeights": [
    0.361514,
    0.580691,
    0.134591,
    -0.577947,
    0.8281,
    -1.28243,
    0.754037,
    0.82683,
    -0.123631,
    -0.0820803,
    0.872327,
    -0.047123,
    -0.901287,
    0.579047,
    0.496117,
    -0.930116,
    0.317725,
    -0.731891,
    -0.554602,
    0.448111,
    -0.947974,
    0.927041,
    -0.712348,
    -1.03202,
    0.0510754,
    -0.636335,
    -0.197341,
    0.391092,
    0.513285,
    0.384567,
    0.278578,
    -0.997713,
    -0.9146,
    -0.873954,
    -1.30711,
    0.352708,
    -0.886774,
    0.186516,
    -0.202266,
    0.0709386,
    -0.874654,
    -0.70196,
    -0.943232,
    0.391572,
    -0.218319,
    0.886839,
    -0.311687,
    -0.0292597,
    -0.692226,
    -0.623138,
    0.526261,
    -1.07092,
    -0.865704,
    0.16836,
    -0.88103,
    0.481284,
    0.319122,
    0.862639,
    -0.0979041,
    0.735917,
    0.500211,
    0.430347,
    0.728603,
    0.265868,
    0.456232,
    -0.302229,
    0.252711,
    0.676578,
    -0.766824,
    0.117531,
    -1.14258,
    0.368522,
    0.122376,
    -0.0698312,
    0.645536,
    -0.0191744,
    0.773804,
    0.921673,
    0.381041,
    -0.872659,
    -0.878639,
    -0.890761,
    0.81201,
    -0.502587,
    -0.335653,
    0.223203,
    0.0345988,
    -0.384822,
    0.594173,
    -0.0668535,
    0.531989,
    0.200228,
    0.586839,
    -0.648774,
    0.863966,
    -0.344338,
    -0.431187,
    0.791171,
    0.37036,
    -0.0358241,
    -0.516609,
    -0.156734,
    0.162425,
    -0.863778,
    -0.651397,
    -0.130953,
    0.468722,
    -0.040719,
    0.836513,
    0.261697,
    -0.230388,
    0.888938,
    -0.56436,
    0.0827522,
    0.430935,
    -0.5708,
    0.532175,
    0.632151,
    0.697558,
    0.470518,
    0.29775,
    -0.251367,
    -0.812953,
    -0.038187,
    -0.485442,
    0.591605,
    -0.460471,
    -0.625599,
    -0.501677,
    0.544777,
    -0.976026,
    -0.8329,
    0.834564,
    -0.921031,
    0.406245,
    -0.292504,
    -0.807606,
    0.128896,
    0.692157,
    0.27481,
    0.461582,
    0.808828,
    -0.35017,
    -0.880063,
    0.818197,
    -0.0918372,
    0.0976789,
    0.994543,
    -0.206532,
    0.316388,
    0.98697,
    0.451771,
    -0.058563,
    -0.460604,
    -0.825756,
    0.912527,
    -0.843038,
    -0.551295,
    -0.423233,
    -0.975453,
    0.0791886,
    0.751829,
    -0.627241,
    -0.84123,
    -0.177601,
    -1.07813,
    0.174202,
    0.212773,
    0.846266,
    -0.499739,
    -0.118231,
    -1.13739,
    -0.218322,
    -0.248101,
    0.380722,
    0.56206,
    0.650372,
    0.668474,
    -0.394659,
    0.924252,
    0.502135,
    0.834912,
    0.244841,
    -1.06628,
    0.18466,
    0.867845,
    -0.339697,
    0.571796,
    -0.682785,
    0.665737,
    0.0802593,
    -0.368903,
    -0.579613,
    -0.307247,
    0.503964,
    0.346785,
    0.414232,
    -1.00686,
    0.609748,
    0.372701,
    0.272098,
    0.377428,
    0.887074,
    0.89441,
    -0.327015,
    0.534382,
    -0.0242745,
    -0.209277,
    0.164499,
    0.607099,
    -0.401251,
    0.669727,
    -0.893848,
    -0.607868,
    0.750534,
    -0.634617,
    -0.461089,
    -1.02061,
    -0.424417,
    0.571719,
    0.149609,
    0.61185,
    0.286872,
    -0.348492,
    0.102295,
    0.883948,
    0.767569,
    -0.485161,
    0.78564,
    -0.72441,
    -0.121754,
    -0.164884,
    -0.0695597,
    0.288834,
    -0.0427021,
    -0.836234,
    -0.0663663,
    0.526059,
    -0.157389,
    -0.197765,
    -0.90687,
    -1.17523,
    -0.662919,
    -0.728719,
    -0.832815,
    -0.562912,
    -0.0431211,
    -0.42298,
    -0.618284,
    0.807314,
    0.776126,
    0.974119,
    -0.595797,
    -0.223664,
    -0.701168,
    -0.198633,
    -0.956201,
    -0.826766,
    -0.33229,
    -0.869085,
    -0.0965805,
    -0.0983644,
    -0.704988,
    -0.632637,
    -0.169058,
    0.0649259,
    0.105249,
    -0.85279,
    0.340163,
    -0.438248,
    -0.432095,
    -0.872759,
    0.24832,
    0.330999,
    0.766228,
    0.666757,
    -0.410823,
    0.842404,
    -0.0222578,
    0.37117,
    0.890443,
    0.332789,
    0.393175,
    0.431974,
    0.254077,
    -0.246183,
    0.0322094,
    -0.552543,
    0.603599,
    0.632963,
    0.49364,
    0.942816,
    0.846754,
    0.0989377,
    0.619199,
    0.243221,
    -0.582564,
    -0.206444,
    -0.325135,
    -0.282851,
    -0.201618,
    0.800017,
    -0.889637,
    -0.299579,
    -0.973587,
    0.339871,
    -0.118135,
    0.411477,
    -0.352008,
    0.208689,
    -0.450409,
    -0.0453091,
    -0.773946,
    -0.957889,
    -0.286328,
    -0.145037,
    0.0598729,
    0.79634,
    -0.484188,
    -0.323338,
    0.184418,
    -0.930947,
    -0.547461,
    0.567856,
    -0.691418,
    -0.4871,
    -0.147645,
    -0.883932,
    0.982152,
    -0.527346,
    0.777993,
    -0.76739,
    0.659424,
    -0.403064,
    -0.0295477,
    -0.614035,
    0.590222,
    0.386178,
    -0.346879,
    0.999741,
    0.989532,
    -0.784662,
    0.50745,
    0.617516,
    -0.126418,
    0.0242736,
    -0.896879,
    0.0307739,
    -0.0436363,
    0.858337,
    -0.84152,
    0.898164,
    -0.0970454,
    0.178237,
    0.424307,
    -0.442595,
    0.720959,
    0.617639,
    0.501366,
    -0.420138,
    0.292954,
    0.901586,
    0.577084,
    0.739894,
    0.972831,
    -0.505727,
    -0.527161,
    -0.0886004,
    -0.794028,
    0.627208,
    0.0388024,
    -0.795286,
    0.971283,
    -0.977255,
    -0.371861,
    0.777988,
    -0.495507,
    0.506178,
    -0.541102,
    -0.231426,
    0.322193,
    -0.388014,
    -0.238077,
    -0.595659,
    0.443366,
    -0.407245,
    -0.367784,
    -0.86041,
    0.0415478,
    0.517964,
    0.10676,
    -0.405543,
    0.0409536,
    -0.0152011,
    0.239335,
    -0.959255,
    0.603853,
    -0.375022,
    -0.454946,
    -0.636789,
    0.166229,
    -0.922704,
    0.518709,
    -0.160717,
    -0.614989,
    -1.41066,
    -0.203186,
    0.740246,
    -0.00425125,
    -0.659511,
    -0.414485,
    -0.658504,
    -0.869746,
    -0.767167,
    -0.523074,
    0.163625,
    0.180436,
    -1.24436,
    0.0849887,
    0.887161,
    -0.573531,
    1.30389,
    1.23623,
    -0.944322,
    -0.852828,
    -0.800644,
    0.887114,
    0.445653,
    -1.05061,
    -0.628754,
    0.811375,
    0.0268028,
    0.365888,
    -0.462044,
    -0.910965,
    -1.36433,
    -0.782771,
    0.627407,
    -0.250656,
    -0.448014,
    -0.122181,
    -0.82813,
    0.1667,
    0.579107,
    -0.0997861,
    -1.35645,
    0.142112,
    -0.827605,
    0.151614,
    -0.904411,
    0.414799,
    -0.203146,
    1.09222,
    0.085759,
    0.357091,
    0.511733,
    0.562427,
    -0.535203,
    -0.640305,
    0.142004,
    1.16128,
    1.14684,
    0.0936857,
    -0.807004,
    1.03758,
    -0.172943,
    -0.124968,
    1.22543,
    -0.822087,
    0.648198,
    -0.0541862,
    -0.30089,
    0.735643,
    0.750826,
    -0.980218,
    -1.85048,
    -0.522918,
    -0.750994,
    0.683058,
    0.416272,
    -0.661037,
    0.675177,
    0.554888,
    -0.919034,
    0.284622,
    -1.06942,
    -1.40081,
    -0.646144,
    0.00595754,
    0.517562,
    -0.449316,
    0.331201,
    0.802227,
    0.862128,
    -0.580407,
    0.400005,
    -0.572837,
    0.0826255,
    -1.12117,
    -0.978074,
    0.139124,
    -0.258676,
    -0.343375,
    0.0416816,
    0.150486,
    -0.0842439,
    -0.534099,
    -0.626065,
    0.247321,
    -0.0112233,
    0.104824,
    -0.818531,
    0.610973,
    0.783873,
    -0.959797,
    -1.3246,
    -0.52631,
    -0.31499,
    0.487445,
    0.211295,
    0.0744484,
    0.61934,
    -0.475619,
    -1.15391,
    0.147625,
    -0.695755,
    -1.00347,
    -1.04273,
    0.413186,
    -0.766588,
    0.859849,
    0.656411,
    -0.466669,
    0.939744,
    0.738419,
    -0.283763,
    0.145911,
    -0.227069,
    -0.617645,
    -0.266907,
    0.400508,
    0.93065,
    0.00959716,
    -0.841016,
    -0.135595,
    0.887568,
    0.536634,
    -0.864628,
    0.285059,
    0.638216,
    0.357612,
    -0.56361,
    -0.0625858,
    0.771719,
    0.759777,
    -0.653526,
    -0.0865807,
    0.702105,
    -0.845889,
    -0.998854,
    -0.172644,
    0.341653,
    0.40669,
    -0.910688,
    -0.491089,
    -0.757957,
    -0.753072,
    0.327415,
    -0.0109596,
    -0.562109,
    0.769653,
    -0.582743,
    -0.429485,
    -0.748438,
    0.805665,
    -0.664208,
    0.90665,
    0.410963,
    0.362009,
    0.137664,
    0.172275,
    0.0767059,
    0.180446,
    -0.890034,
    0.511212,
    0.327675,
    -0.332444,
    -0.355485,
    -0.626467,
    0.0550921,
    0.554957,
    -0.00283885,
    -0.709803,
    0.166585,
    0.70691,
    -0.62778,
    0.526397,
    -0.26721,
    -0.600701,
    -0.724506,
    0.391342,
    -0.788242,
    0.356392,
    0.735876,
    0.7997,
    0.0753236,
    0.858931,
    0.285639,
    0.0969386,
    0.852195,
    -0.653122,
    -0.215492,
    -0.334323,
    0.786568,
    0.251719,
    0.985031,
    0.0324523,
    -0.149488,
    -0.888367,
    -0.811283,
    -0.0432484,
    0.310448,
    0.540431,
    0.0656803,
    -0.368181,
    -0.165804,
    -0.273569,
    -0.0624809,
    0.978022,
    0.810938,
    0.50649,
    0.804535,
    -0.408996,
    0.806931,
    -0.704607,
    0.537736,
    0.813351,
    -0.968715,
    -0.894021,
    -0.458139,
    -0.303965,
    -0.537499,
    0.614855,
    -0.596984,
    0.415716,
    -0.847495,
    0.779628,
    0.0898983,
    0.804945,
    -0.999969,
    0.770208,
    0.199113,
    -1.01468,
    0.443599,
    0.72089,
    -1.11567,
    -0.0753039,
    -1.10805,
    -0.506746,
    0.150093,
    0.540919,
    0.377351,
    0.48456,
    0.621791,
    -0.000326409,
    -0.512431,
    -0.870736,
    0.631382,
    -0.965049,
    0.0269406,
    -0.537979,
    0.127385,
    0.499428,
    -0.0996236,
    -0.926506,
    -0.270649,
    -0.44228,
    0.15396,
    -0.0890629,
    -0.178136,
    -1.17942,
    -0.951503,
    -0.0354083,
    0.302885,
    0.0999156,
    -0.708568,
    -0.169099,
    0.687244,
    -0.321844,
    0.102464,
    0.313135,
    -0.612165,
    -0.352885,
    -0.109545,
    -0.618903,
    -0.776015,
    0.761973,
    -0.640784,
    -0.547258,
    -0.306557,
    0.567642,
    -0.121777,
    -0.130974,
    0.366242,
    -0.809454,
    0.119934,
    0.435231,
    -0.975454,
    0.618155,
    -0.646709,
    -0.95099,
    0.481029,
    -0.0012038,
    -0.580857,
    0.181393,
    -1.06614,
    0.726079,
    -0.3464,
    0.872939,
    -0.608831,
    -0.97039,
    -0.793017,
    0.600172,
    -0.45048,
    0.151435,
    0.372756,
    -0.962337,
    0.614086,
    1.04834,
    0.824688,
    0.0264563,
    0.285822,
    -0.606473,
    -0.0941899,
    -1.27876,
    0.866253,
    -0.556518,
    -0.195657,
    0.0427639,
    -0.659957,
    0.0616631,
    0.0196717,
    -1.11977,
    -1.20742,
    0.180756,
    -0.210954,
    -0.672589,
    0.0166162,
    0.220334,
    0.342104,
    -0.794141,
    0.583881,
    -0.983567,
    -0.0958042,
    -0.216589,
    -0.415864,
    -0.0371907,
    -0.605726,
    -0.192424,
    0.394655,
    -0.388325,
    0.539885,
    -0.292814,
    0.155553,
    -0.150276,
    0.39973,
    0.628063,
    0.12664,
    0.0518359,
    0.116226,
    -0.950796,
    -0.369325,
    -0.223288,
    -1.02149,
    -0.801736,
    -0.827677,
    -0.0466398,
    -0.847507,
    -0.984888,
    0.652201,
    -0.429621,
    -1.22847,
    -0.324286,
    -0.885525,
    0.0577193,
    -0.328825,
    -0.513929,
    0.504773,
    0.0797,
    0.543822,
    -0.454565,
    -0.0593232,
    -0.242806,
    -1.14985,
    0.754457,
    -0.844121,
    0.577633,
    0.693006,
    0.287188,
    0.80306,
    -0.409696,
    -1.11842,
    0.49717,
    0.126643,
    -0.146061,
    0.705866,
    -0.744742,
    -0.388055,
    0.0996456,
    0.904698,
    -0.116618,
    0.467254,
    0.904855,
    0.937441,
    0.202799,
    -0.651578,
    0.72043,
    0.825479,
    0.636549,
    -0.887112,
    -0.687437,
    -0.68008,
    0.5449,
    0.0983524,
    0.230521,
    0.877233,
    -0.097816,
    -0.434042,
    -0.698933,
    -0.403827,
    0.475317,
    -0.814527,
    -0.519439,
    0.611393,
    0.640942,
    -0.418825,
    0.64987,
    0.257406,
    -0.610648,
    0.811011,
    -0.518884,
    0.796386,
    -0.443239,
    -0.957217,
    -0.705431,
    0.690784,
    -0.658609,
    0.640306,
    -0.192498,
    0.797616,
    -0.805252,
    -0.276027,
    -0.735864,
    -0.904538,
    0.95972,
    0.652676,
    -0.226321,
    -0.0316267,
    0.734434,
    0.183269,
    0.415138,
    -0.0871146,
    -0.241256,
    0.232852,
    0.221335,
    -0.41363,
    -0.596307,
    -0.848162,
    -0.579153,
    -0.7736,
    -0.168624,
    -0.416166,
    -0.671387,
    -0.078794,
    0.61033,
    0.547939,
    -0.693151,
    -0.465556,
    -0.106613,
    -0.177427,
    -0.310104,
    0.0743642,
    -0.739279,
    0.572164,
    0.562676,
    -0.141899,
    0.800206,
    -0.522757,
    -0.0683842,
    0.347289,
    0.381716,
    -0.108397,
    -0.773615,
    -0.943448,
    -0.642882,
    -0.150544,
    -0.273914,
    -0.332404,
    0.451191,
    0.75438,
    -0.54554,
    -0.802242,
    0.289648,
    0.69082,
    -6.34193e-05,
    0.026216,
    0.349929,
    0.228258,
    0.800842,
    0.911525,
    0.25758,
    -0.595231,
    -0.0304079,
    0.837032,
    0.150645,
    0.414058,
    0.485443,
    0.546602,
    0.252987,
    0.884852,
    0.641076,
    -0.268066,
    0.844991,
    0.624292,
    -0.0218208,
    0.36184,
    -0.260847,
    -0.367715,
    -0.259309,
    0.140692,
    -0.357556,
    -0.95487,
    -0.261227,
    -0.773695,
    -0.322625,
    0.781466,
    0.563021,
    0.364529,
    0.948677,
    0.956753,
    0.992704,
    0.518906,
    0.930766,
    -0.8644,
    -0.936503,
    0.463109,
    0.43313,
    -0.152127,
    -0.223798,
    -0.728966,
    -0.386901,
    0.634232,
    -0.52417,
    0.454708,
    0.882232,
    0.0595636,
    0.309211,
    -0.795551,
    0.255733,
    0.457342,
    -0.234831,
    -0.480746,
    -0.242077,
    0.454053,
    0.0418797,
    0.930545,
    0.699773,
    -0.838024,
    -0.157278,
    0.118721,
    -0.538967,
    0.365595,
    -0.513698,
    0.188745,
    0.460694,
    0.565089,
    -0.894898,
    -0.615669,
    -0.66433,
    0.0537758,
    0.0964737,
    -0.686956,
    -0.46304,
    0.588899,
    0.374084,
    0.187277,
    0.418929,
    -0.646092,
    -0.105308,
    0.103834,
    0.619394,
    -0.807902,
    -0.0268085,
    0.781728,
    -0.584819,
    0.161345,
    -0.830557,
    0.84206,
    0.750813,
    -0.50763,
    0.243461,
    0.259946,
    0.108113,
    -0.208838,
    -0.203104,
    -0.00109768,
    -0.722482,
    -0.741852,
    0.391464,
    0.15749,
    0.0392191,
    -0.898592,
    -0.75227,
    -0.690238,
    -0.553345,
    0.0124006,
    -0.908616,
    0.567798,
    -0.766987,
    -0.303464,
    -0.753068,
    -0.288725,
    -0.102316,
    0.00266623,
    -0.792811,
    -0.398118,
    -0.20952,
    0.576725,
    -0.607387,
    0.689199,
    0.198791,
    -0.0922804,
    -0.304701,
    0.983468,
    -0.756825,
    0.179759,
    -0.0122993,
    0.599099,
    0.0161848,
    0.857444,
    0.458412,
    -0.396338,
    -0.383137,
    0.344752,
    -0.203307,
    0.2541,
    -0.831095,
    0.641023,
    -0.764726,
    0.452421,
    -0.737954,
    0.274331,
    -0.0140226,
    -0.593492,
    -0.0104551,
    -0.508659,
    -0.0378006,
    -0.474588,
    0.905917,
    -0.33497,
    0.531124,
    -0.460388,
    -0.556198,
    0.847541,
    -0.738487,
    -0.712722,
    -0.943701,
    -0.324028,
    -0.260603,
    -0.719447,
    0.748006,
    -0.464777,
    -0.579401,
    0.779307,
    0.600452,
    0.315704,
    -0.480045,
    -0.516217,
    -0.15753,
    0.830859,
    0.995993,
    -0.416099,
    0.460692,
    0.655771,
    0.934608,
    0.62533,
    0.705202,
    -0.320687,
    -0.968363,
    0.32301,
    -0.964036,
    -0.984648,
    0.0798228,
    0.316089,
    -0.163374,
    0.0556273,
    0.192173,
    -0.645951,
    -0.315186,
    0.316945,
    -0.566478,
    0.761708,
    0.359716,
    0.361901,
    -0.824281,
    0.356717,
    0.0214536,
    0.862482,
    0.723884,
    0.390612,
    -0.709764,
    0.00583673,
    -0.218332,
    0.00329947,
    -0.0933115,
    -0.419464,
    0.988642,
    -0.779622,
    -0.0609269,
    -0.728103,
    0.861046,
    0.792133,
    0.327534,
    0.187958,
    0.251583,
    0.326788,
    0.546445,
    0.503368,
    -0.232907,
    -0.486208,
    0.451719,
    -0.0349901,
    -0.0633364,
    -0.197505,
    -0.930684,
    0.0402195,
    -0.588601,
    -0.186801,
    -0.594948,
    0.392652,
    -0.915739,
    -0.718643,
    0.635221,
    0.0691805,
    -0.140175,
    -0.103391,
    0.553921,
    -0.257662,
    0.0867629,
    0.368896,
    -0.365606,
    -0.370018,
    -0.744359,
    -0.349342,
    -0.672016,
    0.84935,
    0.246995,
    0.763591,
    -0.843498,
    -0.179673,
    0.159401,
    0.977287,
    -0.302445,
    0.316308,
    -0.714512,
    0.0796092,
    -0.42969,
    -0.812074,
    -0.0110431,
    0.947921,
    0.24016,
    0.299836,
    -0.347137,
    -0.842301,
    0.0435565,
    -0.389184,
    0.405453,
    0.762059,
    -0.580631,
    0.432163,
    0.870404,
    0.148026,
    0.359571,
    -0.912328,
    -0.754797,
    0.995474,
    0.439475,
    -0.147282,
    0.951325,
    -0.307094,
    0.887096,
    -0.594676,
    0.879811,
    0.680062,
    0.469876,
    -0.864442,
    0.961965,
    -0.901923,
    -0.823766,
    -0.378091,
    -0.587579,
    -0.851059,
    -0.0919189,
    -0.0299003,
    0.22577,
    0.501958,
    -0.0489643,
    -0.786642,
    0.353301,
    0.732939,
    0.746912,
    -0.494963,
    0.630096,
    0.865775,
    0.90523,
    -0.920051,
    -0.692864,
    -0.695681,
    -0.530258,
    0.416461,
    0.149441,
    -0.108089,
    0.851867,
    0.10293,
    0.839335,
    -0.935201,
    -0.97565,
    -0.0300457,
    0.554367,
    -0.269545,
    -0.643345,
    -0.718738,
    -0.688867,
    -0.00183654,
    0.346781,
    -0.986025,
    0.671155,
    0.66629,
    -0.35064,
    -0.820101,
    0.912463,
    -0.46391,
    -0.494771,
    -0.407233,
    0.854464,
    0.887263,
    0.311598,
    0.530938,
    -0.800896,
    -0.335802,
    0.422122,
    -0.811462,
    -0.484957,
    -0.473251,
    0.277188,
    -0.69013,
    0.361033,
    0.65421,
    0.299456,
    0.403207,
    -0.145826,
    -0.567887,
    0.641634,
    0.877439,
    0.358709,
    0.978245,
    0.51166,
    -0.2236,
    -0.118769,
    -0.502242,
    -0.618195,
    -0.789695,
    -0.761179,
    -0.710452,
    0.934274,
    0.994166,
    -0.437015,
    -0.689049,
    0.196792,
    -0.423356,
    -0.284923,
    -0.336679,
    0.979038,
    0.760652,
    -0.27376,
    0.681681,
    -0.306834,
    0.571407,
    0.820748,
    -0.806089,
    -0.849702,
    -0.935402,
    -0.225778,
    0.886279,
    0.104735,
    -0.749611,
    0.340686,
    0.601667,
    0.661991,
    -0.336196,
    -0.909299,
    0.180317,
    0.196704,
    -0.243026,
    0.649366,
    0.42028,
    0.0925024,
    -0.186389,
    -0.469556,
    0.829937,
    -0.310016,
    0.803508,
    -0.193131,
    0.00395131,
    -0.41244,
    -0.582333,
    -0.570438,
    -0.798759,
    -0.227343,
    -0.287476,
    0.369321,
    -0.391453,
    0.921617,
    0.00655484,
    -0.123317,
    -0.960406,
    -0.620179,
    -0.0541079,
    0.81294,
    0.157783,
    0.342593,
    0.630985,
    0.67595,
    0.081527,
    0.746926,
    -0.116827,
    -0.000241518,
    0.72495,
    0.0564256,
    0.397788,
    -0.339309,
    0.649528,
    -0.511241,
    0.409837,
    0.390993,
    -0.443662,
    -0.545774,
    0.459459,
    -0.540529,
    -0.708388,
    0.630978,
    -0.737055,
    0.592343,
    -0.77197,
    0.638072,
    -0.696572,
    0.567978,
    0.326694,
    0.632983,
    -0.638919,
    0.452324,
    -0.657821,
    0.560871,
    -0.994787,
    -0.994721,
    -0.123643,
    -0.743651,
    -0.901471,
    -0.0311863,
    0.999955,
    0.7626,
    -0.716976,
    -0.0598505,
    0.981301,
    -0.500365,
    -0.0642521,
    -0.77436
  ],
  "outputNodes": 10
}