{
  "hiddenBiasWeights": [
    -0.247171,
    -0.343482,
    0.631053,
    0.704605,
    -0.670422,
    0.0551464,
    -0.0277416,
    0.0978716,
    -0.0536651,
    0.850757
  ],
  "hiddenNodes": 81,
  "hiddenWeights": [
    0.517324,
    0.943536,
    0.490323,
    1.03239,
    0.435511,
    -0.0999,
    -0.147291,
    -0.438507,
    -0.298511,
    0.767708,
    -0.345278,
    0.519975,
    -0.0830062,
    0.147682,
    0.646137,
    -0.692934,
    -0.792563,
    -0.431531,
    -0.271141,
    -0.637182,
    0.310081,
    0.89991,
    -0.020873,
    0.674838,
    -0.0418277,
    0.397007,
    0.376326,
    -0.0649075,
    0.646519,
    -0.385736,
    0.919047,
    0.788427,
    0.61906,
    0.983129,
    0.346789,
    -0.133297,
    -0.295621,
    0.660603,
    -0.0221276,
    -0.272501,
    0.344689,
    -0.886946,
    0.353146,
    -0.608491,
    -0.389508,
    0.0773203,
    -0.288882,
    -0.370283,
    -0.452145,
    -0.692931,
    -0.864033,
    -0.867897,
    0.00095312,
    -0.85555,
    0.598659,
    0.273969,
    0.39772,
    -0.166716,
    -0.291633,
    0.446246,
    1.1455,
    -0.595571,
    0.562296,
    0.321038,
    -0.931505,
    0.268568,
    0.663811,
    -0.0820321,
    0.663242,
    0.0605698,
    -0.566735,
    0.329328,
    0.153827,
    -0.459175,
    0.677433,
    0.415737,
    -0.578076,
    -0.82263,
    0.794929,
    0.869409,
    0.308345,
    0.742676,
    0.354763,
    -0.923233,
    0.0410436,
    0.859491,
    -0.224527,
    0.626371,
    -0.292108,
    0.459938,
    -1.01273,
    -0.10147,
    -0.620861,
    -1.05838,
    -0.232939,
    -0.339205,
    -0.891741,
    -0.350008,
    0.436139,
    -0.74174,
    0.38491,
    0.199278,
    0.404697,
    -0.805962,
    0.370975,
    -0.0862449,
    -0.599122,
    0.392654,
    0.125279,
    0.142752,
    0.0783647,
    -0.483432,
    -1.6474,
    -0.665969,
    -0.432153,
    -0.126423,
    0.205861,
    -0.760619,
    -0.374149,
    0.658731,
    -0.191806,
    -0.810151,
    -2.17888,
    0.593668,
    -0.552397,
    0.183817,
    -0.515074,
    -0.97466,
    -0.650183,
    -0.473783,
    -0.685156,
    0.610879,
    1.06402,
    0.887421,
    0.224497,
    1.12444,
    1.0265,
    0.682679,
    0.645011,
    -0.153381,
    0.898755,
    -0.445978,
    0.239354,
    0.0626301,
    -0.678226,
    0.293747,
    0.846283,
    -0.338778,
    -0.607097,
    0.0890218,
    -0.106464,
    -0.875666,
    0.809355,
    0.270486,
    -0.699027,
    0.339081,
    0.919578,
    -0.409371,
    1.14709,
    0.603582,
    0.664786,
    0.37271,
    0.742302,
    0.241596,
    -0.204472,
    0.0110904,
    0.100013,
    -0.316296,
    -0.612538,
    0.489985,
    0.347222,
    -0.194144,
    -1.03224,
    0.549894,
    0.362407,
    -0.353408,
    -0.678604,
    -0.452663,
    0.228219,
    0.8128,
    -0.205822,
    0.947119,
    -0.380369,
    -0.736483,
    -0.126196,
    -0.281242,
    0.0960765,
    0.047639,
    0.368642,
    -0.402786,
    -0.509608,
    0.83333,
    0.278477,
    0.173384,
    0.665009,
    0.926802,
    -0.509548,
    -0.166516,
    -0.751854,
    0.258694,
    0.0377026,
    0.612139,
    -0.00580622,
    -0.133864,
    -0.668495,
    0.508752,
    0.63792,
    -0.940998,
    -0.900698,
    0.0838702,
    -0.954709,
    -0.789917,
    -0.755232,
    -0.281572,
    -0.620649,
    -0.496668,
    -0.805198,
    0.721374,
    0.30562,
    0.819288,
    -0.599876,
    0.376446,
    1.32583,
    0.609726,
    -0.676594,
    0.651609,
    1.11522,
    1.1741,
    0.603871,
    0.175385,
    1.17493,
    0.244902,
    1.55984,
    0.70744,
    -0.768352,
    0.113779,
    0.445817,
    -0.171006,
    0.137519,
    -0.429927,
    -0.630964,
    -0.12833,
    0.12732,
    -0.746776,
    0.601955,
    -0.400037,
    -0.229795,
    1.05006,
    0.852938,
    0.0342201,
    -0.806968,
    -0.513753,
    -0.633731,
    -0.326994,
    -0.973066,
    0.575255,
    -0.152844,
    -0.544111,
    -0.692449,
    -1.02624,
    0.563991,
    0.1281,
    -0.402209,
    0.866356,
    -0.231347,
    -0.353495,
    0.356747,
    0.158018,
    -0.725849,
    0.467828,
    0.250206,
    -0.216049,
    -0.502586,
    0.706339,
    -0.14799,
    -0.672895,
    0.174161,
    0.608438,
    0.134882,
    -0.286874,
    -0.20129,
    -0.660888,
    -0.74009,
    -0.915944,
    -0.227028,
    -0.121616,
    -0.405831,
    0.882704,
    0.301843,
    0.233898,
    -0.982286,
    -0.82558,
    -0.244735,
    0.2291,
    -0.0937835,
    -0.721941,
    -0.88545,
    -0.951986,
    -0.267573,
    0.379752,
    -0.131812,
    0.358949,
    0.306742,
    -0.405207,
    -0.0199502,
    -0.762907,
    0.68541,
    -0.318523,
    0.88254,
    0.10777,
    0.681287,
    -0.435304,
    -1.26245,
    -0.784844,
    -0.734709,
    0.795792,
    0.116021,
    0.0221573,
    -1.08326,
    0.433249,
    -0.997217,
    -0.941113,
    -0.461126,
    -0.876822,
    -0.237696,
    0.434687,
    -0.407515,
    -0.781983,
    0.311496,
    -0.277944,
    0.624525,
    0.248082,
    -0.84337,
    -1.083,
    -0.749038,
    -0.188821,
    -0.632408,
    -1.04514,
    -0.507699,
    0.483756,
    0.197509,
    0.284197,
    -1.31888,
    -0.0902125,
    -0.125981,
    -0.816178,
    -0.34559,
    -0.0889388,
    0.382615,
    -0.0903233,
    0.483016,
    0.968772,
    0.0985636,
    -0.106878,
    -0.4242,
    -0.159047,
    0.245206,
    -0.317216,
    0.329943,
    -0.429579,
    -0.271757,
    0.370906,
    0.689431,
    0.0569353,
    0.856786,
    1.01296,
    0.696288,
    -0.0360354,
    0.452251,
    0.365475,
    -0.341488,
    -0.477635,
    -0.65266,
    -1.0792,
    0.0050419,
    -1.00693,
    0.303473,
    0.0541424,
    -0.484779,
    -0.146281,
    -0.320603,
    -0.802457,
    -0.922927,
    -0.637244,
    -1.13822,
    -0.810749,
    -0.196664,
    -0.046912,
    -0.735057,
    -0.00963832,
    -0.496714,
    -0.684344,
    0.947353,
    0.236673,
    0.572288,
    0.941423,
    -0.615735,
    0.524369,
    -0.0973073,
    0.011546,
    -0.487725,
    -0.838731,
    0.956946,
    0.55266,
    -0.78646,
    -0.0118825,
    -0.350033,
    1.1358,
    0.809199,
    0.766184,
    0.431701,
    0.454509,
    0.0226293,
    0.427386,
    -0.230871,
    0.887656,
    -0.627214,
    -0.365472,
    -0.356181,
    -0.514776,
    0.0965591,
    0.516456,
    -1.36676,
    -0.711633,
    0.674521,
    0.424836,
    -0.85706,
    -0.545298,
    0.349389,
    -0.12955,
    -0.518314,
    -0.4533,
    -0.179313,
    0.333638,
    0.22502,
    -0.760125,
    0.679105,
    -0.194152,
    0.0373315,
    -0.238911,
    -0.772092,
    0.087487,
    0.785735,
    0.340444,
    -0.433104,
    -0.0174198,
    0.735446,
    0.862806,
    -0.408186,
    -0.845583,
    0.84274,
    0.272243,
    -0.107379,
    -0.132675,
    0.652039,
    -0.285822,
    0.212873,
    0.994174,
    -0.225875,
    -0.178847,
    -1.10833,
    -0.116993,
    -1.93651,
    0.411406,
    0.44418,
    -0.900927,
    -0.989308,
    -0.977037,
    0.28059,
    -0.448798,
    0.297045,
    0.0398776,
    -1.66798,
    0.260391,
    -1.09631,
    0.0490773,
    -1.22249,
    -0.231933,
    -1.07249,
    0.51383,
    -0.30153,
    -0.377936,
    -0.300807,
    0.039731,
    -0.526218,
    -0.482257,
    -0.280905,
    0.0627415,
    0.764853,
    -0.856421,
    -1.02013,
    -0.024787,
    -0.977172,
    -0.242394,
    -0.879277,
    -0.154053,
    0.161066,
    0.679748,
    0.597507,
    0.86535,
    -0.912536,
    -0.856293,
    -0.183524,
    0.422984,
    -0.385704,
    0.243393,
    0.277957,
    -0.755107,
    0.415544,
    0.833599,
    0.326313,
    -0.728029,
    0.827205,
    0.305011,
    0.388219,
    1.0093,
    0.988701,
    -0.597688,
    0.818501,
    -0.794814,
    -0.511954,
    -0.643508,
    -0.282243,
    -0.755164,
    -0.658101,
    0.273371,
    0.45365,
    0.799283,
    -0.605044,
    -0.564314,
    -0.390049,
    0.356911,
    0.454556,
    0.00148056,
    0.571893,
    -0.580492,
    -0.214619,
    -0.603399,
    -0.0393671,
    0.825041,
    0.0958385,
    0.731819,
    0.168409,
    -0.889516,
    -0.697614,
    0.839256,
    -0.193894,
    0.919322,
    -0.475595,
    -0.169059,
    -0.851556,
    -0.476104,
    -0.124917,
    0.56551,
    0.654507,
    -0.154726,
    -0.186036,
    1.00634,
    -0.631313,
    -0.0301603,
    -0.657721,
    0.286665,
    1.11892,
    -0.0471097,
    0.479248,
    -0.2127,
    0.904498,
    0.134394,
    1.07443,
    0.671522,
    0.880597,
    -0.557086,
    -0.105281,
    0.786408,
    -0.031405,
    0.831639,
    0.404634,
    -0.48088,
    -1.00405,
    0.567853,
    -0.602643,
    0.215268,
    0.940613,
    -0.0601233,
    0.842141,
    0.180682,
    0.751112,
    0.912744,
    -0.59276,
    -0.82828,
    -0.855955,
    -0.978618,
    -1.29007,
    0.0551446,
    -0.902704,
    0.0788089,
    0.417962,
    0.241156,
    0.411942,
    0.00847561,
    0.457684,
    0.290243,
    0.575032,
    0.178996,
    0.729169,
    0.572405,
    0.442433,
    -0.0859512,
    -0.451239,
    0.755875,
    -0.0198824,
    0.533297,
    0.316671,
    0.425571,
    -0.78255,
    0.111645,
    0.261647,
    1.0407,
    -0.565053,
    -0.474245,
    -0.335404,
    -0.304898,
    -1.24562,
    0.790128,
    0.157983,
    -0.971252,
    0.579612,
    -0.892812,
    -0.758799,
    -1.00757,
    0.562478,
    0.854326,
    0.219011,
    0.950753,
    0.431867,
    -0.505968,
    -0.368608,
    0.657481,
    -0.418442,
    -0.302704,
    0.800195,
    -0.742324,
    -0.162657,
    -0.774097,
    -0.934518,
    -0.436847,
    0.434098,
    -0.708753,
    0.00716112,
    0.121357,
    -1.03569,
    -0.653718,
    -0.903391,
    -0.256872,
    0.558643,
    -0.228228,
    0.472382,
    -0.0278993,
    -0.880365,
    -0.244802,
    -0.811669,
    -0.658065,
    -2.12151,
    0.410104,
    0.0099713,
    -1.12695,
    -1.19505,
    0.498678,
    -0.824461,
    -0.888475,
    0.175542,
    -0.377261,
    -1.03995,
    0.015224,
    -0.688273,
    0.444841,
    -0.664668,
    0.81336,
    -0.316828,
    0.0816171,
    0.676372,
    0.787187,
    0.0197192,
    0.496159,
    0.321013,
    0.466133,
    -0.044781,
    -0.574384,
    0.916819,
    0.937349,
    -0.453727,
    -0.662961,
    -0.0727591,
    -0.274659,
    0.431159,
    -0.250697,
    -1.04991,
    0.874245,
    -0.304281,
    -0.80815,
    -0.161011,
    0.809828,
    -1.18173,
    -0.448493,
    0.181952,
    0.591584,
    -0.576969,
    -0.265821,
    0.346182,
    0.472481,
    0.318361,
    -0.767187,
    -1.2311,
    -0.146342,
    -0.199075,
    0.218967,
    -0.806325,
    -0.0304291,
    0.93022,
    -0.746038,
    -0.640081,
    0.0620312,
    0.642185,
    -0.858683,
    0.562214,
    0.36942,
    -0.470951,
    -0.28464,
    0.738073,
    -0.167393,
    0.663674,
    0.226097,
    -1.08478,
    -0.689112,
    -0.708054,
    -0.689211,
    -0.941266,
    -0.460381,
    -0.695422,
    -1.00309,
    0.689456,
    -0.244384,
    -0.591805,
    0.913895,
    -0.426041,
    0.749169,
    -0.854225,
    -0.493638,
    -0.763291,
    -0.201987,
    -0.218515,
    0.819975,
    -0.264197,
    0.873455,
    0.0102139,
    -0.898122,
    -0.436106,
    0.183943,
    0.629132,
    0.897237,
    0.0707337,
    0.58696,
    -0.230304,
    0.690877,
    0.588055,
    -0.859318,
    -0.767106,
    0.0722858,
    0.248762,
    -0.831988,
    0.914211,
    0.724414,
    0.213287,
    0.184718,
    0.365378,
    0.101963,
    0.34501,
    -0.306844,
    -0.204749,
    -0.692759,
    -0.236656,
    -0.261695,
    -0.739975,
    0.00952951,
    -0.127632,
    -0.346718,
    0.624417,
    -0.9037,
    0.539043,
    0.473557,
    0.97737,
    0.221109,
    0.652576,
    0.896053,
    0.395831,
    0.751576,
    -0.49543,
    -0.0474464,
    -0.446236,
    0.330357,
    -0.803506,
    -0.169427,
    -0.491501,
    0.734348,
    0.80795,
    0.430389,
    0.363278,
    0.0466413,
    -0.408084,
    -0.887818
  ],
  "inputBiasWeights": [
    -0.289883,
    -0.707158,
    -0.28349,
    0.705737,
    0.848639,
    -0.309281,
    0.716347,
    0.852899,
    -0.221437,
    0.935817,
    0.0698311,
    0.106369,
    0.467963,
    0.0794888,
    -0.56618,
    -0.33643,
    0.00531921,
    0.931306,
    -0.335808,
    0.581409,
    -0.216882,
    0.175726,
    -0.00242999,
    0.161719,
    -0.246773,
    -0.605964,
    -0.515218,
    0.987762,
    -0.453842,
    -0.480405,
    1.19345,
    0.742689,
    0.24658,
    -0.15416,
    -0.782447,
    0.855197,
    1.17554,
    -0.921685,
    -0.402658,
    0.51124,
    -0.169267,
    0.310942,
    -0.722439,
    0.375942,
    0.596766,
    -0.0329334,
    -0.86231,
    -1.056,
    0.407549,
    0.0798443,
    -0.579007,
    0.4031,
    0.490814,
    0.513822,
    0.204793,
    -0.631652,
    0.0221993,
    -0.636307,
    0.729971,
    -0.522746,
    0.72005,
    0.778374,
    -0.22008,
    -0.773258,
    0.265065,
    -0.101509,
    -0.818846,
    0.823753,
    0.526574,
    -0.668202,
    -0.367464,
    -0.401716,
    1.06329,
    -0.695883,
    0.8549,
    0.925708,
    0.509,
    0.795033,
    0.492305,
    0.826381,
    -0.0367864
  ],
  "inputNodes": 17,
  "inputWeights": [
    0.475435,
    0.280675,
    -0.473667,
    -0.233147,
    0.944136,
    -0.203981,
    0.120132,
    -0.886668,
    -0.298392,
    -0.180785,
    -0.219889,
    -0.0629923,
    -0.680881,
    0.658787,
    0.660531,
    0.931984,
    -0.651514,
    0.134113,
    -1.17644,
    0.227551,
    0.188494,
    0.147399,
    1.4958,
    0.717088,
    -0.218994,
    0.121998,
    -0.260662,
    0.419381,
    -0.281687,
    -0.793642,
    0.68488,
    -0.997723,
    0.00676706,
    -0.788727,
    -0.109292,
    -0.666692,
    0.818856,
    -0.488316,
    0.0480192,
    -0.0384567,
    0.724939,
    -0.741975,
    -0.571689,
    0.336665,
    -0.779522,
    -0.636062,
    -1.31144,
    -1.02838,
    0.0278021,
    -0.620272,
    -0.868108,
    0.458236,
    -0.680236,
    0.152363,
    -0.396152,
    -0.234958,
    0.336166,
    0.532127,
    0.637265,
    -1.33794,
    0.366325,
    0.330715,
    -1.042,
    0.0257933,
    -0.965638,
    -0.49543,
    -1.63176,
    0.419279,
    0.572024,
    -0.558382,
    -1.26311,
    -0.0440814,
    0.694266,
    0.691467,
    0.560292,
    -1.03433,
    -1.2799,
    0.382479,
    -1.12401,
    -0.258384,
    0.0640096,
    -0.20068,
    0.678701,
    -0.400582,
    -0.938919,
    0.695812,
    0.157439,
    -0.98866,
    -0.760912,
    -0.6333,
    0.821611,
    0.624383,
    -0.072118,
    -0.0353355,
    0.704056,
    0.489302,
    0.242561,
    -0.815638,
    -0.756129,
    0.404505,
    -0.463795,
    -0.858554,
    0.0602877,
    0.0652533,
    -0.50166,
    0.0630674,
    0.350279,
    -0.347062,
    0.422795,
    -0.546925,
    0.460507,
    -0.329159,
    0.342694,
    0.643392,
    -0.205783,
    -0.0410209,
    0.151263,
    -0.629819,
    0.579968,
    0.110695,
    -0.716646,
    0.895597,
    -0.489022,
    -0.101406,
    -0.65644,
    -0.300575,
    0.330338,
    0.79449,
    -0.883119,
    0.281263,
    0.0662992,
    0.799484,
    -0.10114,
    0.508232,
    0.397668,
    -0.622247,
    0.263993,
    0.940397,
    0.795475,
    0.141714,
    -0.107536,
    0.476127,
    0.910781,
    -0.789802,
    0.285758,
    0.192317,
    -0.383139,
    -0.758332,
    0.997616,
    -0.269112,
    0.314813,
    0.929035,
    0.826735,
    -0.473881,
    -0.478066,
    -0.518258,
    -0.0315568,
    -0.112242,
    -0.366195,
    -0.260036,
    0.504042,
    0.168459,
    -0.278895,
    0.299985,
    0.317058,
    1.00959,
    -0.490487,
    -0.586631,
    -0.0595172,
    0.105678,
    0.494035,
    -0.907888,
    -0.783384,
    -0.412994,
    -0.693879,
    0.0804885,
    -0.843694,
    -1.29231,
    -0.0512608,
    -0.158585,
    0.6323,
    0.140443,
    -1.00088,
    -0.938924,
    -0.688477,
    -0.690866,
    -0.0239901,
    0.0786005,
    0.0534888,
    -0.806659,
    -0.603339,
    -0.254221,
    -0.246998,
    0.0275088,
    0.027405,
    -0.351806,
    0.405174,
    0.719169,
    0.856465,
    -0.89578,
    -1.05089,
    0.653529,
    -0.215878,
    0.225267,
    -0.875857,
    -1.01576,
    -0.838415,
    -0.862741,
    0.203851,
    0.0203036,
    -0.948209,
    -0.700845,
    -0.569566,
    0.432356,
    -0.751851,
    0.00893295,
    -0.572197,
    -0.142827,
    -0.310972,
    0.428364,
    -0.759051,
    -0.683461,
    0.726168,
    -0.414408,
    0.265783,
    0.215422,
    -1.03837,
    -0.405554,
    -0.76198,
    -0.858007,
    0.510503,
    -0.450811,
    -0.943514,
    -0.813626,
    -0.390243,
    1.01088,
    0.63814,
    -0.515386,
    0.163304,
    -0.539164,
    -0.444729,
    -0.216611,
    -0.714705,
    0.515413,
    0.956855,
    -0.855365,
    0.285098,
    0.0814562,
    0.532608,
    -0.733838,
    -0.614721,
    -0.39212,
    -0.876089,
    -0.692861,
    0.00817156,
    0.569266,
    0.130318,
    -0.400965,
    0.598865,
    0.679749,
    -0.160735,
    0.220007,
    0.0649626,
    -0.25615,
    0.240332,
    0.958398,
    -0.856431,
    0.49552,
    -0.605988,
    -0.493758,
    0.99078,
    0.161637,
    -0.871627,
    0.720525,
    0.185567,
    0.647451,
    0.695289,
    0.525449,
    -0.980985,
    0.647672,
    0.968252,
    0.553716,
    0.415933,
    0.0814826,
    -0.838657,
    0.538705,
    0.703426,
    -0.706106,
    -0.916728,
    0.702512,
    -0.556954,
    -0.211846,
    -0.358599,
    0.117624,
    0.79328,
    0.689472,
    -0.458961,
    0.795827,
    -0.433906,
    0.852325,
    0.387581,
    -0.790356,
    0.109864,
    -0.125525,
    -0.0948079,
    0.875915,
    0.3847,
    -0.465993,
    0.8064,
    -0.117205,
    -0.594227,
    0.518142,
    -0.638718,
    0.554666,
    0.720867,
    0.166951,
    -0.0108712,
    0.578957,
    0.768069,
    0.832348,
    -0.0489209,
    -0.962966,
    -0.616635,
    -0.548068,
    0.220793,
    0.0801568,
    0.622787,
    -0.648242,
    0.887057,
    0.567682,
    0.486073,
    -0.707976,
    0.0509431,
    0.51916,
    0.00570726,
    0.882262,
    0.160128,
    0.345754,
    0.45477,
    0.598973,
    0.316336,
    0.561027,
    -0.511119,
    -0.867645,
    -0.520169,
    0.241744,
    0.412199,
    0.717799,
    0.660354,
    -0.142175,
    0.32567,
    -0.583283,
    0.465631,
    0.661187,
    -0.369225,
    -0.771621,
    0.724096,
    -0.10583,
    -0.920758,
    0.206317,
    0.465183,
    0.626379,
    0.462251,
    0.16618,
    -0.919389,
    0.221242,
    0.176414,
    -0.623215,
    0.242943,
    -0.126823,
    -0.873697,
    0.0614264,
    0.417324,
    -0.587237,
    0.361111,
    0.886123,
    0.440758,
    0.906347,
    0.720153,
    -0.81742,
    -0.859286,
    0.278283,
    -0.636949,
    -0.71738,
    0.489844,
    0.771052,
    0.684333,
    0.73562,
    -0.407839,
    0.093854,
    0.558795,
    0.178355,
    0.15147,
    0.856815,
    -0.476057,
    -0.228554,
    -0.874355,
    -0.615967,
    -0.854954,
    -0.632,
    0.77924,
    0.639799,
    0.341273,
    -0.366763,
    -0.242436,
    1.1164,
    -0.112406,
    0.821766,
    1.24067,
    -0.678324,
    0.234732,
    1.05457,
    -0.3026,
    0.274547,
    -1.31534,
    0.520635,
    -1.88727,
    -2.47376,
    1.2712,
    0.313368,
    1.12731,
    1.13922,
    -1.44968,
    0.635629,
    -0.137649,
    -0.61324,
    -0.494623,
    1.87847,
    2.01145,
    0.0820216,
    -0.283637,
    -0.956505,
    -0.308535,
    -0.3333,
    -0.870627,
    -0.276507,
    -1.63403,
    -1.47813,
    -0.978621,
    -1.53804,
    -0.403484,
    0.480665,
    -0.877016,
    -1.40843,
    1.32115,
    0.639448,
    -0.832624,
    -1.3519,
    -0.379956,
    0.793277,
    0.59399,
    -1.83396,
    -1.12638,
    -0.246562,
    0.128581,
    -0.138993,
    1.1657,
    -0.1341,
    0.4654,
    0.336857,
    -0.791727,
    1.75666,
    -0.751448,
    0.814054,
    -1.1167,
    1.13196,
    0.0855003,
    -0.265544,
    0.52278,
    0.378426,
    -0.463786,
    -2.11056,
    -0.624361,
    0.273784,
    -0.00408336,
    -1.19908,
    -1.11639,
    0.0689289,
    0.0771087,
    -1.41124,
    -0.0215305,
    0.337179,
    -0.573589,
    0.225531,
    1.41673,
    0.438998,
    -0.672988,
    0.666613,
    0.433355,
    -0.545161,
    -0.176229,
    -0.268349,
    0.337747,
    -0.430699,
    -0.584166,
    -0.395129,
    0.567059,
    -0.367556,
    -0.685437,
    0.434599,
    0.0373904,
    -0.131003,
    -0.0291803,
    0.411062,
    0.342175,
    0.32544,
    0.673182,
    0.727796,
    0.211227,
    1.1958,
    -0.0778717,
    -0.853785,
    0.396391,
    0.566053,
    -0.352718,
    -0.71731,
    0.684419,
    0.258758,
    0.228453,
    -0.524105,
    -1.09176,
    0.955972,
    1.1167,
    -0.235405,
    0.672654,
    -0.444151,
    0.32675,
    -0.757506,
    -0.30267,
    0.136677,
    0.331677,
    0.106556,
    -1.078,
    -1.17116,
    -0.469114,
    -0.963113,
    0.290725,
    0.548052,
    0.891311,
    -0.641487,
    -0.543686,
    0.733645,
    0.852552,
    -0.788141,
    0.56511,
    0.215843,
    -0.764319,
    0.343089,
    -0.824977,
    -0.652697,
    0.584557,
    -0.876239,
    -0.0840621,
    -0.156357,
    0.582048,
    -0.660603,
    0.163248,
    -1.1126,
    0.738924,
    -0.327877,
    0.462582,
    0.258164,
    -1.07575,
    0.189274,
    0.0877233,
    0.24995,
    -0.98633,
    -0.130963,
    -0.0202827,
    0.301641,
    -0.252267,
    0.911493,
    -0.587607,
    0.425972,
    0.431861,
    -0.377661,
    0.984557,
    -0.224309,
    -0.427705,
    0.466709,
    -0.905523,
    -0.518229,
    -0.19859,
    -0.314143,
    -0.0913565,
    0.00428605,
    0.620299,
    -0.31452,
    -0.54126,
    -0.183225,
    0.215269,
    0.756111,
    -0.930502,
    0.00934172,
    0.0752101,
    -0.284287,
    -0.261091,
    -0.282083,
    -0.230871,
    -0.670508,
    0.643328,
    0.64546,
    0.125389,
    0.91819,
    -0.477365,
    -0.0188277,
    -0.956963,
    0.87653,
    -0.584748,
    0.304368,
    0.920601,
    0.174877,
    -0.166063,
    -0.656063,
    0.92953,
    -0.674873,
    0.365503,
    -0.383451,
    0.278313,
    -0.582591,
    0.176168,
    -0.0804012,
    0.625558,
    0.0915616,
    0.611337,
    -0.641109,
    -0.608834,
    0.373657,
    0.531062,
    0.592984,
    0.572796,
    -0.310644,
    0.167265,
    0.921599,
    -0.261059,
    0.268908,
    0.503196,
    -0.586751,
    -0.372487,
    -0.165525,
    -0.135242,
    -0.581922,
    0.463934,
    -0.265684,
    -0.786995,
    -0.920229,
    -0.690982,
    0.600339,
    -0.917693,
    -0.356175,
    0.188161,
    0.362574,
    0.187969,
    -0.0964471,
    -0.690383,
    -0.899527,
    -1.22347,
    0.889825,
    0.49416,
    0.701934,
    1.25642,
    -1.70084,
    0.489326,
    -0.121772,
    -1.11059,
    0.579979,
    0.71902,
    -0.790501,
    -0.654806,
    -0.621353,
    -1.0956,
    -0.0462066,
    -0.408402,
    -0.960815,
    0.286125,
    -0.357931,
    0.353186,
    0.557234,
    -0.249203,
    0.598873,
    -0.097106,
    0.548099,
    -0.998881,
    -0.513809,
    -0.813239,
    0.513908,
    -0.694484,
    -1.09473,
    -1.28264,
    -0.227582,
    0.151795,
    -0.660462,
    -0.968507,
    0.370917,
    0.768875,
    0.862189,
    -0.194558,
    -0.0684057,
    -0.774617,
    -0.520746,
    0.0260116,
    -0.556487,
    -0.319873,
    -0.307721,
    -1.17695,
    -0.483039,
    -0.369265,
    0.54599,
    -0.627124,
    0.592157,
    -0.0525418,
    -1.04775,
    0.392964,
    0.570934,
    0.998125,
    -0.37797,
    -0.482326,
    -0.796326,
    0.207846,
    0.964543,
    -0.188245,
    0.795197,
    -0.874193,
    -0.414033,
    0.714279,
    -0.84526,
    0.341662,
    0.0191897,
    -0.0853255,
    -0.137292,
    0.133058,
    -0.996005,
    -0.806554,
    0.131784,
    -0.0777617,
    0.599345,
    0.070015,
    -0.114768,
    0.741772,
    -0.462427,
    -0.310065,
    0.704822,
    0.294921,
    -1.02818,
    -0.278209,
    -0.392837,
    -0.834262,
    -0.615155,
    -0.798512,
    -0.944378,
    -0.830882,
    -0.202084,
    -0.974632,
    -0.437469,
    -0.577624,
    -0.0399014,
    -0.594919,
    -0.568123,
    0.224602,
    0.184401,
    0.212722,
    -0.0532944,
    -0.204088,
    0.221297,
    -0.498094,
    -0.932279,
    -0.894985,
    0.0668183,
    0.438198,
    0.456039,
    -1.05911,
    -0.199508,
    0.519192,
    -0.49896,
    0.269435,
    -0.158302,
    -0.566129,
    0.588836,
    0.210384,
    0.145303,
    -1.28614,
    -0.522542,
    0.461549,
    0.527207,
    -0.633991,
    -0.597695,
    0.398756,
    -0.0712152,
    -0.114024,
    -0.156199,
    -1.01602,
    -0.528928,
    -0.449886,
    0.0614413,
    -0.357823,
    0.0594671,
    -0.181463,
    -0.384603,
    -0.718315,
    0.414695,
    -0.47634,
    -0.975456,
    0.42336,
    -0.480155,
    0.390417,
    0.154153,
    -0.0418272,
    -0.449755,
    -0.0800157,
    -0.740549,
    0.966198,
    -0.0692093,
    0.202579,
    -0.765856,
    -0.021569,
    0.23923,
    0.769734,
    0.540159,
    0.651991,
    0.0288925,
    0.463598,
    0.04052,
    0.696777,
    0.923116,
    0.231724,
    -0.233406,
    0.680009,
    -0.460982,
    -0.501579,
    -0.45409,
    0.0392447,
    -0.085712,
    0.408193,
    -0.217498,
    0.910566,
    -0.0539544,
    -0.2576,
    0.105468,
    -0.59552,
    0.0323403,
    0.217163,
    -0.19599,
    0.343716,
    0.0182068,
    -0.549139,
    0.818812,
    -0.227233,
    -0.465047,
    0.144086,
    -0.429094,
    0.552303,
    0.379566,
    -0.221951,
    0.03091,
    -0.865667,
    -0.340187,
    -0.333225,
    -0.201141,
    0.146122,
    0.6826,
    -0.0416505,
    0.122062,
    -0.200058,
    -0.693322,
    -0.805909,
    -0.792663,
    -0.720562,
    -0.300026,
    0.247882,
    -0.295555,
    0.101048,
    -0.249982,
    -0.719279,
    -0.596006,
    0.697683,
    0.88193,
    0.921762,
    0.0322931,
    0.996019,
    0.223302,
    -0.989145,
    0.0266054,
    -0.577722,
    0.247123,
    0.26943,
    0.633536,
    0.630765,
    0.702721,
    0.364227,
    0.0480926,
    -0.738583,
    0.341832,
    -0.381686,
    0.0631871,
    -0.255946,
    0.344218,
    0.232611,
    -0.591466,
    0.181943,
    0.984443,
    0.215603,
    -0.180408,
    0.852061,
    -0.923785,
    0.227309,
    0.976432,
    0.882522,
    0.745595,
    -0.414247,
    0.767022,
    -0.632511,
    -0.12958,
    -0.91616,
    -0.523393,
    -0.0977635,
    -0.00707221,
    0.121505,
    -0.580386,
    0.0575156,
    -0.395702,
    -0.292493,
    0.015512,
    -0.83953,
    0.828664,
    -0.914695,
    -0.920259,
    -0.61696,
    -0.745846,
    -0.444823,
    0.200666,
    0.856501,
    -0.649918,
    0.264782,
    -0.141371,
    -0.796592,
    -0.025456,
    -0.541565,
    -0.558739,
    0.292231,
    0.36589,
    -0.564957,
    0.687563,
    0.643413,
    0.0416718,
    0.072963,
    -0.842325,
    0.212069,
    -0.874167,
    -0.298074,
    0.269946,
    -0.836743,
    -0.426985,
    -0.429935,
    -0.527307,
    -0.156579,
    -0.0101602,
    0.151706,
    0.912945,
    0.131841,
    -0.609203,
    -0.326862,
    -0.679905,
    -0.356864,
    -0.483909,
    0.726367,
    -0.792338,
    -0.0327477,
    -0.173004,
    0.867749,
    0.544516,
    0.904129,
    -0.693973,
    -0.596236,
    0.494224,
    0.952211,
    0.448291,
    0.977511,
    0.994663,
    -0.454889,
    0.985861,
    0.910508,
    -0.803504,
    0.781666,
    -0.441924,
    -0.00622201,
    -0.035099,
    0.486069,
    0.107731,
    0.896095,
    0.738893,
    0.327832,
    0.594263,
    -0.985459,
    -0.463356,
    -0.68083,
    -0.503917,
    0.164255,
    0.67989,
    -0.151981,
    -0.848902,
    -0.635962,
    0.432695,
    -0.623658,
    0.260578,
    0.270924,
    0.643255,
    0.945096,
    -0.12602,
    -0.825179,
    0.897798,
    0.882545,
    -0.936133,
    0.395905,
    -0.488829,
    0.0269408,
    0.074604,
    0.463087,
    0.468455,
    -0.250689,
    -0.667699,
    -0.516425,
    -0.892157,
    -0.649839,
    0.389569,
    0.413114,
    0.172614,
    0.394621,
    -0.16529,
    0.535166,
    -0.238215,
    0.362518,
    -0.271209,
    0.631187,
    -0.100762,
    0.323979,
    -0.775263,
    0.659645,
    -0.476062,
    0.44146,
    0.0841217,
    -0.307494,
    0.894619,
    -0.0059979,
    -0.654213,
    -0.924751,
    -0.868039,
    0.761156,
    -0.521271,
    0.277185,
    0.370391,
    0.21829,
    -0.25059,
    0.00130558,
    0.801243,
    -0.359386,
    -0.906411,
    0.776599,
    -0.788328,
    -0.51933,
    -0.702662,
    0.478898,
    0.343174,
    -0.775388,
    0.994639,
    -0.412486,
    0.840819,
    0.396514,
    -0.900622,
    -0.536326,
    0.609532,
    -0.978039,
    0.629406,
    -0.29235,
    0.353573,
    0.319715,
    0.215713,
    0.0587981,
    -0.091542,
    0.231228,
    0.328557,
    0.333704,
    -0.213969,
    0.668429,
    0.729981,
    -0.470989,
    -0.197024,
    0.89484,
    -0.212472,
    0.340594,
    0.0130174,
    0.641499,
    0.230774,
    -0.00739551,
    0.169542,
    -0.186631,
    -0.941824,
    0.204892,
    -0.403336,
    0.653455,
    0.123131,
    -0.580538,
    -0.557183,
    -0.911155,
    0.00421762,
    -0.864576,
    0.629914,
    0.853599,
    0.88213,
    -0.313362,
    0.653109,
    0.728018,
    -0.708543,
    0.342752,
    -0.834925,
    -0.523851,
    -0.658629,
    -0.664521,
    0.111355,
    0.71285,
    0.648771,
    -0.394588,
    0.00285101,
    0.0850136,
    -0.888599,
    -0.776054,
    0.595999,
    0.669314,
    0.276908,
    -0.754175,
    0.560793,
    -0.907702,
    0.505163,
    -0.316502,
    -0.282334,
    -0.439192,
    0.942168,
    -0.957458,
    0.675962,
    -0.934063,
    -0.0249689,
    -0.969919,
    0.158674,
    -0.464795,
    0.462392,
    0.050317,
    -0.11824,
    0.657498,
    0.608383,
    0.127758,
    0.302138,
    -0.565685,
    0.442979,
    0.671025,
    -0.103629,
    0.142501,
    0.361691,
    0.291718,
    0.821041,
    0.450543,
    -0.358848,
    -0.638405,
    -0.852237,
    0.881331,
    0.728217,
    -0.278184,
    0.0338399,
    0.830744,
    -0.453935,
    0.472658,
    -0.771238,
    0.853229,
    0.917763,
    -0.100367,
    -0.478038,
    -0.223572,
    0.671114,
    0.623078,
    -0.550087,
    -0.550284,
    -0.601004,
    -0.401186,
    0.650897,
    0.785277,
    0.713294,
    0.79667,
    -0.220654,
    0.39541,
    -0.311779,
    0.590745,
    -0.738908,
    0.444834,
    0.961778,
    0.524972,
    0.639909,
    0.72096,
    0.926666,
    0.154111,
    -0.198693,
    -0.213925,
    -0.311812,
    0.453294,
    -0.0701048,
    -0.196546,
    -0.537351,
    -0.97489,
    0.0912287,
    0.729856,
    0.635853,
    -0.957102,
    0.648839,
    0.324984,
    0.791361,
    -0.229559,
    0.51416,
    0.826885,
    0.318394,
    -0.858524,
    0.364214,
    0.918798,
    0.0818448,
    -0.019562,
    0.941633,
    0.37518,
    0.0739329,
    0.751451,
    -0.520492,
    0.094065,
    -0.934366,
    -0.888256,
    -0.88195,
    -0.0136793,
    -0.493912,
    0.265162,
    0.993897,
    -0.901635,
    0.101808,
    -0.935737,
    -0.81249,
    -0.479619,
    -0.770652,
    0.524254,
    -0.780855,
    0.714697,
    -0.800029,
    0.0371604,
    0.134749,
    0.0243695,
    -0.827015,
    0.617933,
    0.202402,
    0.0150077,
    0.547622,
    0.805706,
    -0.372979,
    0.860136,
    0.782892,
    0.921673,
    0.964417,
    0.8025,
    -0.06406,
    0.0843761,
    -0.750256,
    -0.0506468,
    -0.00102782,
    -0.975417,
    0.989634,
    0.966405,
    -0.457462,
    -0.363942,
    -0.487264,
    -0.774677,
    0.813159,
    -0.648538,
    0.810681,
    -0.559636,
    0.834934,
    -0.748273,
    -0.465851,
    -0.67468,
    0.56096,
    0.0980601,
    -0.333964,
    -0.256362,
    -0.0445368,
    0.741918,
    -0.392854,
    0.956512,
    0.219343,
    0.681231,
    -0.713163,
    -0.913881,
    -0.991686,
    0.137921,
    0.783114,
    0.249976,
    -0.272429,
    0.915938,
    -0.672589,
    -0.162666,
    0.335356,
    0.62712,
    0.442262,
    -0.891576,
    0.993434,
    -0.145586,
    0.659891,
    0.0883121,
    -0.901267,
    0.519614,
    -0.734972,
    -0.258304,
    0.842604,
    -0.871273,
    0.614832,
    -0.209808,
    -0.040355,
    -0.973122,
    -0.176764,
    0.248948,
    0.532526,
    -0.725764,
    0.458065,
    0.429882,
    0.76289,
    0.124305,
    0.0295603,
    -0.0537596,
    -0.580705,
    -0.726986,
    -0.404787,
    0.242858,
    -0.958507,
    0.609501,
    0.798713,
    -0.455901,
    -0.0562065,
    -0.446643,
    0.235474,
    0.698587,
    0.364268,
    -0.547119,
    -0.813779,
    -0.338022,
    -0.235996,
    0.062469,
    -0.273336,
    0.697999,
    0.618169,
    0.36142,
    -0.950305,
    0.705647,
    -0.372768,
    0.847705,
    -0.723764,
    0.982074,
    0.440534,
    -0.0522151,
    -0.229045,
    -0.40072,
    0.413331,
    -0.629689,
    -0.128557,
    -0.494364,
    0.814866,
    -0.33311,
    0.540582,
    -0.126573,
    0.560204,
    0.43765,
    0.0694344,
    -0.955618,
    -0.37659,
    -0.0530641,
    -0.53423,
    0.857365,
    -0.810297,
    0.638489
  ],
  "outputNodes": 10,
  "outputToTypes": [
    "(Mobile - Air - Orbital) | (Structure - Orbital)",
    "(Mobile - Air - Orbital) | (Structure - Orbital)",
    "(Mobile - Air - Orbital) | (Structure - Orbital)",
    "(Mobile - Air - Orbital) | (Structure - Orbital)",
    "Mobile & AirDefense",
    "Fabber - Air - Orbital",
    "Structure & (MetalProduction | EnergyProduction)",
    "Structure & AirDefense",
    "(Structure & Defense) - Wall - AirDefense - Orbital",
    "Commander"
  ]
}