{
  "hiddenBiasWeights": [
    -0.727283,
    -0.926304,
    0.58605,
    0.0463413,
    0.690084
  ],
  "hiddenNodes": 66,
  "hiddenWeights": [
    -1.12848,
    -0.228249,
    -0.40742,
    -1.05633,
    0.0542247,
    -0.244228,
    -0.0970687,
    -0.70722,
    -0.925844,
    -1.22718,
    0.311225,
    -0.385976,
    0.181006,
    0.879883,
    0.678269,
    -0.344639,
    -0.615732,
    -0.568567,
    -0.540053,
    -0.714353,
    -0.81906,
    -0.257874,
    -0.10041,
    0.10675,
    -0.226345,
    0.694364,
    1.19966,
    1.39092,
    -0.416731,
    -0.628222,
    0.100043,
    -0.391236,
    -0.0350429,
    -0.616337,
    0.901957,
    -0.0344112,
    -0.102109,
    -0.127963,
    -1.01327,
    -0.917378,
    -0.588251,
    -0.725256,
    -0.601096,
    0.441503,
    0.936524,
    0.93516,
    0.67256,
    -0.0384171,
    0.445581,
    0.544607,
    -0.707414,
    0.65566,
    1.02708,
    -0.116234,
    -0.278726,
    -0.701291,
    -1.11726,
    -0.523519,
    -0.522245,
    0.268663,
    0.0133549,
    0.0572722,
    -1.20735,
    -0.943209,
    -1.11318,
    -0.226243,
    -0.799451,
    -0.465648,
    0.347367,
    0.073033,
    -0.25908,
    -0.684773,
    1.12394,
    -0.731227,
    1.09345,
    0.505391,
    0.169549,
    -0.368925,
    -0.275599,
    0.680187,
    -0.777067,
    -0.609944,
    -0.972945,
    -0.497068,
    -0.264328,
    -0.585056,
    0.699718,
    0.610793,
    0.483283,
    -0.808429,
    -0.159472,
    0.792769,
    0.451982,
    -0.0945037,
    0.790332,
    -0.774382,
    -0.57377,
    -0.857097,
    0.147437,
    0.678357,
    0.70907,
    0.511799,
    -0.210146,
    0.717756,
    -0.117168,
    0.454763,
    -0.0651995,
    1.03819,
    0.271103,
    -0.472523,
    0.309201,
    -0.187724,
    0.934611,
    0.654165,
    -0.445399,
    -0.54413,
    -0.839343,
    -0.83346,
    -0.921025,
    0.586869,
    -0.105607,
    -0.562744,
    0.12549,
    -0.092723,
    -0.692755,
    -1.32018,
    0.149588,
    -1.43664,
    -0.849479,
    -0.0348394,
    -0.506023,
    -0.204173,
    -1.15535,
    0.302065,
    -0.562735,
    -0.0976957,
    -0.434594,
    0.472229,
    -0.0602229,
    -0.443156,
    0.64685,
    -0.59692,
    -0.0826369,
    0.780439,
    -0.858091,
    -0.0164173,
    -0.0635077,
    0.665388,
    -0.574917,
    -0.0333955,
    0.907357,
    -0.931048,
    0.633832,
    0.105187,
    -0.592621,
    0.111305,
    0.315371,
    0.558112,
    1.06211,
    0.535464,
    0.790384,
    0.724009,
    -0.337437,
    -0.67142,
    -0.63237,
    0.767487,
    0.474889,
    0.0642799,
    0.0140586,
    -0.829256,
    -0.135693,
    1.06507,
    0.994173,
    0.939852,
    0.589151,
    0.344339,
    -0.705985,
    0.321519,
    0.0474882,
    0.386139,
    -0.983952,
    -0.865798,
    -1.39156,
    -0.117985,
    0.15962,
    -0.874301,
    -1.22663,
    -1.71338,
    -0.181388,
    -1.15878,
    -0.253776,
    -0.136498,
    1.3014,
    -0.0998431,
    -0.477124,
    0.0431615,
    0.612627,
    0.83302,
    0.816152,
    1.06266,
    1.27257,
    0.490107,
    1.16392,
    0.558333,
    0.343746,
    -0.738763,
    0.221183,
    -1.00204,
    -0.555213,
    0.250812,
    0.690141,
    1.08853,
    -0.278298,
    -0.556982,
    0.377399,
    -0.108939,
    0.48608,
    -1.06584,
    -0.849263,
    -0.1349,
    -0.642035,
    -0.355598,
    -0.817308,
    0.44941,
    -1.0767,
    -0.0593509,
    -0.612993,
    -0.421284,
    -0.875276,
    0.477645,
    -0.872265,
    0.790316,
    0.031101,
    0.885919,
    0.0265266,
    -0.678762,
    0.749577,
    -0.681967,
    -0.208395,
    -0.0381572,
    -0.610295,
    0.509624,
    0.491831,
    0.885036,
    -0.165374,
    -0.952054,
    -1.15947,
    -0.320116,
    -0.781798,
    -0.141437,
    0.34101,
    -0.329029,
    -1.19021,
    0.559491,
    -0.239298,
    0.000169775,
    0.632286,
    -0.348721,
    0.135646,
    0.664881,
    0.14079,
    -0.544232,
    -0.0450061,
    1.14397,
    1.5418,
    0.913747,
    -0.520047,
    1.05596,
    0.690949,
    0.551439,
    -0.00737187,
    1.28599,
    1.13842,
    1.08549,
    0.0156094,
    0.624876,
    0.218905,
    0.21952,
    0.00723943,
    -0.264245,
    0.523918,
    0.031557,
    0.0910059,
    0.219573,
    -0.905274,
    0.992848,
    0.469126,
    -0.070126,
    -0.487218,
    1.39604,
    0.513935,
    -0.895028,
    -0.0462179,
    -0.964008,
    0.1373,
    0.146127,
    -0.577665,
    -0.590202,
    0.423101,
    -0.135888,
    -0.617536,
    -0.556467,
    -0.776481,
    -0.982188,
    0.555994,
    -0.547068,
    0.694604,
    -0.600572,
    0.534368,
    -1.1441,
    -0.387961,
    0.124654,
    -0.0805276,
    0.518828,
    0.434301,
    0.901181,
    -0.270353,
    0.124124,
    -0.220361,
    0.26359,
    -0.219326,
    -0.0267714,
    0.282965,
    0.0509781,
    0.330571,
    0.671236,
    -0.770787,
    -0.19985,
    0.768413,
    -0.817235
  ],
  "inputBiasWeights": [
    0.910183,
    0.270774,
    -0.601773,
    0.691588,
    1.16694,
    -0.431462,
    -0.17857,
    0.384239,
    0.0791533,
    -0.053148,
    -0.657932,
    0.611255,
    -0.855228,
    0.111226,
    0.645699,
    -0.0408596,
    -0.797757,
    0.523831,
    -0.676087,
    0.963045,
    0.718436,
    -0.846366,
    -0.0794073,
    0.346036,
    -0.615152,
    -0.388607,
    0.435009,
    0.470908,
    -0.614182,
    -0.68497,
    -0.195474,
    0.887997,
    0.883393,
    -0.316863,
    1.2599,
    -0.432522,
    0.782003,
    -0.636252,
    -0.593638,
    1.11546,
    0.550314,
    0.91976,
    0.478116,
    -0.677679,
    -0.262947,
    0.76108,
    -0.120728,
    0.965114,
    0.4654,
    0.122741,
    -0.25606,
    0.699767,
    -0.211552,
    -0.574638,
    -0.0244999,
    0.625317,
    0.22124,
    -0.101987,
    -0.461481,
    0.38265,
    -0.416022,
    0.319212,
    0.196298,
    -0.00548889,
    0.701563,
    1.01793
  ],
  "inputNodes": 17,
  "inputWeights": [
    -0.04825,
    0.0474533,
    0.00174273,
    -0.644329,
    -0.0196155,
    -0.0452948,
    -0.856414,
    -0.258776,
    0.541479,
    0.173902,
    0.0408065,
    0.385558,
    -0.390226,
    -0.691216,
    0.0170945,
    -0.908482,
    -1.27836,
    -0.91324,
    0.546873,
    -0.356962,
    0.324635,
    0.457227,
    0.733963,
    0.835606,
    -0.904946,
    -0.895576,
    -0.868954,
    -0.859433,
    -0.969999,
    -0.653335,
    0.379741,
    1.05332,
    -0.290843,
    0.575181,
    0.220932,
    0.28561,
    -0.175284,
    -1.19272,
    -0.403133,
    1.06798,
    0.696912,
    -0.632302,
    0.369196,
    -0.9044,
    -1.50693,
    0.160707,
    -0.728508,
    0.0124909,
    -0.604959,
    -0.788721,
    -0.716346,
    -0.500565,
    0.107663,
    -0.0272975,
    0.311265,
    0.827111,
    -0.180598,
    -0.146098,
    -0.754251,
    -0.696067,
    -1.07685,
    -0.380981,
    -0.247917,
    -0.587477,
    -0.417325,
    -1.14433,
    0.431842,
    0.786634,
    0.705974,
    -0.479854,
    -0.771751,
    -0.453965,
    0.147548,
    0.885818,
    -0.0328479,
    0.792172,
    -0.0312331,
    0.739707,
    -0.638299,
    0.0835085,
    -0.0315578,
    -0.890532,
    0.148422,
    0.59539,
    0.925193,
    -0.337577,
    0.33886,
    -0.647112,
    -0.38439,
    -0.602053,
    -0.669616,
    -0.956017,
    -0.0550332,
    -0.404706,
    0.899432,
    0.655743,
    0.738883,
    0.0973871,
    -0.267064,
    0.243682,
    0.120597,
    -0.218948,
    -0.564372,
    -0.59306,
    -0.772593,
    -0.228276,
    0.261744,
    0.618829,
    0.342024,
    0.83919,
    0.0167863,
    -0.61867,
    -0.245758,
    -0.76825,
    0.961073,
    0.295435,
    -0.398261,
    -0.128046,
    0.575615,
    -0.366227,
    -0.0112035,
    -0.547743,
    -0.677598,
    -0.318813,
    -0.900082,
    0.414016,
    -0.78276,
    0.333546,
    -0.307833,
    0.970873,
    0.852666,
    -0.0926023,
    -0.863089,
    -1.59496,
    0.784266,
    -1.10684,
    0.168155,
    -0.0640491,
    0.0662326,
    -0.212765,
    0.405725,
    -0.414645,
    0.390963,
    -0.281117,
    -1.12418,
    0.503156,
    1.0714,
    0.217971,
    -1.53481,
    -0.357597,
    -0.490714,
    0.018622,
    -0.351736,
    -0.216574,
    -0.0462684,
    -1.10533,
    -0.0280297,
    -1.02091,
    -0.470696,
    -0.725244,
    -0.87331,
    -0.784168,
    -0.379472,
    -0.318171,
    0.0650882,
    -0.160067,
    0.973894,
    -0.890101,
    -1.06868,
    -1.34279,
    0.236881,
    1.028,
    -0.163272,
    0.145823,
    0.358177,
    -0.234038,
    -0.537078,
    -0.542517,
    -0.286627,
    -0.248541,
    0.108378,
    -0.656835,
    -0.576007,
    0.174209,
    1.00148,
    -0.118799,
    0.448548,
    -0.36456,
    -1.17408,
    0.393709,
    -0.431208,
    -0.858428,
    -0.122198,
    -1.24256,
    -0.800552,
    -0.21826,
    0.484033,
    -0.0239277,
    -0.160334,
    0.925384,
    0.207441,
    0.684935,
    0.0809975,
    0.131844,
    0.147134,
    -0.343778,
    0.0759904,
    0.689794,
    -0.983827,
    0.290105,
    0.930362,
    0.428406,
    0.328109,
    0.249599,
    -0.364976,
    0.0104928,
    -0.92287,
    -0.104375,
    -0.731823,
    -0.00941586,
    -0.927147,
    0.313523,
    0.435006,
    0.0206673,
    0.157033,
    0.0116262,
    0.697928,
    0.198441,
    -0.00727415,
    -0.599869,
    0.385571,
    -0.440861,
    0.822369,
    -0.545093,
    0.369868,
    0.599036,
    -0.633582,
    -0.540932,
    0.684182,
    -0.0337348,
    0.199974,
    0.358078,
    0.429086,
    0.551798,
    -0.0841248,
    -0.546702,
    -0.237963,
    0.260963,
    0.0323057,
    -0.689081,
    0.0693705,
    -0.591463,
    -0.730659,
    -0.400076,
    0.286272,
    0.0369592,
    -0.735286,
    0.667635,
    0.0118539,
    0.230069,
    0.529771,
    -0.12155,
    -0.835488,
    0.0193129,
    0.298724,
    0.285211,
    -0.676575,
    0.657256,
    0.053896,
    0.740919,
    -0.987115,
    -0.950887,
    0.0467546,
    0.213258,
    -0.408905,
    -0.835397,
    -0.434673,
    -0.429824,
    -0.926107,
    0.626382,
    -0.223077,
    0.268788,
    0.478127,
    -0.0843306,
    0.822368,
    0.535357,
    0.963938,
    0.0454953,
    -0.352977,
    0.333628,
    -0.736129,
    0.667885,
    -0.543418,
    -0.267454,
    -0.404484,
    -0.0581865,
    0.266943,
    -0.463911,
    -0.258794,
    -0.798819,
    -0.875961,
    0.95186,
    -0.522504,
    -0.714503,
    -0.172705,
    0.987502,
    -0.719034,
    -0.715414,
    -0.417242,
    0.292962,
    0.714566,
    0.951573,
    0.90355,
    -0.368087,
    -0.669631,
    -0.0471339,
    0.293938,
    0.796972,
    0.962713,
    -0.214983,
    -0.328401,
    0.894903,
    0.785699,
    -0.0202746,
    0.487392,
    0.471407,
    0.0121,
    0.529876,
    -0.975328,
    0.270063,
    -1.16472,
    -1.1309,
    -1.02059,
    -1.0739,
    -0.603003,
    1.42031,
    -0.762396,
    -1.72507,
    -1.35068,
    0.749026,
    -0.293979,
    -1.596,
    -1.4991,
    -0.346056,
    -0.0716608,
    0.292866,
    -0.858067,
    0.993046,
    0.419363,
    -1.3412,
    0.336302,
    0.644925,
    0.977033,
    -1.53451,
    0.116578,
    -1.53354,
    -1.20849,
    -0.947518,
    -0.353425,
    0.647828,
    -0.0418517,
    0.970552,
    -0.533497,
    -1.07314,
    0.925237,
    0.370015,
    -0.889467,
    -1.83765,
    -0.706683,
    0.548887,
    1.34258,
    -0.360138,
    -0.374685,
    -1.4626,
    -1.17001,
    -0.78583,
    -0.0630864,
    -1.14834,
    0.88795,
    -1.62059,
    -0.632046,
    0.30851,
    0.200715,
    0.231296,
    0.995503,
    0.0214511,
    0.154209,
    0.726329,
    -0.328736,
    0.0902449,
    -0.477501,
    -0.69733,
    0.346191,
    0.0295959,
    0.165063,
    -0.704555,
    -0.0113954,
    0.42954,
    -0.276684,
    0.846706,
    -0.332054,
    -1.82016,
    0.298209,
    -1.05905,
    0.660518,
    0.447357,
    -1.33271,
    -0.376935,
    0.500917,
    0.503606,
    -1.05918,
    -0.558185,
    0.566536,
    -0.0358405,
    -0.678953,
    0.478895,
    -0.490494,
    -1.33348,
    -0.967,
    0.454278,
    0.0123033,
    1.14485,
    0.781429,
    -0.865114,
    -0.209327,
    -1.00619,
    -0.535616,
    -0.739657,
    0.255162,
    -0.898692,
    -0.967095,
    -0.627907,
    1.33714,
    1.51234,
    -1.75309,
    0.134162,
    -1.32076,
    1.39159,
    0.807972,
    0.620359,
    -1.03133,
    0.557777,
    -0.337877,
    -0.886377,
    -0.118973,
    -0.743451,
    1.55576,
    0.671531,
    0.81462,
    -1.63931,
    -1.28474,
    -0.586713,
    -0.113533,
    0.398178,
    -0.401895,
    1.01716,
    1.1727,
    -0.00561694,
    -0.671124,
    -0.707231,
    0.0928248,
    0.335805,
    0.520135,
    0.720538,
    -0.285063,
    -0.788519,
    -0.0557978,
    -0.00711513,
    -0.500243,
    0.87649,
    0.355419,
    -0.384535,
    -0.56568,
    -0.757022,
    -0.174783,
    0.32367,
    -0.329859,
    0.728024,
    -0.511323,
    0.0507555,
    -0.890897,
    -0.696024,
    -0.461534,
    0.224665,
    -0.218796,
    0.523906,
    -0.657477,
    0.078053,
    0.0900567,
    0.641459,
    0.493944,
    -0.387831,
    0.70798,
    -0.623961,
    -0.390329,
    -0.180113,
    -0.881726,
    0.788739,
    -0.350357,
    0.738817,
    -0.157154,
    0.721778,
    0.993825,
    -0.963644,
    -0.467843,
    0.0793228,
    -0.725863,
    -0.482428,
    0.736613,
    -0.242442,
    -0.620113,
    0.479484,
    -0.906186,
    0.398437,
    0.940609,
    -0.659379,
    0.0671461,
    -0.245591,
    0.0434282,
    0.788581,
    0.119882,
    -0.451056,
    0.639154,
    -0.318412,
    -0.19509,
    -0.448515,
    -0.377545,
    -0.45891,
    0.0169862,
    0.311486,
    -0.894905,
    0.364518,
    -0.923843,
    -0.22966,
    0.405092,
    -0.101655,
    -0.763242,
    -0.907619,
    0.182869,
    0.372083,
    -0.541099,
    -1.09046,
    -1.05511,
    -0.660676,
    0.183646,
    -0.0230096,
    -0.731146,
    0.835558,
    -0.0859576,
    -0.519559,
    -0.64635,
    -0.46494,
    -1.3637,
    0.0554723,
    0.415929,
    0.801578,
    -0.221141,
    -0.36098,
    -0.628683,
    -0.611552,
    -0.627952,
    -0.781657,
    0.43052,
    -0.122345,
    0.787216,
    0.0135824,
    0.603396,
    0.254734,
    0.230155,
    0.543667,
    -0.789214,
    -0.73745,
    -0.144311,
    0.154359,
    -0.505003,
    -0.482548,
    -0.850999,
    0.7852,
    -0.800957,
    -1.21527,
    -0.915223,
    0.498543,
    -0.191809,
    -0.277984,
    0.304398,
    -1.54646,
    -0.865531,
    0.36927,
    -0.797242,
    0.237826,
    0.00948973,
    -0.601642,
    -0.827434,
    0.147289,
    0.780264,
    0.355088,
    -0.297145,
    0.712309,
    0.488108,
    -0.624407,
    -0.0496099,
    0.275377,
    -0.757107,
    -0.162906,
    -0.916003,
    -0.590664,
    -0.0991955,
    -0.686065,
    0.6223,
    -1.12979,
    0.428256,
    -1.2974,
    0.321494,
    -0.510967,
    -1.15142,
    -0.93361,
    -1.15395,
    0.511777,
    -0.675197,
    0.644742,
    -0.134563,
    -0.725601,
    -0.970552,
    -0.204184,
    -0.978834,
    -0.650915,
    -0.0777075,
    -0.636983,
    -0.388197,
    -0.798389,
    -0.153641,
    0.810075,
    0.439295,
    -0.229406,
    -0.578802,
    -1.05363,
    -0.323766,
    0.0777743,
    0.0500346,
    -0.373362,
    0.101903,
    0.265209,
    -0.838489,
    0.154095,
    0.368595,
    0.476741,
    0.00514142,
    0.107924,
    -0.622165,
    -0.757971,
    -0.252815,
    0.201186,
    -0.108139,
    -0.467805,
    -0.0703787,
    -0.185538,
    -0.815672,
    -1.08442,
    -0.128908,
    0.193808,
    -0.538135,
    -0.903828,
    -0.893931,
    -0.00343132,
    -0.513547,
    -0.567359,
    0.753269,
    0.908832,
    0.116949,
    0.800473,
    -0.560478,
    -0.17714,
    0.667,
    0.183108,
    -0.569966,
    0.656622,
    -0.883687,
    0.577435,
    -0.13654,
    -0.0553532,
    0.757505,
    0.883156,
    0.332307,
    0.767175,
    0.70682,
    0.888715,
    -0.467063,
    -0.737883,
    0.78068,
    -0.162614,
    -0.658098,
    0.769755,
    -0.871099,
    0.435017,
    -0.901441,
    -0.181319,
    -0.835408,
    0.672479,
    -0.275105,
    0.216153,
    -0.717994,
    0.266017,
    -0.953361,
    0.283203,
    -0.664587,
    0.792836,
    0.219219,
    -0.179524,
    0.094367,
    -0.198952,
    -0.265289,
    0.887111,
    -0.524454,
    0.516147,
    0.663305,
    -0.757982,
    -0.395795,
    -0.357061,
    -0.716515,
    0.142976,
    -0.232716,
    0.12597,
    -0.445687,
    -0.873126,
    -0.65281,
    -0.427669,
    0.273678,
    0.259256,
    -0.398303,
    0.642808,
    -0.327695,
    -0.631956,
    -0.977409,
    0.534668,
    -0.360607,
    -0.995989,
    0.274018,
    0.254414,
    -0.537919,
    -0.791475,
    0.065413,
    0.336518,
    0.276264,
    0.617225,
    0.807657,
    -0.837237,
    0.0113361,
    -0.858917,
    0.354079,
    0.292817,
    -0.397715,
    0.327323,
    0.753287,
    -0.209604,
    -0.103226,
    0.90124,
    0.338915,
    0.468654,
    -0.641425,
    -0.97187,
    -0.252972,
    -0.814351,
    0.7719,
    0.240388,
    0.542216,
    0.638496,
    0.403062,
    -0.912638,
    -0.966415,
    -0.784949,
    0.0522966,
    0.669279,
    0.875754,
    -0.68074,
    0.00569272,
    0.853352,
    0.236076,
    -0.431739,
    0.818356,
    0.0108461,
    -0.135548,
    -0.987135,
    0.428141,
    0.151477,
    0.895894,
    0.00369549,
    0.599343,
    0.185367,
    -0.305788,
    0.755146,
    -0.179555,
    0.374806,
    0.659558,
    -0.302634,
    -0.637243,
    -0.145694,
    -0.343475,
    0.879981,
    -0.0386598,
    -0.033711,
    0.0850549,
    0.919643,
    -0.984239,
    -0.831148,
    0.823912,
    0.419384,
    0.288502,
    -0.894091,
    0.629892,
    0.878354,
    0.576897,
    -0.999776,
    0.116033,
    0.466577,
    0.923068,
    0.356989,
    -0.0255098,
    -0.757427,
    0.83556,
    -0.434725,
    0.355916,
    -0.418553,
    0.991545,
    0.275311,
    0.99548,
    0.932225,
    0.99365,
    -0.293673,
    0.327547,
    -0.766761,
    0.548718,
    -0.502631,
    0.747621,
    -0.28701,
    -0.472753,
    0.715155,
    -0.701653,
    -0.901522,
    -0.13945,
    -0.0420423,
    0.0195165,
    -0.52961,
    0.77159,
    -0.680359,
    0.841689,
    0.504548,
    -0.132402,
    0.948481,
    -0.206571,
    -0.00392675,
    -0.635929,
    0.396204,
    -0.110188,
    -0.221075,
    -0.39862,
    0.220368,
    0.340648,
    0.979779,
    0.632561,
    -0.741163,
    -0.248585,
    0.571313,
    0.609493,
    0.827605,
    0.834393,
    0.230133,
    0.0250735,
    -0.586715,
    -0.0173733,
    0.741398,
    -0.330202,
    -0.564248,
    0.808198,
    -0.416022,
    0.599962,
    -0.126845,
    0.611008,
    0.349334,
    -0.98175,
    0.0918167,
    -0.0432158,
    -0.110644,
    -0.702112,
    -0.815439,
    0.614953,
    0.553087,
    -0.25707,
    0.909797,
    -0.862144,
    0.0379288,
    -0.689249,
    0.675912,
    0.378544,
    0.356376,
    -0.317407,
    0.079679,
    -0.591483,
    0.883452,
    0.41144,
    -0.334474,
    0.662998,
    -0.0971804,
    0.0662489,
    0.348547,
    -0.313028,
    0.44908,
    -0.731556,
    0.0581448,
    -0.170315,
    -0.637937,
    0.0904787,
    -0.324874,
    0.586762,
    0.646051,
    0.896611,
    0.397106,
    -0.776687,
    -0.634389,
    -0.709663,
    0.43644,
    0.587525,
    -0.657123,
    0.428307,
    -0.539888,
    -0.559078,
    0.336746,
    -0.213744,
    -0.385247,
    -0.0601237,
    0.420059,
    -0.125789,
    0.605811,
    0.532429,
    -0.829257,
    -0.271284,
    -0.822913,
    0.316412,
    -0.790864,
    -0.555695,
    -0.833282,
    -0.0738924,
    -0.599277,
    0.147547,
    0.686972,
    -0.675272,
    0.590467,
    0.195505,
    -0.422199,
    -0.380788,
    0.440165,
    -0.910569,
    0.541538,
    -0.724932,
    -0.38901,
    0.287468,
    -0.498026,
    0.965066,
    -0.202986,
    -0.820756,
    -0.625262,
    0.177293,
    -0.426938,
    -0.492466,
    0.822886,
    -0.967159,
    0.149937,
    -0.438096,
    0.604251,
    -0.930367,
    0.731984,
    0.636713,
    -0.427421,
    -0.595893,
    -0.155724,
    0.72498,
    -0.390494,
    -0.732981,
    -0.171764,
    0.636632,
    0.755457,
    0.81991,
    0.102214,
    0.564049,
    0.249422,
    0.843958,
    0.998712,
    0.0809529,
    0.864674,
    -0.949157,
    0.451795,
    0.436049,
    0.170949,
    0.250488,
    0.29146,
    0.218312,
    -0.233513,
    -0.487891,
    0.5051,
    0.433394,
    0.43663,
    0.605814,
    -0.270874,
    -0.0939429,
    0.0261855,
    0.168104,
    -0.873051,
    -0.0173085,
    0.220334,
    0.831652,
    0.0460005,
    -0.584139,
    -0.161114,
    -0.105777,
    -0.84166,
    -0.891449,
    -0.968252,
    0.674258,
    0.0272551,
    -0.503585,
    0.335495,
    -0.600487,
    0.509715,
    -0.171964,
    0.425956,
    -0.825624,
    -0.729671,
    0.485003,
    0.278313,
    -0.589289,
    -0.465444,
    -0.776147,
    0.307778,
    0.689882,
    -0.682838,
    -0.747647,
    0.898898,
    -0.913671,
    0.459468,
    -0.199548,
    0.837177,
    0.910039,
    -0.12891,
    -0.828687,
    -0.337829,
    0.235918,
    -0.663188,
    -0.0289168,
    0.274797,
    -0.148847,
    0.876565,
    0.414178,
    -0.0249596,
    0.42604,
    0.0446358,
    -0.0406027,
    0.390745,
    -0.591376,
    -0.604155,
    -0.618328,
    0.969905,
    0.0586839,
    0.853641,
    0.496519,
    -0.273371,
    -0.96178,
    0.201092,
    0.211318,
    0.0688388,
    0.434999,
    0.304381,
    -0.872566,
    -0.764441,
    -0.715822,
    0.802086,
    -0.0675321,
    0.223811,
    0.882149,
    0.393634,
    0.512509,
    -0.0533803,
    -0.271529,
    -0.547981,
    -0.0639687,
    0.87682,
    -0.853618,
    -0.478748,
    0.048691,
    -0.586167,
    -0.345432,
    0.298447,
    -0.807788,
    0.787171,
    -0.502401,
    0.391177,
    0.614933,
    -0.265659,
    0.285931,
    0.0400355,
    -0.328625,
    -0.237647,
    0.881933,
    -0.445916,
    0.912616,
    -0.969378,
    0.446003,
    -0.623461,
    0.66836,
    0.399222,
    -0.553896,
    0.938971,
    -0.730551,
    0.889665,
    0.820983,
    0.206866,
    0.514762,
    -0.488909,
    0.412009,
    -0.358142,
    0.485405,
    -0.446052,
    -0.0560274,
    0.133755
  ],
  "outputNodes": 5,
  "outputToTypes": [
    "Mobile & (Air | Transport)",
    "Mobile & (Air | Transport)",
    "Mobile & (Air | Transport)",
    "Mobile & (Air | Transport)",
    "Fabber & Air"
  ]
}