{
  "hiddenBiasWeights": [
    0.568799,
    -0.252902,
    -0.555244,
    -0.497782,
    -0.0580871
  ],
  "hiddenNodes": 66,
  "hiddenWeights": [
    -0.12159,
    -0.285157,
    1.21313,
    -0.180184,
    0.797822,
    -0.188544,
    0.274614,
    -0.409571,
    -0.650563,
    -0.826689,
    -0.744582,
    -0.14427,
    -0.886448,
    -0.295164,
    0.00557102,
    0.290702,
    -0.570213,
    1.32384,
    -0.597013,
    -0.261373,
    0.456355,
    -0.0166206,
    -1.37166,
    -0.865806,
    -0.145293,
    -0.454604,
    0.676146,
    0.892755,
    0.379975,
    -0.278434,
    0.823885,
    0.665277,
    -0.0373058,
    0.869943,
    0.856906,
    -0.756652,
    -0.170701,
    -0.236343,
    0.110321,
    0.188327,
    0.43649,
    -0.528543,
    -0.33649,
    -0.11717,
    -0.573322,
    -0.80895,
    -1.41186,
    -1.03508,
    -0.790207,
    -0.15367,
    0.22415,
    -1.16527,
    -0.145971,
    -0.341853,
    -1.05394,
    0.578796,
    -0.0424175,
    -1.12396,
    -1.11586,
    0.562748,
    0.755254,
    0.278164,
    -0.604586,
    -0.204562,
    0.282894,
    -0.342196,
    -0.288553,
    1.29238,
    0.711492,
    0.718679,
    -0.424628,
    -0.178663,
    -0.825141,
    0.576615,
    0.450431,
    -0.446032,
    -0.64641,
    0.37312,
    -0.936858,
    -0.969682,
    1.08569,
    0.249324,
    1.20401,
    0.923163,
    1.1951,
    0.105188,
    0.386315,
    -0.93416,
    -0.679369,
    -0.584541,
    -0.685281,
    -0.598256,
    -0.444864,
    -0.206169,
    0.824105,
    0.0636125,
    -0.384711,
    0.947516,
    0.191411,
    -0.683771,
    0.210343,
    -0.926163,
    -1.54588,
    0.160135,
    -0.867376,
    -0.0408262,
    0.114016,
    0.283136,
    -0.336411,
    0.893988,
    -0.795821,
    0.099929,
    -0.693458,
    -0.191099,
    -0.754538,
    -1.00744,
    0.447745,
    0.186733,
    -0.276196,
    -0.714139,
    -0.290815,
    1.08079,
    1.14407,
    0.562539,
    -0.37291,
    0.16121,
    0.805362,
    -0.317165,
    0.759299,
    0.153659,
    -0.510861,
    -0.68706,
    0.275794,
    -0.642479,
    -1.00103,
    -0.556899,
    -0.0762855,
    -0.748672,
    -0.440707,
    -0.979999,
    0.104702,
    -0.882899,
    -1.59595,
    -0.279101,
    0.161718,
    0.248869,
    0.629407,
    0.545031,
    0.743498,
    0.482837,
    -0.890426,
    0.720918,
    -0.874031,
    -0.0531125,
    -0.0367602,
    0.47881,
    0.0329836,
    0.061415,
    -0.640183,
    -0.594376,
    0.854512,
    -0.772714,
    0.22977,
    -0.353622,
    -0.681009,
    0.92141,
    -0.174386,
    -0.479693,
    -0.894586,
    0.58583,
    0.265515,
    1.2584,
    1.12462,
    0.723,
    0.390798,
    -0.354659,
    -0.688127,
    -0.48476,
    -1.07857,
    -0.234694,
    -0.674353,
    0.135588,
    -0.440136,
    0.737238,
    -0.458944,
    0.393893,
    0.284752,
    0.424558,
    -0.278013,
    -0.653924,
    -0.646734,
    0.83567,
    -0.0661708,
    0.611151,
    0.653989,
    -0.455496,
    0.199481,
    -0.759069,
    0.610144,
    0.14594,
    -0.157859,
    0.847924,
    0.83573,
    0.68814,
    1.05307,
    0.640733,
    0.426258,
    -0.331265,
    0.548539,
    0.629515,
    -0.502562,
    0.123721,
    0.390872,
    -0.24802,
    0.744969,
    -0.485083,
    -0.206599,
    -0.620557,
    0.398121,
    -0.741338,
    -1.09349,
    -0.566138,
    -0.591095,
    -0.0593329,
    0.496425,
    -0.732375,
    0.727489,
    -0.361284,
    0.710079,
    0.188939,
    0.528149,
    -0.108386,
    -0.548048,
    -0.787931,
    0.0695047,
    1.33169,
    0.599786,
    1.17689,
    0.19128,
    1.3305,
    0.747133,
    -0.188832,
    0.21826,
    0.180879,
    0.0877926,
    -0.963371,
    -0.406861,
    -0.694085,
    0.00301667,
    -0.0364878,
    0.333678,
    0.741108,
    0.31526,
    0.651878,
    0.0165719,
    -0.0546557,
    0.649528,
    -0.0255117,
    0.0606505,
    -0.0481445,
    0.0387147,
    -0.933255,
    -0.186326,
    -0.266088,
    0.561546,
    -0.427268,
    0.57279,
    -0.224865,
    -0.122205,
    0.686016,
    0.882005,
    -0.541831,
    -0.585573,
    -0.30321,
    1.13991,
    0.257591,
    -0.055463,
    -0.914376,
    0.341497,
    -0.26955,
    0.282852,
    -0.181163,
    0.825954,
    0.589992,
    -0.628092,
    1.00671,
    -0.406721,
    -0.162531,
    0.268309,
    0.722312,
    0.348382,
    -0.853646,
    0.196777,
    -1.15809,
    -1.15729,
    0.67893,
    -0.925135,
    0.247746,
    -0.0755397,
    -1.01251,
    -0.428324,
    0.494918,
    -0.93473,
    -0.263094,
    -0.447117,
    -0.520373,
    -0.096594,
    -0.365456,
    -0.843515,
    0.32637,
    0.531761,
    -0.475592,
    -0.247143,
    -0.50272,
    -0.554076,
    -0.933238,
    0.564355,
    -0.503168,
    0.852751,
    0.616316,
    0.496321,
    0.0519651,
    -1.11839,
    -0.703206,
    0.0340963,
    -0.691048,
    0.251661,
    1.32611,
    -0.202948,
    -0.974246
  ],
  "inputBiasWeights": [
    0.752968,
    -0.824558,
    -0.574147,
    0.765368,
    0.957391,
    0.153697,
    -0.0123856,
    0.848049,
    -0.470826,
    -0.35447,
    -0.415704,
    -0.624325,
    0.264642,
    0.416062,
    -0.439707,
    -0.0182444,
    0.630454,
    -0.821949,
    0.391139,
    0.0265167,
    -0.499919,
    0.421965,
    0.342393,
    -0.783436,
    0.159577,
    0.808887,
    0.419938,
    -0.0828082,
    0.262403,
    -0.0450228,
    0.471484,
    0.92249,
    0.799052,
    0.927209,
    1.16496,
    -0.609999,
    0.795506,
    -0.108417,
    0.486621,
    0.766242,
    -0.138028,
    0.454752,
    0.131485,
    -0.311078,
    -0.27453,
    -0.297403,
    0.650142,
    0.529625,
    -0.711983,
    -0.371101,
    0.327133,
    0.374102,
    0.662281,
    0.156762,
    -0.400648,
    0.235573,
    -0.492496,
    0.567659,
    0.187143,
    0.255584,
    -0.132619,
    -0.790162,
    -0.667086,
    0.308789,
    -0.0126126,
    -0.00424206
  ],
  "inputNodes": 17,
  "inputWeights": [
    -0.663051,
    0.635468,
    -0.80231,
    -0.371717,
    0.31837,
    0.0400127,
    0.461132,
    -0.797277,
    0.443775,
    -0.630353,
    -0.902389,
    -0.616958,
    -0.568664,
    0.638511,
    0.230814,
    -0.606977,
    -0.373872,
    -0.80915,
    0.881059,
    -0.339322,
    -1.10687,
    -0.573224,
    -0.0674421,
    -0.424014,
    -0.516934,
    -0.292653,
    -0.00101615,
    0.224996,
    -0.378706,
    -0.918755,
    -0.459708,
    0.392929,
    -0.986255,
    -0.801215,
    0.97478,
    -0.900246,
    0.578661,
    0.976752,
    0.019694,
    -1.02346,
    0.417947,
    0.285907,
    0.251378,
    -0.505541,
    -0.863183,
    -1.0212,
    0.909175,
    0.241447,
    0.776445,
    -1.16449,
    0.459407,
    -0.94375,
    -0.550069,
    -0.675323,
    0.280226,
    0.308985,
    0.140174,
    0.436535,
    -0.581567,
    -0.580431,
    0.124943,
    -0.59785,
    0.487909,
    -0.519822,
    -0.731332,
    -1.06792,
    0.541679,
    0.684379,
    0.834886,
    -0.535404,
    -0.654449,
    0.601956,
    -0.0609725,
    -0.785604,
    -0.797927,
    0.375889,
    -0.138189,
    -0.757031,
    0.348321,
    0.385109,
    0.92571,
    -0.536467,
    0.67057,
    0.688179,
    0.943182,
    -0.141855,
    0.0375102,
    -0.5217,
    -0.336712,
    0.105122,
    -0.708483,
    -0.636391,
    -0.253242,
    -0.85003,
    0.989193,
    0.987884,
    0.137838,
    0.0220621,
    -0.587036,
    -0.591016,
    0.847003,
    -0.481307,
    0.0713556,
    -0.494651,
    0.219196,
    0.373595,
    0.100783,
    -0.951338,
    0.728415,
    -0.83128,
    0.564022,
    0.205472,
    0.651928,
    -0.162036,
    0.867858,
    -0.441763,
    -0.0748456,
    -0.849374,
    -0.105201,
    -0.868409,
    -0.901923,
    -0.865644,
    -0.628366,
    -0.666558,
    -0.28015,
    -0.124286,
    -0.868121,
    0.215193,
    -0.475424,
    0.440459,
    -0.3213,
    0.571212,
    0.403106,
    0.825126,
    0.0401387,
    0.126289,
    -0.452795,
    0.66419,
    0.120867,
    0.257437,
    -0.894586,
    -0.496031,
    -0.66267,
    -1.01326,
    -0.577253,
    0.669346,
    0.163227,
    0.239134,
    0.804959,
    -0.637671,
    0.140894,
    -0.138327,
    -1.14441,
    0.0916905,
    0.436562,
    -0.914876,
    -0.226638,
    0.237476,
    -0.211389,
    -1.52372,
    -0.763207,
    0.0496085,
    -1.19818,
    0.0664628,
    -0.499807,
    0.161591,
    0.212961,
    -0.480561,
    0.638761,
    -0.230922,
    -0.793275,
    -1.11779,
    0.879546,
    -0.275456,
    0.811229,
    -1.13977,
    0.320011,
    0.298083,
    0.345037,
    1.56786,
    0.621936,
    -0.483757,
    -0.523057,
    0.79337,
    -0.540794,
    -0.69038,
    0.716815,
    -0.786821,
    -0.802954,
    0.655085,
    -0.136069,
    -0.669523,
    -0.478297,
    -0.30409,
    -0.718567,
    -0.754128,
    0.294589,
    -0.962849,
    -0.586748,
    0.722327,
    -0.792114,
    0.543054,
    -0.966178,
    -0.940964,
    -0.531947,
    0.583149,
    0.0812771,
    -0.925011,
    0.850652,
    0.248031,
    -0.161491,
    0.244238,
    0.719781,
    -0.425751,
    0.115565,
    -0.357285,
    -0.22296,
    0.0519028,
    0.539781,
    0.258761,
    -0.583948,
    -0.198296,
    0.00597906,
    -0.313238,
    -0.898422,
    0.474511,
    0.0498304,
    -0.519979,
    0.960674,
    -0.693899,
    -0.4948,
    0.0772367,
    -0.228705,
    -0.738964,
    0.435658,
    0.112084,
    -0.0218732,
    0.371453,
    -0.91724,
    -0.582746,
    0.827035,
    -0.0905387,
    -0.614202,
    -0.24748,
    -0.17922,
    0.144571,
    0.516505,
    -0.303505,
    -0.280885,
    -0.267184,
    0.669221,
    -0.0828493,
    0.252597,
    -0.0388992,
    0.69142,
    -0.852384,
    0.10865,
    -0.573951,
    0.936106,
    -0.807715,
    0.468271,
    0.796168,
    -0.911555,
    0.238,
    0.259213,
    0.0259292,
    -0.282395,
    0.0587833,
    -0.0927937,
    -0.264585,
    0.305827,
    0.435343,
    -0.533451,
    0.733886,
    -0.118677,
    -0.574207,
    -0.0440073,
    -0.120778,
    -0.383712,
    0.588319,
    -0.358672,
    0.678858,
    0.746298,
    -0.738252,
    0.553403,
    -0.770696,
    0.504563,
    -0.0825808,
    0.031276,
    -0.0209785,
    0.116055,
    0.247033,
    0.0747805,
    -0.317878,
    -0.0969205,
    -0.0494494,
    0.352703,
    -0.559536,
    0.233724,
    0.524499,
    0.716233,
    -0.973413,
    -0.369049,
    -0.67632,
    0.285184,
    0.0335681,
    0.386483,
    0.351084,
    -0.23442,
    0.039516,
    0.137717,
    -0.196245,
    -0.285085,
    -0.631932,
    -0.600776,
    -0.0845182,
    -0.784857,
    -0.985893,
    0.971058,
    0.00094223,
    0.589082,
    -0.0300338,
    -0.00513935,
    -0.989681,
    -0.904099,
    0.448436,
    -0.610255,
    0.779359,
    0.98048,
    -0.521991,
    1.31121,
    0.0438313,
    -0.744622,
    0.880056,
    -1.56623,
    0.548369,
    0.968148,
    -0.544965,
    -0.681803,
    -1.82934,
    -0.750459,
    0.0946411,
    0.792594,
    1.0771,
    0.459902,
    -1.16628,
    1.94394,
    -0.66728,
    -0.807677,
    0.76869,
    -0.956965,
    0.438525,
    -1.09796,
    0.138617,
    1.53079,
    0.470173,
    -1.02115,
    -0.769468,
    -1.18691,
    0.687244,
    0.122524,
    -0.583481,
    0.152137,
    0.564662,
    1.27108,
    -0.650675,
    -0.992805,
    -0.516404,
    0.629321,
    0.373394,
    1.15744,
    0.218409,
    -0.230676,
    -1.04652,
    -1.18742,
    -0.0517457,
    -0.91016,
    1.41657,
    -0.575216,
    0.0113151,
    0.838748,
    0.0917078,
    -0.415426,
    0.628634,
    0.588297,
    -0.268623,
    1.07577,
    0.751882,
    -1.10947,
    0.289996,
    -0.80479,
    -0.645099,
    0.679486,
    0.100393,
    -0.768356,
    1.01788,
    -0.899278,
    0.852478,
    0.382023,
    -1.30556,
    -0.357175,
    -0.741339,
    0.359833,
    -0.237761,
    -0.125342,
    0.180141,
    -1.12749,
    1.38133,
    0.808197,
    -0.24391,
    0.349242,
    -1.23756,
    0.0466284,
    -0.768669,
    0.939655,
    -0.55744,
    0.95783,
    0.635978,
    0.743176,
    -0.938592,
    -0.389381,
    0.416899,
    -0.454632,
    0.138809,
    1.17414,
    0.1416,
    1.12563,
    -0.645346,
    -0.230249,
    1.1583,
    -0.50443,
    -1.14006,
    0.574791,
    -0.516327,
    0.60933,
    -0.232497,
    -1.20717,
    -0.656093,
    -0.443006,
    -0.708938,
    0.724693,
    -0.593298,
    -0.0283549,
    0.327487,
    0.461837,
    0.556893,
    -0.504885,
    0.0210217,
    -0.431175,
    0.31948,
    1.01799,
    1.13296,
    -0.0328995,
    0.324017,
    -0.704071,
    -0.930252,
    0.67286,
    0.00539224,
    0.46062,
    0.823886,
    1.29957,
    -1.36586,
    0.948089,
    -0.0166726,
    0.714898,
    0.315162,
    0.316845,
    -0.774256,
    0.069998,
    0.935369,
    0.859099,
    -0.318438,
    0.384081,
    0.775644,
    0.599965,
    0.45172,
    -0.352372,
    -0.394042,
    0.806378,
    -0.129909,
    0.987873,
    0.884833,
    -0.484881,
    -0.694413,
    0.240875,
    -0.545388,
    0.132237,
    0.0693343,
    0.29873,
    0.744403,
    -0.00197029,
    0.479209,
    -0.546706,
    0.99685,
    -0.50406,
    -0.195342,
    -0.140525,
    0.878633,
    -0.589439,
    -0.944853,
    -0.592461,
    -0.887305,
    -0.438155,
    0.621896,
    -0.19281,
    0.711589,
    -0.39361,
    0.0364735,
    0.654117,
    0.111803,
    0.99732,
    0.331461,
    -0.860312,
    -0.492651,
    -0.111073,
    0.654728,
    -0.819021,
    0.895034,
    -0.400596,
    0.922194,
    0.363896,
    -0.385918,
    -0.699716,
    0.924356,
    -0.474289,
    0.23001,
    0.502128,
    0.203972,
    -0.0422006,
    0.634657,
    -0.868686,
    0.445053,
    1.01867,
    0.0773469,
    -1.22092,
    -0.00504057,
    -0.779181,
    0.327585,
    -1.0113,
    -0.13962,
    -0.773168,
    -0.559701,
    0.874124,
    0.747504,
    -0.671145,
    -0.440533,
    -0.663845,
    -0.302089,
    -0.098427,
    0.33697,
    -0.936621,
    -0.838439,
    -0.16651,
    -0.00383122,
    0.382586,
    -0.112884,
    0.267337,
    0.457688,
    -0.279811,
    -1.06419,
    0.171685,
    -0.508193,
    -0.940425,
    0.27767,
    -0.646967,
    -0.761082,
    0.421909,
    -0.202777,
    -0.798141,
    -0.0474741,
    -0.335341,
    -0.143442,
    -0.0494918,
    -0.0459064,
    -0.759114,
    -1.0153,
    -0.433793,
    -0.898687,
    -0.0842927,
    -0.786464,
    -0.111253,
    0.0835399,
    0.151833,
    -0.811465,
    -1.15981,
    -0.691429,
    0.460706,
    -0.77989,
    0.0734022,
    -0.98725,
    0.895413,
    -0.555505,
    0.31919,
    0.767286,
    0.0929527,
    0.094006,
    -0.291799,
    0.299956,
    -0.318216,
    -0.515831,
    -0.0700693,
    0.308336,
    -0.26078,
    0.608932,
    0.691597,
    -0.0941746,
    -0.829163,
    -0.324098,
    0.0267853,
    -0.876274,
    -0.300483,
    -0.906288,
    -1.00335,
    0.113899,
    0.747276,
    -1.29185,
    0.0407383,
    -0.728409,
    -0.664721,
    -0.36885,
    0.368303,
    0.461404,
    0.729128,
    0.431386,
    0.287492,
    0.649383,
    -0.416766,
    -0.896632,
    0.324874,
    -0.884341,
    -1.04058,
    -0.289712,
    -0.940627,
    0.130308,
    -0.826097,
    -0.713136,
    -0.814287,
    0.505229,
    0.228832,
    -0.807175,
    -0.906921,
    -0.0692071,
    -0.602678,
    -0.343329,
    -0.239331,
    0.0168228,
    -0.857331,
    -0.357167,
    -0.497048,
    -0.0621448,
    -0.502037,
    0.460786,
    -0.764194,
    0.0886415,
    0.257118,
    0.0919483,
    -0.63058,
    -0.676784,
    -0.842735,
    0.588908,
    -0.571144,
    0.0124872,
    -0.678055,
    -0.409409,
    0.56277,
    0.450736,
    -0.0115297,
    0.353597,
    0.957949,
    -0.50051,
    -0.85577,
    -0.794188,
    -0.111595,
    0.262308,
    0.625104,
    -0.858026,
    -0.96035,
    -0.579764,
    0.946486,
    0.608785,
    -0.323051,
    -0.399337,
    0.386239,
    0.171626,
    0.455884,
    -0.794561,
    -0.0107529,
    0.638813,
    0.961639,
    -0.128417,
    0.49443,
    0.0313551,
    0.366418,
    0.425201,
    -0.921695,
    -0.3929,
    0.0572436,
    -0.854195,
    0.233549,
    -0.999583,
    -0.794694,
    -0.00104356,
    -0.964304,
    -0.775033,
    -0.691635,
    0.735164,
    -0.274043,
    0.844872,
    0.88491,
    0.468065,
    0.621728,
    0.019932,
    0.834082,
    -0.840463,
    -0.700584,
    0.011364,
    0.378422,
    -0.595185,
    0.35317,
    -0.723787,
    0.746987,
    0.386832,
    -0.664846,
    0.776844,
    0.908689,
    -0.543375,
    0.22774,
    0.0669858,
    -0.748594,
    0.401959,
    -0.713538,
    0.619017,
    0.076345,
    0.312483,
    -0.12338,
    0.00676703,
    0.538044,
    -0.776789,
    -0.237213,
    -0.679764,
    0.139322,
    -0.728186,
    -0.227602,
    -0.557701,
    0.164819,
    -0.992522,
    0.188152,
    -0.426353,
    0.532675,
    -0.481423,
    0.860255,
    0.859724,
    0.812109,
    0.508924,
    0.719651,
    0.692863,
    0.649518,
    -0.156839,
    -0.287795,
    -0.663101,
    -0.491864,
    -0.448164,
    0.143093,
    0.462596,
    -0.00426841,
    0.205127,
    0.151277,
    -0.170233,
    0.716567,
    -0.353819,
    0.088603,
    -0.0552855,
    -0.348608,
    -0.156442,
    0.921084,
    0.972206,
    -0.492946,
    -0.937737,
    -0.941071,
    -0.433683,
    0.379826,
    0.988925,
    0.778014,
    0.782359,
    0.207174,
    0.93073,
    0.803144,
    -0.426229,
    -0.890842,
    -0.741885,
    0.0188181,
    -0.401858,
    0.120672,
    0.947245,
    -0.0635877,
    -0.174427,
    -0.463408,
    -0.223068,
    -0.340047,
    0.154599,
    -0.293184,
    0.678003,
    -0.460542,
    0.398479,
    0.221705,
    -0.406782,
    0.321284,
    -0.815798,
    -0.295738,
    0.337654,
    -0.656642,
    0.0493484,
    -0.489483,
    -0.824098,
    -0.153961,
    0.215119,
    0.634059,
    0.104393,
    -0.323236,
    -0.343686,
    0.837046,
    -0.313503,
    0.575584,
    0.0826135,
    0.766079,
    0.910118,
    -0.422335,
    0.6484,
    -0.290199,
    -0.47303,
    -0.397999,
    -0.396702,
    0.223418,
    0.687384,
    -0.134457,
    0.244851,
    0.258879,
    -0.981024,
    0.569102,
    0.202635,
    0.115868,
    0.508958,
    -0.0954301,
    0.692406,
    0.648686,
    -0.698698,
    0.777956,
    -0.531304,
    -0.17279,
    -0.95638,
    -0.499176,
    -0.50598,
    -0.901823,
    0.213504,
    -0.996366,
    0.315335,
    0.422844,
    -0.0170176,
    0.879815,
    -0.35265,
    -0.878134,
    0.838451,
    0.319948,
    -0.786939,
    0.253671,
    0.0571928,
    -0.342904,
    -0.492007,
    -0.0942969,
    0.199701,
    -0.0762944,
    -0.658845,
    0.966019,
    -0.414144,
    0.83978,
    0.343072,
    0.67038,
    0.0322073,
    0.0850649,
    -0.83759,
    0.74888,
    -0.131414,
    -0.0857015,
    0.643829,
    -0.0701339,
    -0.342751,
    -0.713406,
    -0.681572,
    0.246629,
    -0.0534937,
    0.536394,
    -0.814408,
    -0.684741,
    0.94974,
    0.267112,
    -0.81992,
    0.827748,
    -0.652751,
    -0.425695,
    -0.087765,
    -0.960178,
    -0.59682,
    0.0704658,
    -0.770376,
    -0.175763,
    -0.523845,
    -0.099165,
    0.0257187,
    0.364675,
    -0.089962,
    0.837062,
    -0.054493,
    -0.868378,
    0.995864,
    0.866715,
    -0.644295,
    0.0464656,
    -0.731919,
    0.167241,
    0.0773051,
    0.153006,
    0.14639,
    0.557278,
    -0.677832,
    0.341601,
    0.459163,
    -0.583608,
    -0.035804,
    -0.331693,
    0.704927,
    0.705088,
    0.747367,
    0.989542,
    -0.676242,
    0.247329,
    0.0781312,
    -0.89863,
    -0.0376914,
    -0.5518,
    0.304502,
    0.93134,
    -0.330071,
    -0.941526,
    -0.595868,
    -0.366153,
    0.646006,
    0.548393,
    0.706597,
    0.426016,
    -0.468641,
    0.875513,
    0.618881,
    -0.631129,
    0.119219,
    -0.918629,
    0.0687716,
    -0.705281,
    0.706462,
    -0.379139,
    -0.71064,
    0.451082,
    -0.834648,
    0.78137,
    0.294132,
    -0.334776,
    -0.115384,
    -0.466619,
    -0.518748,
    -0.842677,
    -0.275999,
    -0.882225,
    -0.156302,
    0.837169,
    0.876493,
    -0.428601,
    -0.0815582,
    -0.58934,
    0.333147,
    -0.584136,
    0.564511,
    -0.192959,
    -0.394829,
    0.541221,
    -0.259157,
    -0.625957,
    -0.366074,
    -0.853865,
    0.0652714,
    0.0528631,
    -0.648568,
    -0.670957,
    0.976604,
    0.750901,
    -0.0881157,
    -0.0310955,
    -0.844139,
    0.994889,
    -0.913599,
    -0.42089,
    -0.844486,
    -0.892431,
    -0.0633516,
    -0.0586965,
    -0.0568137,
    -0.196936,
    0.594424,
    0.725115,
    -0.828394,
    0.194947,
    -0.668983,
    0.439682,
    0.43191,
    -0.764763,
    -0.312423,
    -0.720046,
    0.618844,
    0.917954,
    0.44365,
    0.00182343,
    0.931068,
    -0.448621,
    0.316965,
    0.532715,
    -0.431972,
    -0.0648856,
    0.944464,
    0.299943,
    0.619349,
    0.479824,
    -0.6924,
    0.0826962,
    -0.493116,
    -0.574466,
    0.477701,
    0.123055,
    -0.241203,
    -0.290872,
    -0.401418,
    -0.396672,
    0.118497,
    0.0351872,
    -0.720044,
    0.330295,
    -0.112168,
    -0.547424,
    0.685882,
    0.145195,
    0.0207956,
    -0.450204,
    0.164471,
    -0.945557,
    0.629333,
    -0.995559,
    -0.79965,
    0.72178,
    -0.770391,
    0.156262,
    0.212773,
    0.702023,
    -0.801202,
    0.386333,
    0.0514362,
    -0.571377,
    0.563329,
    -0.852311,
    -0.37841,
    0.258236,
    0.287756,
    -0.697954,
    -0.18484,
    -0.517687,
    0.293921,
    -0.637372,
    0.870923,
    0.781036,
    -0.0227046,
    0.524947,
    -0.112486,
    -0.68588,
    0.509851,
    0.964359,
    0.983028,
    0.288898,
    0.850932,
    -0.161031,
    -0.884854,
    -0.862479,
    -0.498173,
    0.424797,
    -0.0184977,
    0.0643916,
    0.721837,
    -0.0583694,
    0.83581,
    0.0678971,
    0.893336,
    0.947598,
    -0.878397,
    -0.654046,
    -0.346949,
    -0.185769,
    0.316895,
    0.0433612,
    0.683214,
    -0.862053,
    -0.607825,
    -0.910752,
    -0.875642,
    -0.281996,
    0.0660102,
    0.830466,
    0.959672,
    -0.271344,
    -0.966896,
    0.951987,
    -0.42252,
    0.371572,
    -0.782752,
    0.339932,
    -0.98103,
    0.0517659,
    -0.310905
  ],
  "outputNodes": 5
}