{
  "hiddenBiasWeights": [
    -0.903738,
    -0.52988,
    0.173309,
    -0.637178,
    0.0826923,
    -0.233067,
    -0.706193,
    0.226925,
    -0.496342,
    0.517128,
    -0.424379,
    -0.6121,
    0.91687,
    -0.812751,
    -0.939392,
    -0.303987,
    -0.813866,
    0.0543635,
    -0.563766,
    0.353451,
    0.145054,
    0.15755,
    -0.594509,
    0.424419,
    0.561903,
    0.54735,
    0.379876
  ],
  "hiddenNodes": 132,
  "hiddenWeights": [
    0.0608985,
    -0.268874,
    0.474377,
    0.146694,
    0.913995,
    0.695104,
    -0.733887,
    -0.256882,
    -0.91755,
    0.283372,
    0.288824,
    -0.0141857,
    -0.905163,
    -0.913531,
    0.340117,
    0.344407,
    0.311361,
    -0.351999,
    -0.712188,
    0.866809,
    0.213312,
    -0.24823,
    -0.499475,
    -0.823668,
    0.62963,
    0.314131,
    0.623249,
    -0.4674,
    -0.864699,
    0.253407,
    -0.545328,
    0.21233,
    -0.267304,
    0.210774,
    0.0822127,
    -0.845944,
    0.971748,
    -0.40854,
    0.784545,
    -0.532321,
    -0.220449,
    0.596523,
    0.509201,
    -1.02798,
    -0.304553,
    -0.463178,
    -0.503057,
    -0.987126,
    -0.0149256,
    0.47574,
    -0.386437,
    -0.212353,
    -0.994708,
    -0.656153,
    -0.0697617,
    -0.34004,
    0.999856,
    -0.400776,
    -0.985787,
    -0.544116,
    -0.0601391,
    -0.00315533,
    -1.04794,
    -0.861896,
    0.598073,
    -0.431056,
    -0.328786,
    -0.0380096,
    0.528014,
    0.270095,
    -0.863456,
    -0.150992,
    0.809819,
    -0.333005,
    -0.649288,
    -0.496065,
    -0.521649,
    -0.433186,
    -0.608349,
    0.561581,
    0.0135893,
    0.209728,
    0.683665,
    -0.189645,
    -0.770321,
    0.529331,
    -0.0793331,
    -0.35863,
    0.475727,
    0.288776,
    -0.501111,
    0.717903,
    0.516009,
    -0.359919,
    0.547669,
    0.321752,
    0.162265,
    -0.0855236,
    -0.351587,
    0.360733,
    1.03793,
    0.485097,
    0.648043,
    -0.358896,
    0.0502091,
    -0.843844,
    0.673753,
    -0.0580709,
    -0.00061284,
    0.900002,
    -0.675933,
    0.292462,
    0.401487,
    0.0849921,
    -1.21754,
    -1.05668,
    -0.58795,
    -0.499513,
    -0.549718,
    0.755872,
    0.811425,
    0.272195,
    0.439674,
    -0.46297,
    0.186773,
    0.760027,
    -0.190338,
    -0.867278,
    -0.801774,
    0.173498,
    -0.920645,
    -0.706935,
    -0.221955,
    0.258858,
    -0.289513,
    -0.170178,
    -0.00226927,
    -0.844295,
    -0.604009,
    0.835669,
    0.736216,
    0.43978,
    -0.307245,
    -1.09803,
    -0.486636,
    -0.96795,
    0.857913,
    0.423318,
    -0.541212,
    0.832711,
    -0.44141,
    -0.673326,
    0.488558,
    0.827027,
    0.639074,
    0.202438,
    -0.898947,
    -0.311474,
    -1.00954,
    -0.00456345,
    0.208514,
    -0.24944,
    -0.0162929,
    -0.258268,
    -0.159608,
    -0.302209,
    -0.646912,
    -0.990709,
    -1.02591,
    -0.320577,
    0.158034,
    0.672457,
    0.441848,
    0.565782,
    -0.420663,
    0.686319,
    -0.702118,
    0.175388,
    -0.868299,
    -0.615934,
    0.804292,
    0.808759,
    0.263079,
    -0.410636,
    0.117473,
    -0.837886,
    -0.401678,
    0.942025,
    0.568757,
    -0.470431,
    -0.150307,
    -0.54427,
    0.730384,
    0.815901,
    -0.0024423,
    -0.68701,
    0.25962,
    -0.210044,
    -0.211437,
    -0.375252,
    -0.461812,
    -0.343709,
    -0.168068,
    0.56814,
    0.679906,
    0.142891,
    0.024338,
    0.423761,
    -0.5247,
    -0.709769,
    0.329858,
    -0.70335,
    -0.585285,
    0.122951,
    -0.547515,
    0.887246,
    0.304602,
    0.516308,
    -0.89642,
    -0.034044,
    -0.101317,
    0.732705,
    0.162685,
    0.91815,
    0.537008,
    -0.215242,
    -0.332742,
    0.0547832,
    0.414229,
    0.707035,
    0.153825,
    0.79766,
    0.24552,
    0.247777,
    -0.686024,
    -0.85941,
    -0.136159,
    0.0523767,
    -0.408277,
    -0.55898,
    -0.19907,
    0.934214,
    0.238213,
    -0.857594,
    0.0396795,
    0.612249,
    -0.192923,
    0.879343,
    -0.499414,
    0.27967,
    0.929345,
    -0.34311,
    0.15274,
    0.9695,
    -0.664694,
    0.581654,
    0.253248,
    -0.304736,
    0.18414,
    0.269828,
    -0.791478,
    0.345978,
    -0.313801,
    -1.02245,
    0.162785,
    -0.624437,
    -0.957711,
    -0.696714,
    -0.65219,
    0.835348,
    -0.049036,
    0.0888033,
    0.326453,
    -0.246929,
    -0.157503,
    0.222606,
    0.343149,
    -0.0665402,
    -1.10163,
    0.647032,
    0.155381,
    0.855953,
    -0.322615,
    0.541166,
    -0.449836,
    -0.314816,
    -0.28986,
    0.267402,
    0.544971,
    0.611564,
    0.818088,
    0.224897,
    -0.742865,
    -0.323934,
    0.34091,
    -0.0420627,
    -0.827201,
    0.0213247,
    -0.504482,
    -0.988415,
    0.486068,
    0.439164,
    0.0210253,
    0.287429,
    -0.189886,
    -1.08167,
    -0.748999,
    0.135254,
    -0.407814,
    -0.236682,
    0.705204,
    -0.328255,
    0.484703,
    -0.922777,
    -0.936822,
    -0.577241,
    -0.415371,
    0.247228,
    -0.716968,
    -0.966028,
    0.889835,
    -0.971263,
    0.311137,
    -0.303282,
    -0.716102,
    -0.464443,
    -0.88904,
    0.717241,
    0.561223,
    0.711051,
    0.309323,
    -0.354041,
    0.500884,
    0.198054,
    -0.344603,
    0.647659,
    -0.505794,
    -0.767294,
    0.980056,
    -0.95205,
    0.523586,
    -0.402763,
    0.922472,
    -0.383656,
    -0.352193,
    -0.144068,
    -0.422917,
    0.256422,
    -0.400963,
    -0.945772,
    0.0743773,
    -0.72185,
    -0.0943321,
    -0.374964,
    -0.212312,
    -0.102657,
    -1.00331,
    -0.40334,
    -0.665706,
    -0.724367,
    0.561669,
    0.372435,
    0.637018,
    0.503746,
    0.2951,
    0.479223,
    0.525615,
    0.0740164,
    0.766507,
    -0.0929638,
    -0.873451,
    0.83313,
    -0.598146,
    -0.54524,
    0.88688,
    -0.493827,
    -0.635055,
    -0.0521265,
    -0.475833,
    0.94692,
    0.663743,
    0.795231,
    0.410056,
    0.821162,
    -1.09907,
    -0.7619,
    0.0584164,
    -0.902118,
    -0.652725,
    -0.361813,
    -0.898575,
    0.154203,
    -0.66976,
    0.760413,
    -0.807819,
    0.496507,
    0.37762,
    -0.245433,
    0.347882,
    0.33761,
    0.607604,
    -0.953451,
    -0.915603,
    -0.669079,
    -0.908174,
    -0.533118,
    -1.01217,
    -0.834876,
    0.710497,
    -0.855323,
    0.0631544,
    -1.3645,
    -0.629113,
    -1.09215,
    0.286334,
    0.355388,
    0.685702,
    0.607352,
    0.229393,
    -0.0793325,
    0.158819,
    -0.685942,
    -0.559761,
    -0.792808,
    -0.930129,
    -0.153676,
    -0.891363,
    0.147781,
    -0.545878,
    0.282191,
    -0.829393,
    -0.83594,
    0.8845,
    -0.323883,
    0.528754,
    0.139145,
    -0.402199,
    -0.298902,
    -0.983759,
    0.664677,
    -0.637197,
    -0.144695,
    -0.615638,
    0.920867,
    -0.992954,
    -0.914905,
    -0.731586,
    0.540313,
    -0.77016,
    -0.498055,
    0.807193,
    -0.669925,
    0.0399537,
    0.430637,
    -0.152835,
    0.305305,
    -0.902562,
    -0.0669462,
    -0.668299,
    -0.584081,
    -0.0291109,
    0.395095,
    0.485774,
    -0.506309,
    0.724271,
    0.379602,
    0.316613,
    0.109034,
    0.523176,
    0.42717,
    -0.684314,
    0.472704,
    0.622157,
    -0.909703,
    0.478361,
    -0.999475,
    -0.183538,
    0.612505,
    -0.210399,
    0.233671,
    -0.173033,
    -0.068849,
    0.198821,
    0.0217269,
    0.0967201,
    0.431586,
    -0.0453859,
    -0.648301,
    0.161102,
    -0.0135832,
    0.827818,
    -0.026854,
    -0.649182,
    -0.938019,
    -0.19563,
    -0.870949,
    -0.0626107,
    -0.414164,
    -0.0359947,
    0.707407,
    -0.451161,
    0.0342285,
    0.174778,
    0.275566,
    -0.673126,
    -0.796331,
    -0.363684,
    -0.627349,
    0.323617,
    0.770315,
    0.770325,
    -0.921823,
    -0.877974,
    -0.683423,
    -0.481816,
    0.281643,
    -0.175693,
    -0.267636,
    0.89917,
    -0.035194,
    0.177811,
    -0.15782,
    0.778096,
    -0.165411,
    0.71375,
    -0.161543,
    0.396431,
    0.565692,
    0.710073,
    0.429542,
    0.192722,
    0.882597,
    0.982453,
    -0.992603,
    0.681993,
    0.624062,
    -0.58286,
    0.0916724,
    -0.603965,
    0.24181,
    -0.902526,
    0.873984,
    0.292522,
    -0.109609,
    0.184044,
    0.777373,
    -0.261776,
    0.0279058,
    -0.0301823,
    -0.685753,
    0.306239,
    -0.561864,
    0.311802,
    -0.0815729,
    0.546168,
    -0.80216,
    0.357702,
    -0.817526,
    0.0567667,
    -0.281857,
    -0.668493,
    0.714357,
    -0.795877,
    0.00628545,
    0.43335,
    -0.484483,
    0.826972,
    0.752084,
    0.589788,
    0.71202,
    0.254634,
    0.869301,
    0.180661,
    -0.401204,
    -0.163112,
    0.139483,
    -0.568661,
    0.971877,
    -0.46554,
    0.0153226,
    -0.587986,
    -0.583589,
    -0.720942,
    -0.289424,
    0.355628,
    0.757546,
    0.424274,
    -0.750651,
    0.753373,
    -0.277695,
    0.230526,
    0.137865,
    -0.0574755,
    0.263182,
    -0.473093,
    0.895268,
    0.210988,
    0.354265,
    -0.975225,
    0.207907,
    0.808006,
    -0.173265,
    0.547205,
    -0.685895,
    -0.567566,
    -0.222452,
    0.561219,
    0.447013,
    0.854015,
    0.277251,
    0.388506,
    -0.681883,
    0.146098,
    -0.504237,
    0.211647,
    0.0591916,
    0.653644,
    -0.582716,
    -0.669091,
    -0.496981,
    0.846699,
    -0.342749,
    0.499887,
    -0.897749,
    -0.076724,
    -0.376825,
    0.22589,
    -1.094,
    0.36813,
    0.522669,
    1.02239,
    0.0521804,
    0.511651,
    0.522333,
    0.0930445,
    -0.611722,
    -0.716539,
    -0.521553,
    -0.738415,
    0.376991,
    -0.565289,
    0.2846,
    -0.00930312,
    0.607071,
    0.771445,
    0.136318,
    -0.509338,
    0.881102,
    -0.617339,
    -1.07045,
    0.523922,
    -0.363913,
    -0.425318,
    0.665427,
    -0.720553,
    0.587779,
    0.575203,
    -0.612128,
    0.0415637,
    0.441994,
    0.402609,
    0.375232,
    -0.580421,
    0.426334,
    1.02161,
    0.547609,
    -0.521228,
    -0.284395,
    0.460424,
    -0.685044,
    0.502899,
    0.622808,
    0.498859,
    0.980227,
    0.586079,
    -0.459996,
    0.148721,
    -0.440123,
    -0.754411,
    0.880334,
    0.71622,
    -1.27219,
    -1.10958,
    -0.622476,
    -0.56187,
    -0.680572,
    0.651871,
    -0.5899,
    0.233869,
    -0.0573772,
    -0.358245,
    -0.840096,
    -0.988343,
    0.78074,
    0.0414668,
    -0.0959281,
    -0.612624,
    -0.579152,
    -0.0640559,
    -0.838457,
    0.17061,
    0.228695,
    0.541621,
    0.962524,
    -0.738226,
    0.659852,
    0.195033,
    -0.705536,
    -0.629092,
    -0.089628,
    0.0760011,
    -0.56175,
    -0.853482,
    0.484952,
    0.388444,
    -0.475789,
    -0.0358165,
    -0.206447,
    0.457409,
    0.176759,
    -0.968911,
    -0.530109,
    -0.320367,
    -0.462221,
    0.0481597,
    0.68308,
    0.439015,
    0.452254,
    0.459434,
    -0.271667,
    -0.385906,
    0.950677,
    -0.0617448,
    -0.934634,
    -0.791072,
    0.381091,
    -0.701396,
    -0.611497,
    0.264744,
    -0.862402,
    0.329497,
    0.773036,
    0.559951,
    0.906108,
    -0.0918763,
    -0.867929,
    0.808632,
    0.373145,
    0.714366,
    0.0387652,
    -0.168749,
    0.288351,
    0.166625,
    -1.02818,
    -0.928045,
    0.56019,
    -0.480277,
    0.707894,
    0.13974,
    0.0920522,
    0.681627,
    -0.623969,
    0.875934,
    0.633896,
    -0.0246441,
    0.826206,
    0.918882,
    -0.781208,
    -0.802908,
    0.88469,
    -0.628978,
    0.619823,
    -0.406507,
    1.05837,
    -0.995775,
    -0.681295,
    -0.119318,
    0.691559,
    0.711657,
    -0.582861,
    0.955193,
    -0.351095,
    -0.316119,
    0.179666,
    -1.06514,
    -0.361157,
    0.454203,
    0.71774,
    0.812233,
    -0.840153,
    -0.820302,
    -0.248704,
    -0.775914,
    -0.179742,
    0.312672,
    -0.951141,
    0.157883,
    0.315327,
    -0.130427,
    -0.942432,
    0.740607,
    -0.31091,
    -0.311647,
    0.100332,
    0.104481,
    -0.84273,
    -0.628423,
    -0.815479,
    0.631349,
    0.358092,
    0.97206,
    -0.884723,
    -0.906835,
    -0.174366,
    0.0893377,
    -0.387983,
    0.801177,
    -0.415287,
    -0.0524526,
    -0.198149,
    -0.278988,
    -0.739459,
    0.167529,
    0.233648,
    0.628937,
    0.706065,
    -0.723606,
    0.844895,
    -0.474636,
    -0.353022,
    0.722617,
    0.355026,
    1.14386,
    0.723916,
    -0.389544,
    0.840759,
    -0.720124,
    0.478026,
    -0.454391,
    0.413993,
    -0.301886,
    0.764513,
    0.482379,
    -1.06956,
    0.321294,
    -0.687992,
    -0.0418371,
    0.418722,
    -0.929493,
    0.271775,
    0.806552,
    -0.406395,
    -0.484262,
    -0.390211,
    -0.84544,
    -0.720063,
    0.317043,
    0.686528,
    0.84542,
    -0.421404,
    -0.685489,
    0.665981,
    -0.266869,
    -0.165007,
    0.189755,
    0.098546,
    0.587522,
    -0.203559,
    -0.536498,
    -0.439663,
    -0.509043,
    -1.00013,
    -1.42335,
    -0.546188,
    -0.293494,
    0.365494,
    -0.367788,
    0.546299,
    -1.1107,
    -1.21448,
    0.30856,
    0.231801,
    0.554406,
    -0.260787,
    -0.917547,
    -0.00274152,
    -0.0509049,
    -0.90188,
    0.185379,
    -1.07898,
    -0.8634,
    0.46802,
    0.887867,
    -0.425844,
    -0.292421,
    -1.01977,
    0.106608,
    -0.0170805,
    -0.473634,
    0.309704,
    0.703957,
    0.486127,
    -0.163444,
    0.499188,
    -1.01258,
    -1.00615,
    -0.849759,
    -0.643373,
    0.267935,
    -0.142066,
    -0.589738,
    -0.207712,
    -0.0215345,
    0.15132,
    0.692226,
    0.331899,
    0.542356,
    0.506491,
    0.455144,
    0.394621,
    -0.0390985,
    -0.945359,
    0.244476,
    -0.921052,
    0.0827566,
    -0.301649,
    -0.438273,
    0.270915,
    -0.00477948,
    0.262929,
    -0.592188,
    -0.884882,
    -0.937797,
    -0.698952,
    0.319978,
    0.795611,
    0.00136913,
    -0.72725,
    -0.0388458,
    0.660463,
    -0.333455,
    0.574054,
    0.335827,
    -0.810635,
    0.291635,
    0.137567,
    -0.874531,
    -0.145958,
    0.715578,
    0.520633,
    0.130192,
    0.257294,
    -0.72068,
    -0.168564,
    0.500304,
    0.284073,
    0.00799385,
    0.58957,
    -0.464519,
    1.00485,
    0.16884,
    0.345343,
    -0.0864696,
    0.150797,
    -0.660204,
    0.110944,
    0.32645,
    1.03659,
    -0.727424,
    0.918298,
    0.116016,
    0.816405,
    0.891097,
    0.400917,
    0.568474,
    0.281433,
    0.840789,
    -0.366531,
    0.193721,
    -0.460535,
    -0.205547,
    0.0962148,
    -0.705551,
    0.499463,
    -0.735879,
    -0.276865,
    0.42904,
    0.443013,
    -0.557081,
    0.539356,
    -0.898772,
    -0.89785,
    0.127282,
    0.750529,
    -0.0795499,
    -0.636941,
    0.93657,
    0.929623,
    0.27108,
    -0.728238,
    0.458465,
    0.102357,
    -0.37497,
    -0.638231,
    -1.03831,
    -0.756672,
    0.0912711,
    -1.22199,
    -0.602807,
    -0.770232,
    0.601026,
    0.365698,
    -0.746374,
    -0.699077,
    -0.785388,
    0.507295,
    0.780411,
    -0.50829,
    0.491757,
    0.634333,
    -0.751305,
    -0.603221,
    0.0403636,
    0.523912,
    -0.527291,
    -0.0375962,
    0.0243187,
    -0.222226,
    0.13605,
    -1.00698,
    0.867375,
    0.937001,
    0.583355,
    1.20014,
    0.190551,
    0.756558,
    -0.950598,
    -0.644659,
    0.751714,
    0.262297,
    1.09355,
    -0.320534,
    0.142479,
    0.798907,
    -0.985063,
    -0.702446,
    0.903888,
    -0.30719,
    -0.0438757,
    0.41984,
    -0.767644,
    -0.77994,
    -0.733172,
    -0.546418,
    0.206615,
    -0.774249,
    -0.584134,
    -0.952523,
    -0.175144,
    0.0480932,
    -0.90655,
    0.0316642,
    0.642224,
    -0.614989,
    -0.492173,
    -0.543205,
    0.615235,
    0.88378,
    -0.29957,
    0.374891,
    -0.603518,
    0.578275,
    -0.295394,
    0.791854,
    -0.120992,
    -0.777159,
    0.0126747,
    -0.748332,
    -0.472023,
    -0.875154,
    0.398391,
    -0.620517,
    -0.749933,
    0.573637,
    -0.892221,
    0.558614,
    -0.60056,
    -0.971081,
    -1.00137,
    0.861836,
    0.158787,
    -0.227144,
    -0.00521055,
    -0.154404,
    0.534411,
    -0.163689,
    -0.123266,
    -0.564716,
    -0.873178,
    -0.174739,
    0.0640361,
    -0.559036,
    -0.179643,
    -0.0918823,
    0.435821,
    -0.632489,
    -0.77645,
    -0.871967,
    -0.720916,
    0.206171,
    0.916498,
    -0.788383,
    0.218159,
    -0.235565,
    -0.731391,
    0.799915,
    -0.306725,
    -0.449086,
    -0.155664,
    -0.402772,
    -0.41753,
    0.443061,
    0.839395,
    -0.417747,
    -0.588026,
    -0.0167334,
    0.331923,
    -0.338742,
    0.256512,
    -0.235495,
    0.870818,
    -0.036058,
    -0.386604,
    -0.288926,
    -0.737296,
    -0.397357,
    -0.449522,
    -0.627202,
    -0.812181,
    -0.493901,
    0.694281,
    0.535836,
    0.160051,
    1.02531,
    -0.16612,
    0.12924,
    0.00778643,
    0.590587,
    -0.482346,
    0.793817,
    -0.266353,
    -0.691758,
    0.0828938,
    0.837497,
    -0.353649,
    -0.616205,
    0.231342,
    0.122742,
    0.674508,
    0.397645,
    0.840827,
    -0.00255587,
    -0.345733,
    0.488146,
    -0.754573,
    -0.747215,
    0.502308,
    0.25448,
    0.262945,
    -0.296965,
    0.451017,
    0.647208,
    0.140653,
    -0.45593,
    -0.34464,
    0.0902254,
    -0.648517,
    0.190526,
    -0.98637,
    -0.726105,
    0.972021,
    0.905602,
    -0.841272,
    0.360439,
    0.747022,
    0.107126,
    -0.932071,
    0.130855,
    0.0458084,
    0.697542,
    0.717469,
    -0.31118,
    -1.1451,
    0.119547,
    -0.676423,
    0.27676,
    0.12134,
    0.446621,
    0.177488,
    -0.744894,
    -0.0211377,
    0.00681986,
    0.0512065,
    0.702072,
    -0.421048,
    0.113787,
    -0.91129,
    -0.118636,
    -0.313068,
    -0.602453,
    0.347228,
    0.687203,
    0.283211,
    0.774038,
    0.861995,
    -0.941947,
    -0.0615962,
    0.0518799,
    -0.528889,
    0.0527781,
    -0.541266,
    0.264145,
    -0.283926,
    0.27778,
    -0.330491,
    0.919523,
    -0.508462,
    0.205552,
    0.0759542,
    -0.1465,
    0.078406,
    -0.509463,
    -0.208585,
    0.103945,
    -0.0909024,
    -0.923766,
    -0.563949,
    0.524735,
    0.885156,
    -0.0278269,
    0.160327,
    -0.70175,
    0.931959,
    -0.681466,
    0.437866,
    -0.571803,
    -0.832577,
    0.115642,
    -0.0627164,
    0.323412,
    -0.500492,
    0.251526,
    0.927634,
    -0.343549,
    -0.954726,
    -0.560915,
    0.686613,
    -0.192307,
    0.796411,
    -0.540267,
    -0.616612,
    0.508844,
    -0.593508,
    -0.799695,
    0.126005,
    -0.0800865,
    0.169728,
    -0.293942,
    0.475419,
    0.515559,
    -0.600095,
    0.482922,
    -0.245908,
    -0.498233,
    0.777641,
    0.277404,
    -0.617323,
    0.0822469,
    -0.28215,
    -0.862681,
    -0.504839,
    -0.309738,
    0.079786,
    0.969699,
    -0.444183,
    0.736633,
    0.823273,
    0.510227,
    0.255942,
    0.362818,
    -0.0260428,
    0.767233,
    0.0656461,
    0.100232,
    0.768006,
    -0.592858,
    -0.544058,
    -0.393351,
    -0.503893,
    0.461323,
    -0.0545792,
    0.392791,
    0.674071,
    0.0865662,
    -0.195815,
    0.576549,
    -0.0544281,
    -0.0241062,
    0.888943,
    -0.112482,
    -0.119877,
    0.380516,
    0.289425,
    -0.63712,
    -0.669576,
    0.278089,
    0.466713,
    -0.776658,
    0.5076,
    -0.0385435,
    -0.762655,
    0.382625,
    0.0923434,
    0.859215,
    0.414963,
    0.749062,
    0.197612,
    -0.863149,
    0.740772,
    0.748631,
    -0.505711,
    -0.190379,
    -0.0959247,
    -0.686823,
    -0.201226,
    -0.411281,
    0.429124,
    -0.764955,
    0.563301,
    -0.32415,
    0.836233,
    0.368493,
    -0.333578,
    0.584731,
    0.325031,
    0.919269,
    0.37341,
    0.238502,
    -0.557324,
    -0.108774,
    -0.668494,
    -0.608563,
    0.374676,
    0.8301,
    -0.123737,
    0.844849,
    0.10396,
    0.048261,
    0.306704,
    -0.892722,
    0.0640724,
    -0.0575603,
    -0.0479802,
    -0.182994,
    -0.793153,
    0.257232,
    0.923349,
    0.191252,
    -0.00784631,
    -0.951918,
    -0.816138,
    0.975636,
    -0.32118,
    -0.203055,
    0.375614,
    1.0222,
    0.939542,
    -0.162202,
    0.302344,
    0.46144,
    0.0859687,
    0.132771,
    0.954142,
    -0.651112,
    -0.808913,
    -0.664907,
    -0.0824517,
    -0.779069,
    0.895723,
    -0.562485,
    0.329458,
    -1.02089,
    -0.339141,
    -0.936883,
    -0.0398648,
    -0.396943,
    -0.408265,
    -0.97738,
    -0.0302544,
    0.889402,
    0.214667,
    -0.898361,
    -0.62527,
    -0.241898,
    0.565717,
    -0.557854,
    0.518745,
    0.679645,
    0.547296,
    -0.853321,
    -0.443849,
    -0.353935,
    0.303871,
    -0.679729,
    -0.196451,
    -0.44441,
    0.597305,
    -0.964508,
    -0.779909,
    -0.589687,
    -0.235611,
    -0.515448,
    0.22048,
    -0.777324,
    0.897988,
    -0.0358905,
    0.666702,
    0.720382,
    0.636031,
    0.792357,
    -0.714429,
    0.351248,
    -0.850854,
    0.911367,
    0.179792,
    0.0323803,
    0.333095,
    0.162864,
    0.292079,
    0.2162,
    -0.0271414,
    0.204677,
    -0.358842,
    -0.986991,
    -0.202192,
    -0.302431,
    -0.0513303,
    -0.813095,
    -0.621735,
    0.207653,
    -0.418301,
    0.284703,
    -0.451063,
    -0.988511,
    0.576751,
    -0.201465,
    0.197101,
    0.877476,
    0.935579,
    -0.860509,
    0.000117225,
    -1.03351,
    -0.85042,
    -0.530562,
    -1.0558,
    -0.38521,
    -0.190909,
    0.0744233,
    0.361022,
    -1.02132,
    -0.735359,
    -0.00699745,
    -0.463898,
    0.327508,
    0.10498,
    0.200431,
    0.586287,
    -0.818056,
    0.141361,
    0.422256,
    -0.0987444,
    -0.863271,
    -0.652166,
    -0.3505,
    -0.0810375,
    0.811815,
    -0.635076,
    -0.134438,
    -0.638712,
    -0.09413,
    0.516701,
    -0.395555,
    -0.0229533,
    0.389204,
    -0.0824208,
    0.686667,
    -0.0496071,
    -0.515052,
    -0.369649,
    -0.568399,
    0.0626683,
    0.609104,
    -0.193495,
    0.028633,
    0.0619163,
    -0.421362,
    0.560355,
    -0.202625,
    0.327372,
    0.323128,
    0.816055,
    -0.242069,
    0.701997,
    -0.198356,
    0.525196,
    -0.400512,
    0.178558,
    0.354127,
    -0.930602,
    0.669073,
    -0.80054,
    0.435173,
    0.0574454,
    -0.252374,
    0.885972,
    0.435112,
    -0.907255,
    -0.520095,
    -0.793157,
    -0.906273,
    0.0820602,
    0.183245,
    0.28636,
    -0.447291,
    -0.830927,
    0.794161,
    0.281531,
    0.927204,
    0.780238,
    0.72077,
    0.0679543,
    0.277213,
    0.443795,
    0.308913,
    0.780145,
    0.237369,
    -0.422697,
    -0.0265046,
    -0.568017,
    0.388983,
    0.81161,
    0.338343,
    -0.680176,
    0.534563,
    0.453142,
    -0.316994,
    0.342496,
    -0.860607,
    0.452065,
    0.103934,
    0.219583,
    -0.666103,
    -0.21906,
    0.253683,
    0.920185,
    -0.558407,
    0.0177669,
    -0.871867,
    0.0221873,
    -0.367087,
    -0.844323,
    -0.352992,
    -0.822488,
    -0.519019,
    -0.531023,
    -0.696249,
    0.629365,
    0.322273,
    0.943389,
    0.781929,
    -0.120983,
    -0.158299,
    -0.0486045,
    -0.693957,
    0.158566,
    -0.159985,
    0.700679,
    -0.265667,
    0.559618,
    -1.00285,
    -0.397176,
    0.342842,
    -0.536969,
    0.228913,
    0.0137542,
    -0.0933395,
    -0.337051,
    0.399061,
    -0.854541,
    -0.0491424,
    0.824072,
    -0.0285906,
    0.916411,
    -0.0469114,
    -0.384605,
    0.851861,
    -0.940291,
    0.080055,
    0.183206,
    0.461282,
    -0.208281,
    -0.512425,
    -0.760263,
    -0.330193,
    0.557373,
    1.03408,
    -0.488494,
    1.01991,
    -0.485258,
    0.419426,
    -0.945892,
    0.577344,
    -0.798729,
    -0.48694,
    -0.624962,
    0.114512,
    -0.819772,
    0.547578,
    -0.210938,
    -0.421674,
    -0.564872,
    0.739045,
    0.456561,
    -0.651618,
    -0.0085476,
    0.496186,
    0.569287,
    -1.1447,
    -1.0151,
    0.230539,
    -1.17968,
    -0.779194,
    0.0328337,
    -0.0160112,
    -0.473126,
    -0.999458,
    -0.790924,
    -0.120955,
    0.41358,
    -0.274047,
    0.117433,
    -0.229858,
    0.563755,
    -1.05716,
    -0.910873,
    0.0248646,
    0.154519,
    -0.897938,
    0.667072,
    -0.658145,
    0.014969,
    -0.259983,
    -0.44369,
    -0.891423,
    0.830911,
    0.602227,
    0.692141,
    0.178829,
    0.464467,
    0.64386,
    -0.763564,
    0.73875,
    0.983453,
    0.28378,
    -0.235844,
    -0.00749772,
    -0.691929,
    -0.178949,
    0.736499,
    -1.03567,
    -1.44886,
    0.500389,
    -1.04292,
    0.40679,
    -0.108077,
    0.084228,
    0.119151,
    -0.36378,
    0.790673,
    -0.0612639,
    0.276365,
    -0.957218,
    -0.987022,
    -0.491691,
    -0.726448,
    0.00925179,
    -0.939278,
    0.0179538,
    0.670157,
    -0.701126,
    -0.824063,
    -0.808607,
    -1.05291,
    -0.630726,
    -0.942702,
    0.44036,
    -0.0906332,
    -0.189527,
    -0.897903,
    0.0884128,
    -0.0663347,
    -0.131951,
    0.734374,
    -0.998769,
    -0.0565871,
    -0.551751,
    0.26372,
    -0.419437,
    -0.101327,
    -0.483035,
    0.275353,
    0.599094,
    -0.178365,
    -0.851365,
    -0.422211,
    -0.466522,
    -0.810784,
    -0.5284,
    0.0103854,
    0.671767,
    -0.748661,
    0.198576,
    0.502476,
    -0.871739,
    0.219464,
    -0.75115,
    0.23843,
    -0.867229,
    0.213669,
    0.84806,
    0.119016,
    -0.359938,
    -0.0310065,
    -0.735641,
    0.735918,
    0.856881,
    0.530224,
    0.535182,
    -0.787134,
    0.171441,
    -0.481138,
    0.36685,
    -0.816464,
    -0.66537,
    0.522226,
    -0.640798,
    0.868253,
    -0.890316,
    -1.01489,
    -0.690841,
    -0.451111,
    -0.256028,
    0.320438,
    -0.292981,
    -0.0792395,
    -0.006133,
    0.0566085,
    -0.440312,
    -0.181003,
    -0.370886,
    -0.0739862,
    -0.417443,
    -0.954913,
    0.133846,
    -0.610816,
    -0.664296,
    0.872962,
    -0.376511,
    0.00665095,
    0.128637,
    -0.3317,
    -0.695164,
    -0.462274,
    0.804469,
    -0.263329,
    -1.15711,
    -1.01128,
    -0.285944,
    -0.279889,
    -0.453463,
    -1.26342,
    0.0444385,
    0.459269,
    0.530878,
    -1.25389,
    -1.0475,
    -0.799563,
    0.398317,
    -1.10413,
    0.412204,
    0.805087,
    -0.494556,
    0.401875,
    -0.812871,
    0.00922018,
    -0.371911,
    -0.671595,
    0.39702,
    -0.819175,
    -0.808678,
    0.0496858,
    -0.5351,
    -0.981239,
    0.954247,
    -0.38217,
    0.299205,
    -0.284711,
    0.47878,
    -0.275061,
    -0.0980608,
    -0.425407,
    -0.598501,
    -0.718929,
    -0.596114,
    -0.603662,
    -0.0972121,
    0.768978,
    -0.258117,
    0.246309,
    0.26103,
    0.759386,
    0.736026,
    0.675562,
    0.425345,
    0.0425988,
    0.215525,
    0.0568438,
    0.349509,
    -0.816675,
    -0.876556,
    -0.561797,
    0.0576049,
    0.757186,
    0.475389,
    -0.549799,
    -0.16085,
    -0.0855157,
    0.611663,
    -0.549981,
    0.304889,
    0.883539,
    -0.183199,
    0.841696,
    0.874164,
    0.340209,
    -0.729767,
    0.728683,
    0.054266,
    -0.25737,
    0.821547,
    -0.422973,
    -0.00172108,
    0.954769,
    0.409501,
    0.466364,
    0.154888,
    0.0759106,
    -0.592035,
    0.0563204,
    -0.0523025,
    -0.199472,
    0.437565,
    -0.0823009,
    -0.690694,
    -0.413574,
    0.137506,
    0.598897,
    0.194583,
    0.468765,
    -0.380004,
    0.816726,
    0.844688,
    0.948803,
    0.281842,
    0.8975,
    0.843702,
    0.309749,
    0.296974,
    0.466424,
    -0.681454,
    0.834246,
    0.333118,
    -0.24928,
    -0.212614,
    0.192529,
    -0.754328,
    0.0155425,
    -0.850798,
    0.01665,
    -0.244942,
    -0.309501,
    -0.632602,
    0.12805,
    -0.501015,
    -0.568224,
    -0.688732,
    0.78626,
    -0.363898,
    0.87419,
    0.863182,
    0.570729,
    0.521956,
    -0.965501,
    -0.79944,
    0.00828012,
    0.743486,
    -0.465569,
    0.590224,
    -0.199657,
    0.22494,
    -0.0879188,
    0.303473,
    -0.784571,
    0.123319,
    1.12636,
    1.32642,
    -0.0210769,
    -0.925574,
    0.169288,
    0.45648,
    -0.495234,
    -0.835812,
    0.723364,
    -0.606046,
    -0.0565588,
    -0.19069,
    1.08325,
    0.557534,
    0.648765,
    -0.210676,
    -0.404499,
    1.16218,
    -0.117054,
    -0.68469,
    0.398348,
    0.636115,
    -0.295287,
    -0.535778,
    0.908163,
    0.563701,
    0.284928,
    -0.154704,
    0.176335,
    -0.630989,
    -0.578935,
    -0.155368,
    0.995998,
    0.513981,
    -0.900782,
    0.488748,
    0.470481,
    -0.471256,
    -0.704289,
    0.176803,
    0.224579,
    -0.77593,
    0.11272,
    0.282935,
    0.55499,
    0.671482,
    0.887169,
    -0.790663,
    -1.07373,
    0.883401,
    -0.872516,
    0.809896,
    0.607727,
    -0.316383,
    -0.71331,
    -0.975643,
    -0.0888652,
    0.252109,
    -0.277821,
    0.139468,
    -0.334255,
    0.211668,
    -1.18527,
    -1.08653,
    -0.282501,
    0.292075,
    -0.295729,
    0.338851,
    0.41764,
    0.877432,
    0.00999239,
    0.189719,
    -0.696745,
    -0.171254,
    -0.830635,
    0.54232,
    1.0291,
    -0.169311,
    0.385745,
    0.404879,
    0.607908,
    0.218886,
    0.140839,
    0.490494,
    -0.912977,
    -0.708616,
    -0.80453,
    0.85106,
    0.592745,
    0.133377,
    0.616225,
    0.491063,
    -0.638977,
    -0.810719,
    -0.382285,
    0.0945177,
    -0.550281,
    -0.181258,
    0.427188,
    -0.123708,
    -0.35484,
    -0.339456,
    -0.587025,
    -0.890335,
    -0.541821,
    -0.296109,
    0.242382,
    -0.828647,
    -0.206972,
    0.0696246,
    0.0721155,
    0.535292,
    0.879713,
    -0.935363,
    0.58225,
    0.627717,
    -0.867952,
    -1.03457,
    0.244276,
    -0.631688,
    0.851101,
    0.14089,
    0.00425609,
    -0.513398,
    -0.196719,
    -0.190938,
    0.635671,
    0.877293,
    -0.915732,
    -0.407569,
    -0.900026,
    0.808598,
    0.0426266,
    0.308306,
    0.205265,
    0.443133,
    1.12912,
    -0.770635,
    0.897841,
    0.856977,
    0.88187,
    0.418449,
    0.923702,
    0.0503019,
    -0.0641625,
    0.94531,
    0.118775,
    0.371167,
    0.243564,
    0.204128,
    0.00783313,
    -0.0651186,
    -0.394694,
    0.646392,
    0.946948,
    -0.823658,
    0.508163,
    -0.308343,
    0.867999,
    -0.0420867,
    -0.570032,
    -0.240979,
    -1.2272,
    -1.1634,
    0.233195,
    0.686349,
    0.788519,
    -0.341249,
    -0.563279,
    0.0528024,
    -0.270514,
    -0.423899,
    0.0464098,
    -1.06718,
    0.00591902,
    0.817872,
    0.101977,
    -0.189147,
    0.372155,
    0.268331,
    0.146099,
    0.868817,
    0.66056,
    -0.20872,
    0.365879,
    -0.257972,
    0.425707,
    -0.403798,
    0.304849,
    0.768979,
    0.595552,
    -0.713255,
    -0.476888,
    0.102101,
    -0.0933821,
    0.237542,
    -0.213619,
    0.96156,
    0.749994,
    0.0849735,
    -0.301794,
    -0.244992,
    0.391286,
    0.989015,
    -0.0400057,
    0.780936,
    0.788512,
    -0.278294,
    -0.353388,
    -0.249795,
    -0.572211,
    -0.211807,
    -0.302781,
    -0.492394,
    -0.527141,
    0.335901,
    -0.355203,
    -0.452607,
    0.869908,
    -0.841156,
    0.70642,
    0.39375,
    0.831114,
    0.304361,
    -0.17196,
    -0.874761,
    -0.75104,
    -0.290512,
    0.351005,
    0.125475,
    0.887339,
    0.533831,
    0.735532,
    0.60289,
    0.229581,
    -0.216741,
    -0.380561,
    -0.583643,
    0.862201,
    0.86603,
    -0.543554,
    -0.388732,
    -0.575072,
    -0.938773,
    0.0110232,
    0.150392,
    -0.738833,
    0.3073,
    0.330212,
    0.569719,
    0.162428,
    0.131648,
    0.720289,
    -0.161859,
    -0.551907,
    0.433067,
    -0.343665,
    0.621012,
    -0.844642,
    0.573915,
    -0.462833,
    0.895249,
    0.215659,
    0.274742,
    0.22236,
    0.3638,
    -0.191969,
    0.730497,
    0.292927,
    -0.609288,
    0.151722,
    0.207529,
    0.930648,
    -0.486497,
    0.441695,
    0.533648,
    -0.198731,
    0.202571,
    0.378819,
    0.423989,
    0.624766,
    0.239003,
    -0.423166,
    0.148628,
    -0.496006,
    -0.692826,
    -0.370308,
    0.2106,
    0.767458,
    -0.275489,
    0.939779,
    -0.996664,
    0.715755,
    -1.08688,
    -0.312779,
    0.870868,
    -1.04434,
    -0.502407,
    -0.445147,
    -0.789532,
    -0.562102,
    -0.393425,
    0.678828,
    -0.476083,
    -1.04608,
    0.86225,
    -0.661607,
    0.191189,
    -0.597871,
    -0.55051,
    -0.296653,
    0.0306153,
    -0.760149,
    0.534069,
    -0.680915,
    0.865187,
    0.343465,
    -0.826255,
    -0.805207,
    -0.42138,
    -0.629711,
    -0.236475,
    0.0587595,
    0.061775,
    0.215478,
    0.0680075,
    -0.221372,
    -0.389226,
    0.357527,
    -0.702598,
    -0.784977,
    0.753637,
    0.6314,
    -0.210465,
    -0.773038,
    0.248398,
    0.270337,
    0.0987775,
    -0.830881,
    0.029681,
    -0.558308,
    -0.378316,
    0.110799,
    -0.558626,
    -0.626109,
    -0.124985,
    0.712135,
    0.0415902,
    0.0388259,
    -0.121915,
    -0.584198,
    -0.194127,
    -0.358155,
    -0.195635,
    0.470381,
    -0.992163,
    -0.708788,
    -1.08331,
    -0.0167391,
    -0.563836,
    -0.0559347,
    -0.424443,
    -0.802571,
    0.110463,
    -0.183381,
    0.631423,
    -0.921565,
    0.179031,
    0.226352,
    -0.120312,
    0.499761,
    -0.430137,
    -0.651047,
    0.784424,
    0.718137,
    0.277068,
    -0.541194,
    0.888309,
    1.25855,
    1.02127,
    -0.605438,
    -0.444101,
    0.638066,
    0.636658,
    0.0822679,
    0.0818054,
    0.818994,
    0.321539,
    -0.601006,
    0.804217,
    -0.178648,
    -0.00834426,
    -0.546682,
    -0.794838,
    0.0275894,
    -0.409951,
    0.605538,
    -0.395839,
    -0.657556,
    0.346351,
    0.506604,
    0.440538,
    0.294114,
    0.779374,
    -0.0267537,
    -0.698387,
    0.383275,
    0.932011,
    0.82157,
    -0.945549,
    0.234682,
    -0.520723,
    -0.538791,
    -0.746661,
    -0.640562,
    0.323332,
    -0.551804,
    0.619569,
    0.0661966,
    -0.24494,
    -0.725116,
    0.952124,
    0.0235338,
    0.833924,
    -0.931057,
    0.929913,
    0.84886,
    -0.308793,
    0.65549,
    0.252807,
    0.589244,
    -0.557626,
    -0.455109,
    -1.118,
    0.674976,
    0.750067,
    -0.291069,
    0.158727,
    -0.421592,
    0.438683,
    -0.180455,
    0.717666,
    0.238338,
    -0.59763,
    0.342118,
    -0.0300661,
    0.198603,
    -0.777593,
    0.906548,
    -0.586795,
    -0.674663,
    -0.539447,
    -0.504427,
    0.421517,
    -0.758636,
    0.317422,
    -0.831018,
    -0.613998,
    -0.0527536,
    -0.877805,
    0.0403835,
    0.45158,
    0.257027,
    0.402095,
    0.923646,
    -0.340573,
    0.281197,
    0.667812,
    -1.00596,
    -0.188664,
    -0.421229,
    -0.643161,
    -0.280755,
    -0.470738,
    -0.861164,
    -0.508075,
    0.451412,
    -0.313769,
    -0.099105,
    0.0130884,
    0.280544,
    -0.47954,
    -0.191721,
    -0.176492,
    -0.24541,
    -0.0068426,
    -0.0892038,
    -0.209795,
    -0.883864,
    0.735383,
    -0.206285,
    -0.477737,
    0.628145,
    -0.87032,
    0.548448,
    -1.01605,
    -0.218017,
    -0.956009,
    0.347371,
    0.799063,
    -0.597626,
    0.0679262,
    0.646586,
    -0.792229,
    -0.190443,
    -0.630475,
    -0.224785,
    0.686992,
    0.614555,
    0.761229,
    0.125602,
    -0.662439,
    -0.628954,
    -0.34882,
    1.0326,
    0.874425,
    -0.147899,
    -0.957996,
    0.930714,
    -0.541837,
    0.1585,
    -0.976073,
    0.71884,
    0.495112,
    -0.549798,
    -0.361443,
    0.667962,
    0.992257,
    -0.17727,
    0.698969,
    -0.897255,
    0.417628,
    0.0785916,
    0.185065,
    0.746799,
    0.950399,
    -0.360249,
    0.555858,
    0.54699,
    0.187041,
    0.459766,
    0.838248,
    -0.547678,
    0.0798961,
    0.36225,
    -0.093538,
    0.662624,
    -0.0959899,
    -0.397722,
    -0.489463,
    0.932011,
    0.309353,
    0.094846,
    0.394457,
    -0.893668,
    0.595983,
    0.334288,
    -0.0904616,
    -0.88796,
    0.889056,
    0.00875686,
    0.639004,
    0.44691,
    0.576777,
    -0.200362,
    0.0792969,
    0.0476362,
    0.14407,
    0.281415,
    0.563325,
    0.311329,
    0.240728,
    0.649668,
    0.348555,
    -0.655276,
    0.896409,
    -0.257324,
    -0.187144,
    0.0289749,
    0.199523,
    -0.194793,
    -0.545923,
    0.0772556,
    -0.532654,
    -0.939426,
    -0.404459,
    0.814483,
    0.125211,
    0.90369,
    -0.774441,
    0.126187,
    -1.03151,
    0.788641,
    0.241645,
    -0.6292,
    -0.238362,
    -0.288174,
    -0.87169,
    0.971158,
    -0.770908,
    -0.176165,
    0.24738,
    0.653712,
    0.696452,
    0.975679,
    0.532669,
    0.911674,
    -0.0987978,
    -0.509071,
    0.682022,
    0.722827,
    0.0597932,
    0.0452294,
    0.522467,
    -0.374167,
    -0.521042,
    -0.555616,
    0.115199,
    0.750776,
    -0.0230815,
    -0.437856,
    -0.85591,
    0.582161,
    0.0922809,
    -0.470532,
    0.674856,
    -0.16488,
    -0.163951,
    0.920081,
    0.543914,
    0.589165,
    0.882998,
    0.0585995,
    0.614626,
    0.469897,
    0.392324,
    -0.583663,
    0.736785,
    -0.722247,
    -0.272339,
    -0.0743086,
    -0.0416726,
    0.262133,
    0.612103,
    0.734484,
    0.602429,
    -0.673536,
    -0.524488,
    -0.159949,
    0.422432,
    0.463885,
    -0.352607,
    -0.0873191,
    0.60858,
    -0.548298,
    0.167293,
    -0.464513,
    0.378628,
    0.359708,
    -0.940663,
    0.453802,
    -0.837671,
    0.179435,
    0.691545,
    -0.959428,
    -0.873894,
    0.990862,
    -0.898251,
    -0.410855,
    0.36794,
    0.784322,
    0.232055,
    0.876961,
    0.746565,
    1.15065,
    1.20831,
    0.285971,
    0.386766,
    -0.384785,
    0.887282,
    0.385161,
    0.123485,
    -0.395646,
    0.819006,
    0.991624,
    0.339712,
    -0.954678,
    0.399842,
    0.859963,
    -0.0944257,
    -0.593247,
    0.48396,
    0.709577,
    1.02035,
    0.172833,
    -0.154318,
    -0.111398,
    0.232181,
    0.863201,
    -0.662484,
    -0.259144,
    -0.511907,
    0.589965,
    0.788817,
    -0.049448,
    -0.286477,
    -0.512706,
    0.388694,
    -0.26033,
    -0.649046,
    0.00874613,
    -0.350682,
    -0.506142,
    0.731729,
    -0.194582,
    -0.357947,
    0.149662,
    0.790655,
    0.590944,
    0.879086,
    -0.474067,
    -0.466954,
    0.444825,
    0.897163,
    0.630435,
    0.87638,
    0.673762,
    0.698821,
    -0.978388,
    0.670034,
    0.731091,
    0.118336,
    0.98925,
    -0.396187,
    -0.0700404,
    -0.249552,
    -0.988832,
    -0.555334,
    0.741739,
    -0.803274,
    0.0689009,
    0.1488,
    -0.0227071,
    0.0437457,
    0.0811945,
    0.86269,
    -0.907352,
    -0.189348,
    0.0869592,
    -0.657477,
    0.0903147,
    -0.880648,
    0.651018,
    -0.502761,
    -0.243992,
    0.89919,
    0.109136,
    0.885489,
    0.654744,
    -0.908099,
    -0.844485,
    -0.610912,
    0.500164,
    -0.422006,
    0.432544,
    -0.329385,
    1.01066,
    0.193506,
    0.588191,
    0.615337,
    -0.530087,
    -0.507182,
    -0.601641,
    0.494246,
    -0.971448,
    -0.895745,
    0.0436448,
    -0.108992,
    0.0164823,
    0.633775,
    0.44732,
    0.27982,
    -0.380666,
    -1.08598,
    -0.698374,
    -0.443854,
    0.185268,
    0.157983,
    0.67194,
    -0.549641,
    0.64852,
    -0.419074,
    -0.237468,
    0.103181,
    0.0126884,
    0.917389,
    -0.431414,
    -0.0707687,
    0.19867,
    -0.839285,
    0.66634,
    -0.882295,
    0.347774,
    -0.097417,
    -0.185363,
    -0.571203,
    0.719494,
    0.659689,
    -0.683575,
    -1.03249,
    0.614105,
    -1.30741,
    -0.836154,
    0.127489,
    -0.935537,
    0.722423,
    -0.858237,
    -0.794171,
    0.70511,
    0.23517,
    0.696007,
    -0.0329491,
    0.551841,
    0.509561,
    0.0732549,
    0.169165,
    -0.427116,
    -0.67992,
    -0.239286,
    0.520736,
    -0.676222,
    -1.04409,
    0.77207,
    -1.02982,
    -0.28602,
    -0.215056,
    0.321054,
    -0.979365,
    0.131324,
    -0.824841,
    -0.0606428,
    0.150709,
    0.434192,
    -0.528215,
    -1.08187,
    -1.02987,
    -0.44757,
    -1.18226,
    0.318447,
    -0.475424,
    0.509048,
    0.0271901,
    -0.156107,
    0.577714,
    -0.644812,
    -0.290722,
    -0.56371,
    -0.335538,
    -1.14738,
    -0.398108,
    -1.07961,
    -0.473474,
    0.0865587,
    -0.809579,
    0.375065,
    -0.21335,
    -0.559761,
    0.743526,
    -1.03493,
    -0.163207,
    -0.24232,
    -0.937065,
    -0.336255,
    0.76964,
    0.516837,
    -0.193389,
    -0.286132,
    -0.173038,
    -0.687804,
    -0.388805,
    0.275464,
    -0.430299,
    0.844541,
    -0.951887,
    -0.0925422,
    0.3049,
    -0.829807,
    0.250392,
    0.748093,
    0.815616,
    -0.0353846,
    -0.249864,
    -0.987699,
    0.231082,
    0.87712,
    -1.07442,
    -1.02055,
    -0.736175,
    -0.092442,
    -0.396634,
    -0.679381,
    -0.976837,
    -0.51471,
    -0.157837,
    0.469202,
    0.0302968,
    0.391998,
    -0.492633,
    -0.927436,
    0.844476,
    0.818593,
    0.493504,
    -0.179743,
    0.170933,
    0.627838,
    0.455886,
    -0.212714,
    0.161194,
    0.0384586,
    -0.304104,
    0.0461079,
    -0.668557,
    0.462573,
    0.144161,
    -0.178792,
    0.20654,
    -0.816554,
    -0.134422,
    -0.509603,
    0.368709,
    0.438565,
    0.360369,
    0.954504,
    0.948153,
    -0.614464,
    -0.396314,
    -0.271927,
    0.881308,
    -0.0838022,
    0.464664,
    -0.159816,
    0.845563,
    0.170448,
    0.125278,
    0.191191,
    -0.89844,
    -0.688687,
    0.315632,
    -0.841002,
    0.554226,
    -1.17822,
    -0.739196,
    -0.465888,
    -0.409194,
    -0.0598719,
    -0.950702,
    0.253713,
    -0.689051,
    -0.143263,
    0.186128,
    0.8251,
    0.575916,
    0.121295,
    0.452296,
    -0.41229,
    0.365085,
    -0.0254122,
    0.208832,
    0.315925,
    0.628999,
    0.116031,
    -0.754998,
    -0.142992,
    -0.694177,
    0.894498,
    0.152349,
    0.763591,
    0.698581,
    -0.900223,
    -0.210069,
    -0.991876,
    -0.850196,
    0.713442,
    -0.863951,
    -0.583502,
    -0.53269,
    0.755607,
    -0.145487,
    -0.0817005,
    -0.694726,
    0.0584721,
    -0.126682,
    -0.277605,
    -0.738375,
    0.851827,
    -0.494826,
    -0.396922,
    -0.810383,
    0.848037,
    0.124128,
    1.47613,
    -0.829587,
    0.481622,
    0.938254,
    -0.0781596,
    0.388954,
    -0.449073,
    0.300238,
    0.0467373,
    -0.074752,
    0.555145,
    0.6319,
    -0.159321,
    -0.171598,
    -0.236143,
    -0.624751,
    0.748559,
    0.89373,
    0.4553,
    0.45126,
    0.52413,
    -0.984876,
    0.767151,
    -0.498074,
    -0.660109,
    -0.559039,
    -0.167108,
    -0.824969,
    -0.024359,
    0.202305,
    -0.363036,
    -0.508292,
    0.52439,
    0.300765,
    0.805906,
    0.539794,
    -0.713783,
    0.980707,
    0.516437,
    0.396332,
    0.172573,
    -0.367219,
    -0.997831,
    0.758,
    -0.102608,
    0.890563,
    -0.624191,
    0.294777,
    -0.659331,
    -0.224874,
    0.206721,
    0.910267,
    -0.702324,
    -0.806483,
    -0.0357065,
    -0.0513855,
    0.14072,
    0.0586962,
    -0.353876,
    0.665924,
    0.401613,
    -0.412792,
    0.774531,
    0.235074,
    -0.0331524,
    -0.548546,
    0.267526,
    -0.464595,
    -0.397397,
    -0.728374,
    0.142996,
    0.860498,
    0.763773,
    -0.751206,
    0.187503,
    -0.841908,
    0.923992,
    0.35731,
    -0.475856,
    0.60632,
    0.255836,
    -0.879897,
    -0.0269466,
    0.307173,
    -0.326539,
    -0.278025,
    -0.136455,
    0.224788,
    0.717359,
    -0.929296,
    0.816487,
    -0.109943,
    -0.79977,
    -0.471349,
    0.286319,
    0.431452,
    -0.447133,
    0.143616,
    0.413199,
    0.472314,
    0.864068,
    -0.483584,
    -0.0329807,
    -0.103614,
    0.178419,
    0.186402,
    -0.0300764,
    0.45163,
    0.657612,
    -0.184535,
    0.259177,
    -0.0379693,
    0.510244,
    -0.137037,
    0.665027,
    -0.220468,
    -0.0702053,
    -0.0618476,
    -0.701434,
    0.186867,
    0.800661,
    0.619373,
    -0.377617,
    0.417416,
    0.850848,
    0.436985,
    0.866407,
    0.808212,
    -0.104401,
    0.26763,
    0.764373,
    -0.959467,
    0.189258,
    0.648949,
    -0.809295,
    -0.71794,
    0.779455,
    0.118449,
    -0.817214,
    -0.324028,
    0.00438663,
    -0.199504,
    0.97968,
    0.87214,
    -0.911423,
    0.635622,
    -0.598972,
    0.147154,
    0.258519,
    0.627148,
    -0.133018,
    -0.788655,
    0.0177563,
    -0.112614,
    0.200029,
    0.896084,
    -0.914844,
    0.0829121,
    -0.810261,
    0.109887,
    0.154301,
    0.48473,
    -0.649185,
    -0.315309,
    -0.966426,
    -0.391202,
    0.217698,
    -0.454184,
    -0.671617,
    -0.678714,
    9.74625e-05,
    -0.653923,
    -0.911258,
    0.634751,
    -0.837206,
    -0.256864,
    -0.112049,
    -0.00778897,
    0.455556,
    0.0718226,
    -0.272362,
    -0.750993,
    -0.569659,
    -0.803951,
    0.694315,
    0.5448,
    0.270224,
    -0.729398,
    0.134957,
    -0.70582,
    -0.845657,
    0.32447,
    0.715282,
    -1.00819,
    -0.412604,
    0.179731,
    -0.933538,
    -0.324769,
    -0.417753,
    0.853166,
    -0.75359,
    -1.14761,
    -0.102282,
    -0.765248,
    -0.130633,
    0.32767,
    -1.01521,
    0.7828,
    0.749067,
    0.388468,
    0.383173,
    -0.24229,
    0.0946395,
    -0.960865,
    -0.440702,
    0.166265,
    -0.353887,
    -0.705907,
    0.180628,
    -0.044448,
    -0.0872078,
    0.551728,
    -0.958442,
    -0.779154,
    0.162167,
    -0.325461,
    0.554866,
    0.579109,
    0.528067,
    0.253263,
    -0.281987,
    -0.315284,
    0.702479,
    -0.993296,
    0.272112,
    -0.111806,
    0.785216,
    -0.939041,
    0.175469,
    0.00955402,
    -0.127198,
    -0.114472,
    0.905576,
    1.0624,
    0.487137,
    0.667911,
    -0.491305,
    0.920159,
    0.837965,
    0.937149,
    0.160067,
    -0.744418,
    -0.254092,
    -0.0461426,
    0.0836988,
    -0.633817,
    0.202123,
    -0.603266,
    -0.065917,
    0.244886,
    -0.202638,
    -0.184927,
    -0.810636,
    -0.691351,
    0.651959,
    -0.179389,
    -0.103421,
    -0.0721462,
    -0.977757,
    0.367972,
    -0.207572,
    -0.313077,
    0.677176,
    -0.71777,
    -0.84295,
    0.506338,
    -0.194017,
    0.226327,
    0.677567,
    0.601029,
    0.653617,
    -0.651612,
    0.0768595,
    0.00110246,
    0.000468527,
    -0.146703,
    -0.527737,
    0.0190226,
    -0.948409,
    0.793906,
    0.729947,
    0.719816,
    0.136782,
    0.145386,
    -0.478646,
    0.863002,
    -0.124179,
    -0.00976617,
    -0.773468,
    -0.424936,
    -0.862843,
    0.729715,
    0.217992,
    -0.449521,
    -0.960603,
    0.25413,
    -0.53663,
    0.194029,
    0.305337,
    -0.376218,
    0.113886,
    -0.460141,
    -0.752695,
    0.78899,
    -0.62003,
    -0.474184,
    -0.861793,
    0.729818,
    0.140759,
    -0.141381,
    -1.04426,
    -0.302507,
    -1.0844,
    -0.293937,
    -1.7258,
    0.884724,
    -0.061405,
    0.353934,
    -0.819976,
    -1.11736,
    0.83146,
    -0.326912,
    0.172591,
    -0.322587,
    0.60354,
    0.523523,
    0.463846,
    -0.177944,
    0.0225276,
    -0.806245,
    0.651514,
    -0.408066,
    -0.158571,
    -0.497693,
    -0.427899,
    -0.192342,
    -0.510039,
    0.380254,
    0.696366,
    0.462964,
    -0.707519,
    -0.28045,
    -0.50016,
    -0.411647,
    -0.769225,
    -0.445219,
    -0.718302,
    0.117067,
    -0.87601,
    -0.0429955,
    -0.174938,
    0.403552,
    0.289093,
    0.325082,
    -0.695006,
    -0.42024,
    -0.521081,
    -0.657475,
    -0.63565,
    -0.0104852,
    1.01833,
    -0.390723,
    -0.900654,
    0.782079,
    0.928728,
    -0.0146487,
    0.378682,
    -0.623301,
    -0.849372,
    1.00807,
    0.344338,
    -0.991073,
    -0.397391,
    0.708719,
    -0.662148,
    -1.16381,
    0.116726,
    0.505458,
    -0.698457,
    0.882072,
    -0.922399,
    0.197778,
    0.408308,
    -1.03255,
    0.0641937,
    -0.242418,
    -0.503849,
    0.773149,
    0.47773,
    -0.52802,
    0.125251,
    -0.433621,
    -0.0414514,
    0.386698,
    1.04217,
    0.305392,
    0.81675,
    -0.704543,
    -0.262716,
    0.703495,
    -0.695416,
    0.344753,
    0.538741,
    0.710881,
    -0.0913347,
    -0.504275,
    1.05481,
    -0.69682,
    -0.461908,
    0.268474,
    0.484186,
    0.0752966,
    0.923912,
    0.398631,
    0.53443,
    0.197952,
    0.0149944,
    0.477283,
    0.410674,
    -0.522551,
    -1.50598,
    -0.930653,
    -0.468825,
    -0.7085,
    -0.339704,
    -0.113487,
    0.736506,
    -0.492109,
    -1.10212,
    -0.261658,
    -1.02153,
    -1.10846,
    -1.11133,
    -0.894118,
    -1.12141,
    -0.802794,
    0.100697,
    -1.03853,
    0.347546,
    0.514407,
    0.0153541,
    -0.330642,
    0.203397,
    0.0334565,
    0.521596,
    -0.986738,
    0.596396,
    -0.749021,
    -0.592579,
    -0.125915,
    -0.334141,
    0.566114,
    -0.375776,
    0.162776,
    -0.682979,
    0.0542694,
    0.454233,
    0.74595,
    0.167636,
    -0.612495,
    0.137981,
    -0.912288,
    -0.411245,
    0.712611,
    -0.378116,
    -0.807774,
    0.937747,
    -0.99109,
    0.334754,
    0.436596,
    1.01423,
    -0.413749,
    -0.51047,
    -0.81565,
    -0.668423,
    -0.0143306,
    -0.402318,
    -0.211157,
    0.758708,
    -0.751763,
    0.768594,
    0.0999731,
    -0.551715,
    0.663121,
    -0.795349,
    0.937219,
    0.566562,
    -0.912314,
    0.809804,
    1.01567,
    0.618274,
    0.855927,
    0.356752,
    -0.00798659,
    -1.04302,
    -0.272361,
    0.622649,
    -0.929756,
    0.280092,
    -1.02986,
    -0.342392,
    -0.42106,
    -0.0732626,
    -0.143478,
    -0.754592,
    0.804707,
    0.776169,
    0.144276,
    0.322359,
    -0.649324,
    0.319333,
    0.197568,
    -0.736376,
    -0.82865,
    0.97277,
    -0.956245,
    -0.0176264,
    -0.416056,
    0.489012,
    -0.199505,
    0.594423,
    -0.1762,
    0.0980794,
    -0.38107,
    -0.134637,
    -0.145731,
    0.712781,
    -0.317536,
    0.384008,
    -0.593288,
    -0.16891,
    0.907074,
    -0.638307,
    0.897317,
    -0.53634,
    0.554943,
    0.666229,
    -0.648385,
    0.43338,
    -0.4376,
    0.929853,
    -0.951477,
    -1.04181,
    -0.67761,
    0.0781239,
    0.117922,
    -0.595547,
    -0.575157,
    -0.125949,
    0.87435,
    0.620496,
    0.151004,
    0.191241,
    0.35646,
    0.928191,
    0.322402,
    0.925714,
    -0.479702,
    1.02875,
    -0.741757,
    0.332376,
    0.331883,
    0.408019,
    0.740665,
    -1.00627,
    0.130763,
    0.959406,
    0.891799,
    0.0992867,
    -0.63763,
    0.95054,
    -0.806644,
    0.529602,
    0.337716,
    -0.337531,
    0.939347,
    0.963868,
    0.538617,
    0.201406,
    -0.920576,
    0.761563,
    0.43864,
    -1.04252,
    -0.13716,
    -0.909278,
    -0.477876,
    -0.988372,
    0.785872,
    -0.055552,
    0.216167,
    -0.682033,
    0.414706,
    0.190266,
    -0.66918,
    -0.843636,
    0.343173,
    0.361948,
    -0.756803,
    0.696475,
    -0.333965,
    0.256699,
    -0.154073,
    -0.734827,
    -0.826331,
    0.477716,
    0.910001,
    -0.0319949,
    -1.03097,
    -0.598144,
    0.503129,
    0.0167059,
    -0.0127747,
    0.242809,
    -0.495618,
    -0.0529406,
    -0.312385,
    -0.00980954,
    0.773813,
    -0.167289,
    0.508344,
    -0.637899,
    -0.601173,
    -0.212295,
    -0.663312,
    0.855068,
    0.171885,
    0.0617799,
    0.387516,
    -0.506876,
    -0.129497
  ],
  "inputBiasWeights": [
    0.568403,
    0.427157,
    0.0560267,
    -0.286261,
    0.294127,
    0.663832,
    -0.0592668,
    0.802746,
    0.75506,
    0.0453524,
    -0.436852,
    0.591994,
    0.978609,
    -0.641743,
    0.0438881,
    -0.138496,
    0.598049,
    0.506913,
    0.830333,
    -0.726785,
    0.483943,
    0.0958766,
    0.533377,
    0.368815,
    0.0349425,
    -0.443243,
    0.984377,
    -0.5533,
    -0.53992,
    0.393818,
    0.280555,
    0.733348,
    -0.085851,
    -0.851873,
    0.22463,
    -0.0378235,
    -0.100644,
    -0.496217,
    0.228837,
    -0.324876,
    -0.618603,
    0.789732,
    0.0501746,
    0.241028,
    -0.468429,
    -0.538079,
    0.430026,
    0.420784,
    0.642444,
    0.860079,
    0.893759,
    0.0959074,
    0.865277,
    -0.591246,
    -0.0789085,
    0.0687231,
    0.3031,
    -0.213642,
    0.36348,
    -0.247903,
    -0.10023,
    0.326734,
    -0.0328025,
    0.785704,
    0.667237,
    -0.0197362,
    -0.904192,
    1.07292,
    0.420991,
    -0.19018,
    -0.181242,
    0.644319,
    -0.461249,
    -0.551316,
    0.529587,
    0.430448,
    -0.554325,
    -0.160839,
    1.18874,
    0.588682,
    0.402252,
    -0.591489,
    0.982152,
    -0.720205,
    0.383078,
    -0.306852,
    0.303286,
    -0.0351808,
    0.720543,
    0.288209,
    0.0212312,
    -0.0442198,
    0.453202,
    0.568591,
    0.830002,
    0.876953,
    0.960267,
    -0.132332,
    -0.28058,
    0.458685,
    -0.780813,
    -0.143324,
    -0.405097,
    -0.745808,
    0.278842,
    -0.776073,
    -0.515662,
    -0.497871,
    1.0814,
    0.485409,
    0.355419,
    0.13523,
    -0.145961,
    0.854193,
    -0.296222,
    0.349719,
    -0.735581,
    0.95608,
    -0.674644,
    -0.103338,
    -0.658734,
    -0.480885,
    -0.219303,
    0.379768,
    -0.606074,
    0.477452,
    0.911,
    -0.775767,
    0.531018,
    -0.0158762,
    -0.355928,
    -0.226743
  ],
  "inputNodes": 17,
  "inputWeights": [
    -0.24077,
    -0.347998,
    -1.07549,
    -0.0379484,
    -0.476839,
    -0.912586,
    -0.584495,
    -1.07978,
    0.78957,
    -0.593729,
    -0.604714,
    -1.31583,
    0.0930686,
    -0.61883,
    -1.09493,
    -0.470604,
    -0.380778,
    -0.0553552,
    0.155276,
    -0.550542,
    -0.259302,
    0.148791,
    -0.109114,
    0.601332,
    -0.924285,
    -0.545445,
    -0.333758,
    0.562642,
    0.34379,
    0.286547,
    0.526544,
    -0.733369,
    -0.208441,
    -0.671297,
    0.127866,
    0.641663,
    -0.156966,
    -0.0400418,
    0.621561,
    -0.325136,
    -0.283676,
    0.0516758,
    -0.684608,
    -1.01946,
    -0.151631,
    0.0604279,
    -0.473364,
    -0.838803,
    0.321609,
    0.446496,
    -0.616812,
    0.307592,
    -0.406039,
    0.676642,
    -0.705974,
    -0.707142,
    -0.704896,
    0.622588,
    -1.05658,
    -0.710324,
    -0.494721,
    -0.484822,
    -0.709338,
    -1.16072,
    -0.420284,
    -0.695381,
    -0.964606,
    0.286262,
    0.972367,
    0.565556,
    -0.422753,
    -0.02191,
    0.212638,
    -0.0122176,
    0.801166,
    -0.089093,
    -0.42991,
    -0.790269,
    0.362867,
    0.38087,
    0.646031,
    -0.942911,
    -0.40435,
    -0.926679,
    -0.40173,
    0.603332,
    -1.22412,
    -0.515775,
    0.320997,
    0.222663,
    0.494331,
    -0.121401,
    0.831256,
    -0.156788,
    -0.98984,
    0.137941,
    1.11878,
    -0.346671,
    -0.976133,
    0.592106,
    0.105808,
    -0.697212,
    -0.787869,
    -0.0453683,
    0.184441,
    0.41949,
    -0.885551,
    -0.572165,
    -0.14109,
    0.451968,
    -0.942358,
    -1.11299,
    0.65934,
    0.176398,
    0.123728,
    0.316419,
    -0.416469,
    -0.630513,
    -0.446279,
    0.189966,
    -0.964037,
    0.557335,
    -1.11666,
    0.0222161,
    -0.788291,
    -0.836329,
    0.668795,
    -0.213681,
    0.583285,
    -0.191787,
    0.2424,
    0.0520383,
    -0.951353,
    0.585043,
    -0.887886,
    -0.908527,
    -0.391016,
    -0.287029,
    0.965008,
    0.45823,
    -0.65871,
    -0.551613,
    0.150126,
    -0.498469,
    0.364126,
    0.250679,
    -0.206972,
    -0.532796,
    0.0073719,
    0.994149,
    -0.619081,
    0.614623,
    0.331563,
    -0.36535,
    -0.738835,
    0.558535,
    0.25793,
    0.300658,
    0.830455,
    -0.217387,
    0.750477,
    -0.213552,
    0.94088,
    -0.590445,
    -0.242621,
    -0.0310934,
    0.574266,
    0.871802,
    -0.617677,
    -0.866774,
    0.718559,
    0.0236263,
    0.966913,
    0.302683,
    0.926724,
    -0.114138,
    0.916831,
    0.644673,
    0.0206456,
    -0.27162,
    0.375636,
    -0.289961,
    -0.00339389,
    0.496261,
    -0.827639,
    0.758606,
    0.104823,
    -0.702759,
    -0.0387399,
    -0.985709,
    0.386406,
    -0.619537,
    -0.308001,
    0.234511,
    -0.785111,
    0.393986,
    0.373401,
    -0.259027,
    -0.420704,
    0.488277,
    0.783386,
    -0.659842,
    -0.299839,
    -0.637272,
    0.612348,
    0.0450699,
    0.719569,
    -0.393651,
    -0.64898,
    0.207574,
    0.524035,
    0.278374,
    0.875337,
    0.392144,
    0.527145,
    0.0342398,
    0.710789,
    -0.122124,
    -0.280567,
    0.149327,
    0.840758,
    0.980311,
    -0.123374,
    0.915723,
    -0.87011,
    0.948446,
    0.510434,
    0.639613,
    -0.400898,
    -0.38529,
    -0.170455,
    0.81393,
    -0.403175,
    -0.357211,
    -0.0269418,
    0.843605,
    0.76535,
    -0.624634,
    0.397853,
    -0.765769,
    0.883994,
    0.748662,
    -0.602172,
    0.595346,
    0.151373,
    -0.650163,
    0.489535,
    -0.706296,
    0.542084,
    -0.843076,
    -0.825272,
    0.0611916,
    -0.476755,
    0.996576,
    0.56733,
    -0.575492,
    -0.801118,
    -0.00931692,
    0.254726,
    -0.13567,
    0.19108,
    -0.836294,
    -0.399388,
    0.448698,
    -0.0695862,
    -0.274783,
    -0.640701,
    0.700651,
    -1.08604,
    0.499506,
    -0.869371,
    0.667429,
    0.119455,
    0.418008,
    -1.07438,
    0.0928501,
    0.299239,
    0.204375,
    0.112495,
    0.137667,
    0.852081,
    -0.12839,
    -1.16013,
    0.150054,
    -0.344008,
    0.0735856,
    -0.617286,
    -0.0584785,
    0.59894,
    -0.172261,
    -0.616588,
    -0.778107,
    -1.01199,
    0.308278,
    0.105929,
    -0.391797,
    0.725663,
    0.172466,
    -0.547958,
    -1.39427,
    -0.445552,
    -0.807276,
    0.464526,
    -0.659804,
    0.191379,
    -0.355981,
    -0.386617,
    -0.412956,
    -0.94233,
    0.111038,
    -0.957253,
    -0.68249,
    0.767401,
    -0.924179,
    0.61256,
    -0.456004,
    -0.425498,
    -0.965533,
    -0.45434,
    0.095013,
    -0.411972,
    -0.317622,
    -0.81124,
    0.266275,
    -0.897982,
    -0.529895,
    0.650982,
    -0.628878,
    -0.737929,
    -0.723978,
    -1.08329,
    -0.253669,
    -0.687521,
    0.228641,
    -0.47924,
    0.164182,
    -0.0850629,
    0.154324,
    -0.355773,
    -0.780248,
    0.622814,
    -1.30876,
    -0.00360047,
    0.421498,
    -0.208058,
    -0.795204,
    -0.477726,
    -0.518304,
    -0.452937,
    0.129196,
    0.253571,
    -0.126242,
    -0.466902,
    0.187616,
    -0.135416,
    -0.130625,
    -0.412305,
    -0.512359,
    0.366114,
    -0.728838,
    -0.0758096,
    0.544307,
    0.360606,
    0.555469,
    -0.825007,
    -0.757305,
    -0.567007,
    -0.646142,
    -0.62296,
    0.295939,
    0.419284,
    0.561057,
    0.492198,
    -1.06964,
    0.137663,
    -0.634851,
    0.738217,
    -0.971161,
    -0.669282,
    0.475993,
    -1.03356,
    0.57832,
    -0.995006,
    0.509609,
    -0.846459,
    -0.284297,
    -0.0206316,
    -0.322709,
    0.431358,
    0.297561,
    -0.738289,
    -0.108133,
    -0.862403,
    0.149931,
    -0.823912,
    -0.0599655,
    -0.893467,
    -0.0947559,
    0.583344,
    0.93793,
    -0.220862,
    -0.0889409,
    -0.973482,
    -0.574265,
    0.647866,
    -0.547829,
    0.790472,
    -0.650307,
    -0.751236,
    -0.852334,
    -0.266012,
    0.517778,
    -0.153892,
    -0.389431,
    0.771299,
    -0.363896,
    -0.246337,
    -0.348603,
    0.544094,
    0.0184233,
    -0.128791,
    0.532639,
    0.843726,
    0.00115943,
    0.535839,
    -0.917972,
    -0.54839,
    0.450543,
    -0.199263,
    -0.406904,
    -0.598546,
    -0.173716,
    0.191944,
    -0.601022,
    0.373114,
    0.710548,
    0.811297,
    -0.185711,
    0.477043,
    -0.955167,
    -0.231612,
    -0.28095,
    0.497295,
    -0.72898,
    -0.317052,
    0.302401,
    0.187288,
    -0.873488,
    -0.854634,
    -0.281078,
    0.990053,
    -0.691306,
    0.0492299,
    -0.41768,
    0.604302,
    -0.10724,
    -0.40167,
    -0.369856,
    -0.864488,
    0.830108,
    -0.34806,
    -0.139648,
    0.307089,
    -0.476408,
    0.434814,
    -0.351384,
    0.921316,
    -0.403273,
    0.612074,
    0.615473,
    0.280862,
    0.0163321,
    0.00271201,
    0.854166,
    0.295668,
    0.685246,
    -0.0739541,
    -0.997265,
    -0.495849,
    -0.404598,
    0.00951767,
    0.635563,
    0.6393,
    -0.722093,
    0.520241,
    -0.151876,
    -0.493978,
    0.368099,
    -0.118556,
    0.251728,
    -0.669595,
    0.537369,
    -0.447367,
    0.355805,
    -0.0952797,
    -0.640876,
    -0.056788,
    0.291531,
    0.126846,
    0.797895,
    0.579195,
    0.355629,
    0.297898,
    -0.313285,
    -0.282249,
    0.695354,
    0.29942,
    0.0292895,
    -0.913704,
    0.895233,
    -0.498412,
    0.874799,
    0.0867777,
    0.428572,
    0.565555,
    -0.517449,
    0.858135,
    -0.728428,
    0.476459,
    0.731935,
    -0.351787,
    0.105896,
    0.7803,
    -0.92471,
    -0.512095,
    -0.505187,
    -0.624582,
    -0.400591,
    -0.717033,
    0.424258,
    0.796911,
    0.423501,
    0.935532,
    0.77951,
    -0.208878,
    0.461496,
    0.33267,
    0.333966,
    0.467042,
    0.87073,
    0.706852,
    -0.400492,
    0.996506,
    0.292149,
    -0.58694,
    0.507989,
    -0.0208149,
    0.490572,
    -0.274147,
    -0.505223,
    -0.579741,
    0.614971,
    -0.232935,
    -0.911867,
    -0.354605,
    0.26431,
    0.0978842,
    -0.911826,
    -0.052495,
    0.722384,
    0.625344,
    0.396724,
    -0.123528,
    0.00241137,
    -0.139963,
    0.637385,
    -0.644778,
    0.744416,
    -0.870064,
    0.654988,
    0.715787,
    0.70091,
    0.308798,
    -0.272361,
    0.287867,
    -0.0725615,
    -0.356581,
    -0.59491,
    -0.862695,
    0.30381,
    -0.831096,
    0.775704,
    0.536516,
    0.123519,
    -0.118804,
    -0.58799,
    -0.618558,
    -0.87603,
    0.513896,
    -0.0450349,
    0.14823,
    -0.68873,
    0.115052,
    -0.812809,
    0.530859,
    -0.787776,
    0.402528,
    -0.748026,
    0.985547,
    -0.395181,
    -0.0270236,
    -0.265849,
    -0.169121,
    -0.0316293,
    -0.530767,
    -0.758554,
    0.775002,
    0.9991,
    -0.409696,
    0.129456,
    0.596975,
    0.715761,
    -0.579396,
    -0.635586,
    0.599957,
    0.327979,
    -0.685972,
    -0.61687,
    0.515498,
    0.825974,
    0.835645,
    0.651649,
    -0.0159378,
    -0.000324011,
    0.356561,
    -0.461697,
    0.455412,
    -0.122322,
    0.0185935,
    0.837763,
    0.486125,
    -0.73535,
    -0.415649,
    0.027905,
    -0.614586,
    0.441232,
    0.614638,
    -0.281629,
    -0.795479,
    0.928278,
    -0.344293,
    -0.564614,
    -0.230871,
    -0.480467,
    -0.367998,
    -0.632399,
    -0.36708,
    -0.898977,
    -0.866358,
    0.201318,
    -0.839598,
    0.435211,
    0.765237,
    0.00817275,
    0.948149,
    0.0908127,
    -0.841172,
    0.995734,
    -0.404876,
    -0.283211,
    -0.780005,
    -0.466929,
    0.0777872,
    0.0437784,
    -0.471418,
    -0.783326,
    -1.14231,
    -0.457648,
    -0.114971,
    0.330729,
    -0.521701,
    -0.699937,
    0.272802,
    0.157498,
    0.0467829,
    -1.88996,
    -0.434681,
    -0.735579,
    -1.2584,
    0.725794,
    0.451412,
    -0.566804,
    0.450021,
    -0.626535,
    1.04939,
    -0.55634,
    -0.499425,
    -0.60219,
    0.791318,
    -0.872334,
    0.11897,
    -0.223112,
    -1.82668,
    -0.476979,
    -1.11386,
    -0.482136,
    0.141654,
    -0.905214,
    -0.198023,
    0.340919,
    -0.997294,
    -0.181802,
    0.372544,
    -0.451115,
    -0.975421,
    0.230759,
    -0.0350795,
    0.706297,
    -0.496318,
    0.726689,
    0.952006,
    -0.93185,
    -0.462827,
    -0.364433,
    -0.727986,
    0.0154714,
    0.213448,
    0.452936,
    0.0492106,
    0.53805,
    -0.625104,
    -0.0420741,
    -1.16296,
    0.134439,
    0.122682,
    -0.301866,
    -1.32068,
    0.329377,
    0.604695,
    0.624651,
    -0.662685,
    0.981377,
    0.35697,
    -1.13603,
    -0.0389569,
    0.217976,
    1.02621,
    -0.40132,
    1.1134,
    -0.364183,
    -0.855426,
    0.0229224,
    -1.30478,
    -0.429732,
    -0.476353,
    0.832937,
    0.675992,
    -0.682064,
    -0.659804,
    -0.382837,
    -0.147493,
    0.957175,
    -0.461171,
    0.722545,
    -0.394785,
    0.837564,
    0.967659,
    0.202278,
    0.453224,
    0.229707,
    -0.349906,
    -0.919615,
    -0.779915,
    0.0731222,
    -1.48759,
    0.393939,
    -1.24056,
    -0.674141,
    1.18652,
    -0.732077,
    -0.414352,
    0.663021,
    -0.203256,
    -0.509167,
    0.280832,
    -1.47198,
    -0.937264,
    0.805179,
    -0.659184,
    -0.205645,
    -1.57241,
    0.41381,
    -0.156748,
    1.25305,
    -1.49063,
    -0.111843,
    -0.466205,
    -0.588709,
    -0.160779,
    0.160474,
    -1.27247,
    0.585254,
    0.0870439,
    -0.550492,
    -0.983855,
    0.111041,
    -0.927897,
    -0.763284,
    0.364867,
    -0.208855,
    -0.673351,
    -0.184963,
    -0.832105,
    -0.188703,
    -0.442136,
    -0.258089,
    -0.104684,
    -1.25783,
    -1.01154,
    -0.0144082,
    0.650407,
    0.112147,
    -0.636342,
    -1.15252,
    0.500493,
    -0.166575,
    0.592653,
    -1.23235,
    0.924698,
    -0.930341,
    0.210405,
    -0.952659,
    -0.222344,
    -0.5166,
    -1.07673,
    0.00880871,
    0.721161,
    0.0754237,
    -0.949402,
    -0.826957,
    0.362899,
    -1.23788,
    -0.644357,
    0.461422,
    0.662354,
    0.738147,
    0.753703,
    -0.392737,
    0.0264559,
    0.0713192,
    -0.0674775,
    -0.230962,
    0.193459,
    -0.30464,
    0.403858,
    -1.05303,
    -0.0146208,
    0.197278,
    -1.04935,
    -0.888582,
    -0.112681,
    -0.0201646,
    -1.12018,
    -0.259168,
    -0.874333,
    0.533949,
    -0.899534,
    -0.18346,
    -0.442442,
    0.734244,
    -0.78197,
    0.81967,
    0.0611393,
    0.594488,
    -0.225112,
    -0.531338,
    0.00558222,
    -0.613719,
    -0.383728,
    -0.745917,
    0.108661,
    0.0615737,
    -0.746845,
    -0.225024,
    0.0420749,
    -0.0944919,
    -1.37506,
    -1.20129,
    0.173651,
    -0.97172,
    0.00558928,
    -1.08164,
    -0.313271,
    0.605179,
    -0.166131,
    0.174587,
    0.819774,
    -0.791539,
    -0.211734,
    -0.0892091,
    -0.213459,
    -1.00096,
    -0.978017,
    -0.284139,
    -1.08952,
    -1.46536,
    -0.724144,
    -0.701764,
    0.0853633,
    -0.908385,
    0.271139,
    0.372673,
    -0.0457208,
    -0.513533,
    -0.58513,
    0.320554,
    -0.771498,
    -1.20459,
    -0.241065,
    0.432533,
    -0.476106,
    -0.187142,
    -0.538781,
    -1.12478,
    -1.03104,
    0.673893,
    -0.968462,
    0.142324,
    -0.844565,
    -0.950552,
    -1.08629,
    0.871787,
    -0.334906,
    -1.00504,
    -0.789948,
    0.761279,
    -0.382202,
    0.636667,
    -0.944636,
    0.553596,
    0.512711,
    -0.299902,
    0.264311,
    0.666455,
    0.63298,
    0.867191,
    -0.576708,
    0.394704,
    -0.40542,
    0.236618,
    -0.851907,
    0.0541061,
    -0.318307,
    -0.357191,
    -0.613387,
    0.0156709,
    0.861645,
    -0.170269,
    -0.57951,
    0.668227,
    -0.91057,
    0.364679,
    0.032381,
    -0.787496,
    -0.0065568,
    -0.796063,
    0.658973,
    0.104863,
    0.518954,
    0.892204,
    0.144048,
    -0.147688,
    0.596625,
    0.232518,
    0.553865,
    -0.748437,
    -0.648442,
    0.386126,
    0.00105592,
    0.654387,
    -1.00006,
    -0.215633,
    0.866418,
    -0.680342,
    0.853264,
    0.776615,
    0.800019,
    -0.111123,
    0.262443,
    0.80557,
    0.318232,
    0.398808,
    -0.482595,
    -0.0371439,
    -0.780829,
    -0.3211,
    -0.416336,
    -0.364672,
    0.900102,
    0.35751,
    -0.318401,
    0.813248,
    -0.474043,
    0.707931,
    -0.0206061,
    -0.412074,
    -0.506448,
    0.72824,
    -0.703148,
    -0.898062,
    -0.477371,
    0.662759,
    0.550575,
    -0.8982,
    -0.197321,
    -0.0979229,
    -0.768184,
    -0.0679503,
    -0.904798,
    -0.291473,
    0.0957601,
    -0.3475,
    -0.308651,
    0.279902,
    0.605828,
    -0.801246,
    -0.0226614,
    -0.872517,
    0.781055,
    0.153941,
    0.73664,
    -0.646359,
    0.911358,
    0.452606,
    0.267114,
    0.216803,
    -0.183954,
    0.174078,
    0.56359,
    -0.184174,
    -0.697417,
    -0.69399,
    -0.82165,
    0.608058,
    -0.506172,
    0.675734,
    -0.290236,
    0.00706791,
    0.599067,
    0.306959,
    -0.462084,
    0.779546,
    0.283202,
    0.586593,
    0.649865,
    -0.176053,
    -0.965212,
    0.0864367,
    -0.929888,
    -0.908881,
    -0.360245,
    0.467169,
    -0.0366463,
    -0.148787,
    0.264758,
    0.0526232,
    -0.485492,
    0.373984,
    0.762371,
    -0.324257,
    1.06272,
    0.164551,
    -0.265603,
    -0.258503,
    -1.06296,
    -0.454231,
    -0.496947,
    0.257401,
    0.195908,
    0.274872,
    -0.931664,
    0.940347,
    -0.604732,
    -1.04881,
    0.444087,
    -0.0229396,
    -0.181552,
    -0.222453,
    -0.575091,
    -0.454617,
    0.529665,
    0.370411,
    -0.0926325,
    -0.725718,
    0.0493209,
    -1.01559,
    0.281576,
    -0.135707,
    0.511084,
    -0.717382,
    0.516123,
    0.327449,
    -0.20517,
    -0.559908,
    -1.05031,
    -0.0622743,
    -0.360225,
    0.421459,
    -0.306757,
    -0.597176,
    0.00933634,
    -0.632717,
    0.635727,
    -0.7706,
    0.0119282,
    -0.342915,
    -0.718248,
    -0.475104,
    0.304725,
    -0.281556,
    0.491684,
    -0.930803,
    -0.635185,
    -0.978182,
    0.643189,
    -0.87703,
    0.644158,
    -0.841745,
    0.517361,
    0.943718,
    0.518749,
    -0.858158,
    0.60565,
    -0.512315,
    -0.593301,
    -1.23095,
    -0.659723,
    -1.55972,
    -1.07236,
    -0.205728,
    0.346504,
    -0.508921,
    -1.05894,
    0.0654209,
    -0.677473,
    -1.15451,
    0.562186,
    -0.373061,
    0.73949,
    -1.04313,
    0.764277,
    -0.489307,
    -0.633232,
    -0.0766402,
    -0.53686,
    0.422704,
    -1.34533,
    -0.911499,
    -1.05084,
    -0.186709,
    0.0252546,
    -0.278509,
    -0.970576,
    -0.00599468,
    -0.891233,
    0.434713,
    -0.612162,
    -0.100994,
    0.1189,
    -0.115258,
    0.528564,
    -0.835442,
    -0.406758,
    0.222115,
    -1.5001,
    -0.521522,
    0.153944,
    -0.307763,
    -0.428395,
    -0.674012,
    0.00165639,
    0.248945,
    -0.0902638,
    -1.25761,
    0.777153,
    0.352387,
    0.789344,
    0.428426,
    -0.395932,
    -0.115138,
    0.165742,
    -0.0012806,
    0.462679,
    -0.86056,
    0.174705,
    0.315296,
    0.820865,
    -0.85927,
    -0.472047,
    -0.17364,
    -0.381705,
    -0.120816,
    0.11002,
    -0.206734,
    0.57016,
    -0.119737,
    0.831574,
    -0.799067,
    0.291527,
    0.167764,
    -0.357327,
    0.515152,
    -0.6621,
    0.182941,
    -0.742977,
    0.663404,
    0.393109,
    0.0811371,
    -0.365457,
    0.347409,
    0.645005,
    -1.03477,
    -0.578238,
    -0.649022,
    -0.627446,
    -0.231504,
    -0.304381,
    0.201181,
    0.0167911,
    0.046887,
    -0.655016,
    -0.950507,
    -0.240868,
    0.482448,
    -0.111954,
    0.290409,
    0.617397,
    -0.141874,
    -0.753544,
    -1.23896,
    0.340155,
    0.104274,
    0.482803,
    -0.190434,
    0.596123,
    -0.0204901,
    -0.810818,
    -0.234453,
    -0.720795,
    -0.124803,
    -0.270579,
    -0.278598,
    -0.154637,
    -0.232174,
    0.191,
    -0.0483427,
    0.316894,
    0.167097,
    0.577599,
    -0.665465,
    -0.512286,
    -0.95396,
    0.738695,
    0.00402301,
    0.854818,
    -0.419709,
    -0.678211,
    -0.108548,
    -0.869825,
    0.252982,
    -0.400069,
    -0.932185,
    -0.368907,
    -0.387834,
    0.234775,
    0.623117,
    0.471807,
    -0.536071,
    -0.867564,
    -0.683532,
    0.764263,
    -0.334837,
    0.36351,
    0.529833,
    -0.587509,
    0.08307,
    -0.831716,
    -1.11818,
    0.50107,
    -0.74913,
    0.380122,
    0.172191,
    -0.688822,
    0.133013,
    0.770838,
    -0.649113,
    -0.613104,
    0.183327,
    -0.668754,
    0.424157,
    0.39325,
    0.0400837,
    0.272718,
    0.623132,
    -0.129143,
    -0.960979,
    0.735274,
    -0.952491,
    -0.663018,
    -0.668002,
    -0.0651154,
    0.34019,
    -1.23997,
    -0.197995,
    -0.00947696,
    0.382097,
    0.0143127,
    0.359943,
    0.696691,
    0.421541,
    -0.225785,
    -0.300384,
    -0.133243,
    -0.890645,
    0.113416,
    0.309619,
    -0.210855,
    -0.157831,
    -0.695841,
    0.390305,
    0.49847,
    0.242847,
    0.407411,
    0.63777,
    -0.186684,
    0.578915,
    -0.595716,
    0.590377,
    -0.0447757,
    0.0633996,
    0.600141,
    0.553592,
    0.934783,
    -0.712626,
    -0.944703,
    -0.40512,
    -0.431611,
    0.365313,
    -0.108447,
    -0.365007,
    -0.250911,
    -0.434474,
    0.441633,
    0.247706,
    0.239047,
    -0.896034,
    -0.246233,
    0.436917,
    -0.00268602,
    0.0116038,
    0.622818,
    0.564571,
    0.666116,
    -0.867703,
    0.119427,
    0.726034,
    -0.251062,
    0.640023,
    -0.466495,
    -0.151525,
    0.63002,
    -0.359379,
    -0.935129,
    -0.072932,
    -0.301515,
    -0.434658,
    -0.188764,
    -0.767157,
    -0.566059,
    0.6705,
    0.787451,
    0.580534,
    0.165245,
    -0.853459,
    -0.855834,
    0.944977,
    -0.318362,
    0.987853,
    0.914256,
    0.982613,
    0.124836,
    -0.417009,
    -0.524753,
    0.495924,
    0.549752,
    0.792245,
    -0.154572,
    0.743862,
    -0.247844,
    -0.678163,
    0.738272,
    -0.519107,
    0.468442,
    0.923916,
    0.810888,
    0.482328,
    -0.393223,
    -0.633136,
    0.751363,
    0.734644,
    -0.443384,
    0.0394707,
    -0.806901,
    -0.719366,
    -0.759426,
    -0.709553,
    -0.485883,
    0.69581,
    0.266471,
    -0.107374,
    -0.491243,
    -0.100411,
    -0.481167,
    -0.254839,
    -0.709775,
    -0.962818,
    -0.32859,
    0.808018,
    -0.682655,
    0.939697,
    0.996521,
    -0.499165,
    -0.396155,
    0.130249,
    -0.785392,
    -0.485245,
    -0.776967,
    -0.0295086,
    0.10997,
    0.550653,
    -0.277555,
    0.489759,
    0.730193,
    -0.139032,
    0.758881,
    0.290787,
    -0.819951,
    0.867849,
    -0.855903,
    -0.164624,
    0.660407,
    0.261156,
    -0.244786,
    -0.488357,
    0.731743,
    0.31978,
    -0.409959,
    -0.703577,
    -0.174768,
    0.304682,
    0.696533,
    0.848943,
    0.0238564,
    0.497898,
    0.462183,
    0.995059,
    0.283837,
    0.49229,
    -0.410814,
    0.424345,
    0.314137,
    0.171171,
    0.0935795,
    -0.753066,
    0.373825,
    0.20462,
    -0.625908,
    -0.041503,
    -0.919183,
    0.234465,
    0.622462,
    0.761031,
    -0.981327,
    -0.393184,
    0.758607,
    0.175875,
    -0.105975,
    -0.12978,
    -0.0846975,
    -0.414556,
    0.272073,
    0.345136,
    -0.508631,
    0.927326,
    0.936209,
    -0.102239,
    -0.485238,
    0.741949,
    0.471764,
    -0.0952775,
    -0.206892,
    -0.917292,
    -0.62432,
    0.591925,
    0.886759,
    0.318771,
    0.901138,
    -0.00807929,
    -0.301467,
    -0.109429,
    -0.139293,
    -0.421923,
    -0.903636,
    0.120879,
    0.276878,
    -0.511791,
    0.647358,
    0.0855865,
    -0.387999,
    -0.131087,
    0.329184,
    -0.0843952,
    0.437625,
    -0.376373,
    0.630625,
    0.167969,
    -0.696395,
    -0.290289,
    0.411636,
    -0.681745,
    0.929765,
    -0.0232739,
    -0.88556,
    0.379438,
    -0.505184,
    0.0835681,
    0.926719,
    -0.846995,
    -0.183602,
    -0.225771,
    0.892643,
    0.07602,
    0.709601,
    0.516757,
    -0.314768,
    0.47871,
    0.346455,
    0.445533,
    0.170855,
    0.318709,
    -0.759214,
    0.727538,
    -0.104121,
    -0.886709,
    0.161471,
    -0.698306,
    0.812138,
    -0.811124,
    0.786965,
    -0.704901,
    -0.831604,
    -0.175975,
    0.622345,
    -0.986566,
    0.852179,
    -0.884292,
    -0.741158,
    0.588232,
    -0.861858,
    -0.0385966,
    0.77231,
    0.957147,
    0.759859,
    0.227777,
    0.960426,
    0.462118,
    0.516915,
    0.56501,
    0.0983813,
    0.865127,
    -0.302329,
    0.783743,
    0.0510969,
    -0.14914,
    -0.920196,
    0.256659,
    -0.647881,
    0.53623,
    0.815312,
    0.783755,
    -0.140945,
    -0.152743,
    -0.804308,
    -0.2473,
    0.181589,
    0.0193064,
    -0.342853,
    0.662585,
    0.827523,
    -0.26864,
    0.0943615,
    0.266939,
    0.355787,
    0.897022,
    0.974288,
    -0.578008,
    0.524557,
    0.788333,
    -0.8735,
    0.00531578,
    0.10586,
    0.82751,
    0.592104,
    0.348841,
    0.36376,
    -0.740089,
    0.0326498,
    0.725288,
    0.0620739,
    -0.983996,
    -0.0808585,
    0.464766,
    0.490829,
    0.990114,
    0.926832,
    0.570875,
    -0.0612583,
    0.478951,
    0.628112,
    0.186326,
    -0.167089,
    0.633945,
    0.684779,
    0.217311,
    0.000583172,
    0.207273,
    0.224705,
    -0.990406,
    0.774277,
    0.777284,
    -0.173359,
    0.548855,
    -0.083292,
    0.703197,
    -0.35773,
    -0.917523,
    0.796339,
    -0.281269,
    -0.336655,
    -0.556913,
    0.0582044,
    0.913439,
    -0.640021,
    0.377675,
    0.514145,
    -0.890255,
    -0.577008,
    -0.99546,
    0.298279,
    0.461241,
    -0.696512,
    -0.599146,
    -0.924743,
    -0.192234,
    0.199444,
    -0.63293,
    0.960364,
    0.676441,
    0.700437,
    0.464477,
    -0.366734,
    0.514156,
    -0.0981133,
    -0.719042,
    -0.720777,
    0.0686741,
    0.146612,
    0.0091393,
    -0.656218,
    0.295083,
    0.212076,
    -0.110693,
    0.200367,
    0.0611255,
    0.845699,
    0.861017,
    0.692161,
    -0.690983,
    -0.790365,
    0.462716,
    0.338713,
    -0.397719,
    -0.639188,
    -0.341478,
    -0.34842,
    -0.789384,
    -0.882259,
    -0.573867,
    0.13606,
    -0.186629,
    0.668272,
    0.0152893,
    -0.967466,
    0.0381453,
    0.926878,
    0.855497,
    0.752085,
    -0.549648,
    -0.692584,
    -0.279482,
    -0.439076,
    -0.473145,
    -0.667308,
    -0.486186,
    -0.411461,
    0.181234,
    0.877085,
    -0.574297,
    0.985279,
    -0.776809,
    0.38241,
    0.309903,
    0.133342,
    0.926018,
    0.660957,
    -0.983176,
    0.103256,
    -0.616072,
    0.449252,
    0.746798,
    0.0525522,
    -0.530665,
    -0.0763314,
    0.970209,
    0.581866,
    0.238086,
    -0.963675,
    -0.0798972,
    0.676339,
    -0.14302,
    0.795087,
    -0.408552,
    0.126927,
    0.753589,
    -0.749201,
    0.485573,
    0.0718813,
    -0.190449,
    -0.99548,
    0.906948,
    0.543443,
    0.491442,
    0.677932,
    -0.878701,
    0.675112,
    -0.981541,
    0.382296,
    -0.785195,
    -0.282192,
    -0.23328,
    0.644453,
    0.0679343,
    0.202307,
    0.516942,
    -0.347222,
    -0.852266,
    0.0691288,
    -0.0481148,
    -0.734622,
    -0.368026,
    0.690197,
    -0.416006,
    -0.588709,
    0.265599,
    0.804673,
    0.630548,
    -0.485986,
    0.910329,
    -0.0848074,
    -0.310589,
    -0.963031,
    -0.216452,
    0.597461,
    -0.539187,
    0.279222,
    -0.395591,
    -0.257837,
    0.398664,
    0.0898745,
    0.701419,
    0.343833,
    0.0845344,
    0.0421336,
    -0.548281,
    0.0766878,
    -0.859195,
    -0.0382323,
    0.287582,
    -0.579266,
    0.447515,
    -0.563364,
    -0.0038507,
    0.818968,
    -0.307557,
    0.0907831,
    -0.761372,
    -0.693227,
    -0.508215,
    0.218261,
    0.866579,
    0.190726,
    -0.419718,
    -0.0593605,
    -0.512102,
    -0.346478,
    0.0374787,
    0.750796,
    0.52221,
    -0.328161,
    -0.110739,
    -0.212322,
    0.702775,
    -0.229671,
    0.99597,
    0.346678,
    -0.915677,
    -0.432345,
    0.76545,
    0.161882,
    -0.427152,
    -0.464378,
    -0.59535,
    -0.101648,
    -0.450284,
    -0.416873,
    0.668768,
    0.837165,
    -0.236594,
    0.175447,
    0.504267,
    0.820719,
    -0.275004,
    0.784211,
    -0.0746336,
    -0.316103,
    -0.365242,
    0.107119,
    0.469084,
    0.351204,
    0.436579,
    -0.710912,
    0.673425,
    -0.0578368,
    -0.457588,
    0.313935,
    -0.474216,
    -0.62419,
    -0.474892,
    -0.78544,
    -0.126089,
    -0.326847,
    -0.711484,
    -0.517826,
    0.931855,
    0.881799,
    -0.838834,
    0.612701,
    0.333571,
    -0.121871,
    0.436533,
    -0.962607,
    0.0131183,
    -0.0204239,
    0.103823,
    -0.543916,
    0.325276,
    -0.428243,
    0.923509,
    0.400464,
    -0.743101,
    -0.539867,
    -0.376384,
    -0.070986,
    -0.700164,
    0.761323,
    0.023385,
    -0.652331,
    -0.8862,
    -0.515794,
    -0.802451,
    -0.592443,
    0.331486,
    0.349734,
    0.956246,
    -0.0763061,
    0.472613,
    0.173185,
    0.335397,
    -0.934365,
    -0.659795,
    -0.180451,
    -0.307742,
    0.460402,
    0.915529,
    -0.107011,
    -0.320607,
    -0.586973,
    -0.744715,
    -0.628054,
    -0.964057,
    0.322894,
    -0.215186,
    -0.0305262,
    0.923919,
    0.0747576,
    -0.527017,
    -0.506462,
    -0.480542,
    0.576168,
    0.249824,
    0.558306,
    0.469043,
    -0.158215,
    0.128756,
    0.341024,
    0.33452,
    0.217464,
    -0.53884,
    0.0711255,
    -0.104796,
    0.557039,
    0.510487,
    0.0233605,
    0.158262,
    0.148963,
    -0.645473,
    -0.518405,
    0.0232532,
    -0.508708,
    -0.821942,
    0.861236,
    -0.325134,
    0.612443,
    0.367703,
    0.587997,
    -0.596263,
    -0.401988,
    -0.909456,
    -0.146847,
    -0.580378,
    0.919634,
    0.516846,
    0.021801,
    -0.8861,
    -0.349136,
    0.612391,
    -0.754063,
    0.667495,
    0.226198,
    0.688579,
    0.669579,
    0.870602,
    -0.122806,
    -0.504809,
    -0.725888,
    0.52155,
    -0.297718,
    -0.0133879,
    0.361355,
    0.830665,
    -0.602837,
    -0.383736,
    0.260261,
    -0.069766,
    -0.94776,
    -0.945299,
    -0.584695,
    -0.310291,
    0.530374,
    0.854785,
    -0.958413,
    -0.670033,
    0.166696,
    0.505825,
    0.178518,
    0.704124,
    -0.214681,
    -0.559784,
    0.578809,
    0.901724,
    -0.351534,
    0.0285351,
    -0.51561,
    -0.957699,
    -0.168648,
    -0.971995,
    -0.0354328,
    -0.756717,
    -0.998029,
    -0.303441,
    -0.790551,
    -0.38697,
    -0.0630839,
    -0.0428267,
    -0.898785,
    -0.0252438,
    -0.663593,
    -0.606018,
    0.267425,
    -0.40438,
    -0.182596,
    0.419397,
    0.82579,
    -0.470841,
    0.439771,
    -0.440847,
    0.335597,
    -0.700232,
    -0.761781,
    0.41177,
    -0.550103,
    -0.80442,
    -0.999717,
    -0.912266,
    -0.356035,
    -0.0881717,
    -0.96597,
    0.208494,
    0.231258,
    -0.00212693,
    0.915141,
    -0.220128,
    -0.639282,
    -0.0976162,
    -0.0953526,
    0.241507,
    0.451375,
    0.669481,
    -0.823086,
    0.809287,
    -0.504017,
    0.542526,
    0.486536,
    0.0036006,
    0.537724,
    -0.432396,
    0.465586,
    0.118402,
    0.456495,
    0.899934,
    0.0683329,
    0.9993,
    -0.110512,
    0.787694,
    0.387631,
    0.19782,
    -0.353096,
    0.418875,
    -0.0768218,
    -0.675869,
    -0.620373,
    -0.452858,
    0.1733,
    -0.578497,
    0.688764,
    -0.399572,
    0.560145,
    -0.907918,
    -0.849685,
    0.701983,
    0.820635,
    0.566438,
    0.525871,
    0.426273,
    0.75534,
    0.595769,
    0.0530283,
    0.87223,
    -0.430043,
    0.270843,
    -0.312836,
    -0.765465,
    0.0574234,
    0.700447,
    -0.999578,
    0.934038,
    0.872463,
    0.815228,
    -0.291923,
    -0.489073,
    0.245271,
    0.909288,
    -0.389875,
    0.583732,
    0.135433,
    0.244017,
    0.70784,
    0.68325,
    0.316945,
    -0.93674,
    0.323994,
    -0.940491,
    0.269077,
    -0.32687,
    -0.527196,
    -0.25476,
    -0.909511,
    -0.280687,
    -0.342286,
    0.5687,
    -0.825585,
    -0.371223,
    -0.638395,
    0.00406075,
    -0.0716705,
    0.617501,
    -0.207428,
    0.374672,
    0.891731,
    -0.51706,
    -0.024508,
    0.510288,
    0.31915,
    -0.671024,
    0.177621,
    0.92836,
    0.418417,
    -0.930786,
    0.144463,
    -0.0819759,
    0.349234,
    0.0989869,
    -0.887104,
    -0.523275,
    -0.138783,
    -0.464549,
    -0.450269,
    -0.125849,
    0.253726,
    0.243505,
    0.278842,
    0.495105,
    0.762701,
    -0.924835,
    0.550818,
    0.894517,
    -0.355445,
    -0.763332,
    -0.707539,
    -0.860879,
    -0.895901,
    0.492956,
    0.705013,
    0.296541,
    0.908587,
    0.344967,
    -0.283034,
    0.301521,
    0.142111,
    -0.12398,
    0.887177,
    -0.66146,
    0.700052,
    0.475336,
    0.014204,
    -0.489124,
    -0.187225,
    -0.268169,
    0.805046,
    -0.196493,
    0.406842,
    0.931672,
    -0.697031,
    0.460603,
    -0.427848,
    0.56651,
    -0.979669,
    0.917629,
    0.433836,
    -0.994666,
    0.81165,
    -0.853666,
    -0.0532632,
    -0.709832,
    0.869268,
    -0.74448,
    0.640938,
    0.589792,
    -0.400023,
    -0.233691,
    -0.295059,
    0.0206418,
    0.577229,
    -0.596331,
    0.185669,
    0.938828,
    0.448221,
    -0.299686,
    0.00543857,
    -0.842809,
    -0.872453,
    0.48562,
    -0.461537,
    -0.681375,
    0.705563,
    0.889342,
    0.391726,
    -0.737052,
    -0.506619,
    -0.447344,
    0.793442,
    0.349436,
    -0.286034,
    0.474179,
    0.0154994,
    -0.376416,
    0.843228,
    0.531371,
    0.72968,
    -0.527354,
    0.916406,
    0.809119,
    0.608615,
    0.776659,
    0.099072,
    -0.353202,
    -0.347434,
    0.979739,
    -0.811351,
    -0.935807,
    -0.768484,
    0.719677,
    -0.772219,
    0.750583,
    0.942897,
    0.223089,
    -0.0853424,
    0.428063,
    -0.690134,
    -0.592293,
    0.440624,
    -0.808017,
    0.505738,
    -0.373492,
    0.966945,
    -0.153415,
    0.522219,
    0.729567,
    0.894874,
    -0.581217,
    -0.771309,
    -0.952803,
    0.620925,
    0.226821
  ],
  "outputNodes": 27,
  "outputToTypes": [
    "(Mobile - Air - Orbital) | (Structure - Orbital)",
    "(Mobile - Air - Orbital) | (Structure - Orbital)",
    "(Mobile - Air - Orbital) | (Structure - Orbital)",
    "(Mobile - Air - Orbital) | (Structure - Orbital)",
    "(Mobile - Air - Orbital) | (Structure - Orbital)",
    "(Mobile - Air - Orbital) | (Structure - Orbital)",
    "(Mobile - Air - Orbital) | (Structure - Orbital)",
    "(Mobile - Air - Orbital) | (Structure - Orbital)",
    "(Mobile - Air - Orbital) | (Structure - Orbital)",
    "(Mobile - Air - Orbital) | (Structure - Orbital)",
    "(Mobile - Air - Orbital) | (Structure - Orbital)",
    "(Mobile - Air - Orbital) | (Structure - Orbital)",
    "Fabber - Air - Orbital",
    "Fabber - Air - Orbital",
    "Fabber - Air - Orbital",
    "Structure & (MetalProduction | EnergyProduction)",
    "Structure & (MetalProduction | EnergyProduction)",
    "Structure & (MetalProduction | EnergyProduction)",
    "Structure & SurfaceDefense",
    "Structure & SurfaceDefense",
    "Structure & SurfaceDefense",
    "(Structure & Defense) - Wall - SurfaceDefense - Orbital",
    "(Structure & Defense) - Wall - SurfaceDefense - Orbital",
    "(Structure & Defense) - Wall - SurfaceDefense - Orbital",
    "Commander",
    "Commander",
    "Commander"
  ]
}