{
  "hiddenBiasWeights": [
    -0.911791,
    -0.235577,
    -0.912296,
    -0.879563,
    -0.870251,
    0.461653,
    0.348374,
    0.736233,
    1.03167,
    -0.681047,
    -0.0358545,
    -0.0564575,
    -0.213097,
    0.305266,
    -0.846074,
    0.27852,
    0.498274,
    0.95634,
    0.319424,
    0.531713,
    -0.268428,
    -0.333292,
    -0.71933,
    0.915513,
    -0.0603167,
    0.382025,
    -0.343922
  ],
  "hiddenNodes": 132,
  "hiddenWeights": [
    0.712653,
    -0.614089,
    -0.390585,
    0.139594,
    -0.162433,
    -0.833231,
    1.32963,
    0.82324,
    -0.116882,
    -0.585473,
    0.120889,
    -0.515592,
    -0.444073,
    0.861101,
    -0.300384,
    1.10194,
    -0.148893,
    0.855289,
    -0.40942,
    0.801425,
    0.685963,
    0.193089,
    0.405429,
    0.100985,
    -0.607627,
    -0.626092,
    0.611424,
    -0.68265,
    0.474427,
    -0.978116,
    -0.973702,
    -0.803171,
    0.142753,
    -0.080867,
    -0.974496,
    -0.661129,
    -0.537358,
    0.127386,
    -0.773851,
    -0.455675,
    0.249786,
    -1.02322,
    0.249399,
    0.121249,
    -0.66537,
    -0.273798,
    0.338606,
    -0.601513,
    0.632307,
    0.416458,
    0.832611,
    0.968933,
    -0.923726,
    0.441077,
    -0.880759,
    -0.836253,
    0.125852,
    -0.678048,
    0.844152,
    -0.851551,
    -0.212142,
    -0.244832,
    -1.21152,
    0.709293,
    -0.51088,
    -0.876783,
    -0.590499,
    -0.224719,
    0.758066,
    -1.12178,
    0.351352,
    0.389497,
    -0.820586,
    0.297408,
    0.395473,
    -0.66502,
    -0.106334,
    0.65474,
    -0.56322,
    -0.679551,
    0.70721,
    0.0117365,
    0.624086,
    0.554335,
    0.147814,
    -0.49446,
    -0.43736,
    1.19253,
    1.12184,
    0.604494,
    -0.99,
    -0.973475,
    0.141425,
    -0.480038,
    -0.689749,
    0.349424,
    -0.134325,
    -0.21329,
    0.45201,
    0.638455,
    -0.419411,
    0.710957,
    -0.333262,
    -0.734923,
    -0.781455,
    0.862459,
    0.582524,
    0.619008,
    0.323768,
    0.876441,
    -0.252354,
    -0.0387179,
    -0.289011,
    -0.745709,
    -0.452403,
    0.378431,
    0.250792,
    0.640696,
    -0.925347,
    -0.2364,
    -0.743858,
    0.154671,
    -0.781459,
    -0.137747,
    -0.0579007,
    -0.860121,
    -0.170322,
    0.0355698,
    0.757877,
    0.469456,
    0.776196,
    0.926058,
    0.939969,
    0.586744,
    -0.117844,
    0.816226,
    0.254553,
    -0.677943,
    -0.669707,
    -0.216615,
    -0.151179,
    -0.731418,
    0.315426,
    0.378612,
    0.650798,
    -0.410131,
    0.29888,
    0.514662,
    -0.113924,
    -0.646327,
    -0.54164,
    0.531279,
    -0.682158,
    -0.926104,
    0.553714,
    -0.156037,
    -0.683282,
    0.574352,
    -0.896217,
    0.891885,
    0.199841,
    -0.896277,
    0.412477,
    0.252973,
    -0.576149,
    0.667514,
    0.264693,
    0.0307071,
    0.219964,
    0.348208,
    -0.265187,
    -0.875188,
    0.828235,
    -0.2937,
    0.876824,
    0.216588,
    0.69949,
    -0.710536,
    -0.503125,
    -0.842557,
    0.105759,
    -0.0345356,
    0.557414,
    -0.571316,
    -0.257171,
    -0.402925,
    -0.687539,
    0.154597,
    0.784028,
    0.172884,
    -0.145745,
    -0.310357,
    0.624169,
    -0.467436,
    -0.719075,
    -0.228388,
    -0.059395,
    -0.269836,
    -0.463844,
    -0.575953,
    -0.776438,
    0.926731,
    -0.296431,
    -0.300952,
    0.542218,
    -0.111252,
    0.25121,
    -0.949628,
    -0.288489,
    -0.0868573,
    -0.380746,
    0.286334,
    0.265932,
    0.151776,
    0.217483,
    -0.419006,
    -0.31074,
    -0.830198,
    -0.882462,
    -0.511991,
    0.342089,
    -0.512106,
    -0.275701,
    -0.45909,
    0.0240948,
    -1.00473,
    0.616408,
    -0.993716,
    0.0250572,
    -0.715454,
    0.793758,
    0.021434,
    -0.736013,
    0.65362,
    0.621327,
    0.296105,
    -1.05548,
    -0.845444,
    0.738921,
    0.2294,
    -0.145059,
    0.0228439,
    -1.07675,
    -0.731054,
    0.804871,
    0.271892,
    0.539258,
    0.358665,
    -0.650933,
    -0.588713,
    -0.320737,
    0.505764,
    0.261968,
    0.857482,
    0.887813,
    0.251213,
    -0.859057,
    -0.783613,
    -0.075186,
    -0.581548,
    -0.743019,
    0.463321,
    -0.545907,
    0.59906,
    0.185876,
    -1.15673,
    0.466244,
    0.987868,
    -0.406352,
    -0.286959,
    0.231477,
    0.710524,
    -0.0045036,
    -0.513045,
    0.746082,
    -0.393888,
    -0.0432922,
    -0.807189,
    -0.571124,
    -0.820627,
    -0.107511,
    -0.11534,
    0.894083,
    -0.896455,
    0.750741,
    0.589689,
    -0.304109,
    -0.950191,
    -0.0685008,
    0.723347,
    -0.0919556,
    -0.868598,
    -0.33076,
    0.655423,
    0.241399,
    0.372388,
    0.277156,
    0.808184,
    0.0197796,
    0.211992,
    -0.295695,
    -0.941325,
    0.610737,
    0.346844,
    -0.464187,
    0.0402777,
    0.00904076,
    -0.250958,
    -0.367957,
    0.761832,
    0.908906,
    0.509681,
    -0.310653,
    0.485557,
    -0.367536,
    0.653151,
    0.0244265,
    0.767332,
    -0.966924,
    0.23609,
    0.362839,
    0.905627,
    -0.864897,
    -0.0921721,
    -0.858236,
    -0.953338,
    0.114911,
    -0.50414,
    0.109082,
    0.0657169,
    -1.01509,
    0.465586,
    0.0634899,
    -0.678129,
    0.327922,
    0.919538,
    -0.482213,
    -0.872212,
    -0.545522,
    -0.81718,
    0.301618,
    -0.00222545,
    -0.424688,
    0.347514,
    -0.473272,
    -0.893071,
    0.18446,
    -0.732969,
    -0.196755,
    0.0597786,
    -0.172549,
    -0.236129,
    0.685762,
    0.319524,
    -0.649773,
    -0.679236,
    0.559752,
    0.225441,
    -0.265614,
    -0.0284747,
    -0.000122742,
    0.0548709,
    0.748537,
    0.642576,
    0.380475,
    -0.135509,
    -0.261165,
    0.195619,
    0.325841,
    -1.03223,
    -0.921443,
    -0.306048,
    -0.440167,
    -0.938939,
    0.939638,
    -0.850822,
    0.948079,
    0.597019,
    0.400372,
    0.428418,
    0.265925,
    -0.631715,
    0.152992,
    0.403142,
    -0.889383,
    -0.974684,
    -0.94788,
    -0.320528,
    0.878182,
    -0.712937,
    0.811015,
    -0.664299,
    -0.381566,
    0.458643,
    -1.06109,
    -0.517686,
    0.298652,
    0.513,
    -0.383031,
    -0.373094,
    -0.727422,
    -0.10283,
    -0.886042,
    -0.352704,
    0.844592,
    0.570236,
    0.464342,
    0.191441,
    -0.606916,
    -0.115731,
    -0.457228,
    0.204006,
    -0.59241,
    -0.822182,
    -0.0961567,
    0.395587,
    -0.675633,
    0.726521,
    -0.0192167,
    -0.023217,
    0.722603,
    0.349146,
    -0.819891,
    -0.628445,
    0.238137,
    0.506472,
    -0.629877,
    -0.365478,
    0.760605,
    0.379973,
    -0.539417,
    0.177411,
    0.666741,
    -0.549486,
    -0.170016,
    -0.802348,
    -0.128469,
    0.346027,
    -0.776073,
    0.174418,
    -0.994587,
    -0.732709,
    0.478641,
    -0.892504,
    -0.531334,
    0.45941,
    -0.075645,
    0.190337,
    0.137462,
    -0.46108,
    -0.289427,
    -0.873682,
    -0.661481,
    0.778254,
    0.174267,
    -0.925337,
    -0.266216,
    -0.481863,
    -0.990745,
    0.637836,
    0.32912,
    -0.668429,
    -0.399608,
    0.356187,
    -0.243084,
    -0.79566,
    0.635696,
    -0.233073,
    -0.686688,
    0.276015,
    0.379923,
    0.706068,
    -0.227093,
    0.0885017,
    0.669611,
    -0.831124,
    0.626047,
    -0.378628,
    -0.984852,
    0.419185,
    0.860726,
    -0.816513,
    -0.146902,
    0.527801,
    0.0512153,
    -0.316164,
    0.864917,
    0.02189,
    0.99423,
    0.494041,
    0.236998,
    -0.124236,
    -0.592626,
    -0.114616,
    0.26449,
    0.817474,
    0.535291,
    0.790759,
    -0.812063,
    -0.625244,
    -0.58799,
    -0.667827,
    -0.637044,
    -0.312746,
    -1.04581,
    -0.782523,
    0.746052,
    -0.452362,
    -0.940431,
    -0.651939,
    0.696812,
    -0.0197582,
    -0.437831,
    -0.798189,
    0.318694,
    0.863114,
    -0.940228,
    -0.931246,
    0.439184,
    0.402323,
    -0.381432,
    -0.981835,
    -0.0719821,
    -0.27598,
    0.742233,
    0.1009,
    -0.306248,
    -0.55433,
    0.535043,
    -0.342405,
    0.692577,
    0.837934,
    0.761617,
    -0.251517,
    -0.0795277,
    -0.675517,
    0.107592,
    0.819511,
    -0.31294,
    0.814127,
    0.845464,
    0.512115,
    0.552455,
    -0.345836,
    -0.333994,
    0.713038,
    -0.974118,
    0.696768,
    0.289315,
    -0.250378,
    -0.956033,
    0.690844,
    -0.284708,
    -0.19507,
    -0.769108,
    0.770013,
    -0.282893,
    -0.21116,
    0.502037,
    -0.0657493,
    -0.448583,
    -0.530761,
    0.641055,
    -0.237401,
    -0.928988,
    0.328911,
    -0.875884,
    -0.264194,
    0.227004,
    -0.225148,
    0.792455,
    -0.379286,
    0.210959,
    0.382031,
    -0.431468,
    -0.356075,
    0.917155,
    -0.77686,
    -0.530415,
    -0.480834,
    -0.433724,
    -0.885396,
    0.133977,
    0.150262,
    -0.882706,
    0.160237,
    0.762039,
    0.414672,
    0.252395,
    -0.361633,
    -0.906903,
    -0.317018,
    -0.0951836,
    0.66386,
    0.781765,
    0.190359,
    0.458,
    0.886681,
    0.166461,
    0.719082,
    0.138605,
    -0.823185,
    0.130177,
    0.344739,
    -0.0648428,
    -0.203574,
    0.514034,
    0.0372368,
    -0.00975364,
    0.688282,
    0.554878,
    0.481758,
    0.166045,
    0.418205,
    -0.157923,
    -0.659975,
    0.206339,
    0.279799,
    0.0268418,
    0.729241,
    0.854069,
    -0.90881,
    0.659712,
    0.695416,
    0.644263,
    0.451101,
    0.71856,
    -0.537307,
    0.569714,
    -0.600153,
    0.581423,
    0.385441,
    0.454062,
    -0.857914,
    -0.834406,
    0.654628,
    -0.153656,
    -0.162932,
    0.37237,
    0.394762,
    -0.0836132,
    0.70233,
    -0.26866,
    0.417434,
    -0.993473,
    0.0866474,
    -0.445375,
    -0.227947,
    -0.0814882,
    0.193332,
    -0.874618,
    0.480136,
    -0.723625,
    0.739852,
    -0.381597,
    0.102184,
    0.11315,
    0.370136,
    -0.609722,
    -0.851988,
    -0.175842,
    -0.485325,
    0.523392,
    -0.916904,
    -0.0248071,
    -0.00983775,
    0.591975,
    -0.601734,
    -0.377493,
    0.752929,
    0.250455,
    0.477361,
    0.386926,
    -0.304194,
    -0.603099,
    -0.865477,
    0.201496,
    0.382026,
    0.0255862,
    0.67735,
    0.444893,
    0.407993,
    0.969716,
    0.00734221,
    0.394139,
    0.300302,
    0.571596,
    0.0562368,
    0.531178,
    0.995816,
    0.938537,
    0.218889,
    0.531365,
    0.808269,
    -0.269933,
    -0.206867,
    0.594372,
    -0.69188,
    -0.200923,
    -0.430439,
    0.95051,
    0.0306131,
    0.272399,
    0.362815,
    0.59436,
    0.64307,
    0.39892,
    0.356847,
    -0.799396,
    -0.694097,
    -0.411649,
    -0.32192,
    -0.653723,
    -0.218882,
    -0.915213,
    -0.79119,
    0.512396,
    0.18305,
    -0.801319,
    -0.949342,
    -0.874319,
    0.731093,
    0.468259,
    0.687832,
    0.079198,
    0.153573,
    -0.854795,
    -0.275758,
    0.164918,
    -0.891281,
    -0.890956,
    0.962494,
    -0.145522,
    -0.398591,
    -0.522008,
    -0.348893,
    -0.625668,
    0.393025,
    0.935346,
    0.752149,
    0.44441,
    0.774898,
    0.233405,
    -0.139019,
    -0.3283,
    0.405716,
    0.129697,
    -0.241477,
    0.0975745,
    0.069572,
    -0.25554,
    -0.266817,
    1.01739,
    -0.0577886,
    -0.315973,
    -0.646884,
    -0.824507,
    0.124003,
    -0.243187,
    0.796486,
    0.105076,
    -0.195867,
    -0.175966,
    -0.799679,
    0.138818,
    -0.985609,
    -0.189929,
    0.293434,
    0.0668197,
    -0.167462,
    -0.0603952,
    -0.291125,
    -0.714712,
    1.04194,
    0.172497,
    0.52262,
    -0.455103,
    -0.0172492,
    0.698517,
    0.985907,
    -0.934346,
    -0.706091,
    -0.27129,
    0.503137,
    0.373011,
    0.174569,
    0.536996,
    -0.660823,
    0.606579,
    -0.478382,
    0.0413931,
    -0.552827,
    0.0221187,
    -0.440573,
    0.648908,
    0.799741,
    0.15479,
    -0.371585,
    0.0167182,
    0.0397216,
    -0.119459,
    -0.361191,
    -0.235039,
    -0.43462,
    0.0417751,
    0.844797,
    -0.199439,
    -0.10193,
    0.00178532,
    0.336361,
    -0.135094,
    -0.0895027,
    -0.40921,
    0.313139,
    -0.870601,
    -0.635241,
    -0.348562,
    -0.622217,
    0.145617,
    0.538542,
    -0.365032,
    -0.655272,
    -0.402312,
    -0.852786,
    -1.03094,
    0.196076,
    0.0804219,
    -0.30771,
    0.310021,
    0.836755,
    0.835747,
    -0.474977,
    0.44653,
    -0.347995,
    0.321612,
    -0.208493,
    0.815849,
    -0.290756,
    -0.992671,
    -0.803485,
    -0.500178,
    -0.44411,
    0.707119,
    -0.0335339,
    0.673795,
    -0.410731,
    -0.839234,
    0.295412,
    -0.621317,
    -0.945215,
    0.156485,
    0.790378,
    -0.0153662,
    0.672087,
    -0.043289,
    -0.517922,
    0.468439,
    -0.704958,
    -0.0276949,
    -0.197872,
    -0.873393,
    -0.543918,
    -0.0840244,
    0.961283,
    -1.00622,
    0.381013,
    0.495393,
    -0.4036,
    0.0653675,
    -0.280161,
    0.967353,
    0.63866,
    0.988324,
    0.685269,
    -0.766472,
    -0.941111,
    0.203492,
    0.722346,
    -0.438368,
    -0.496651,
    0.316841,
    -0.12351,
    -0.677449,
    0.671571,
    -0.219382,
    -0.563736,
    -0.232357,
    -0.658889,
    0.0755257,
    -0.930043,
    -0.316081,
    -0.0561843,
    0.792687,
    0.707205,
    -0.492751,
    0.60891,
    0.956472,
    -0.665249,
    -0.204753,
    0.373751,
    -0.125219,
    -0.29642,
    0.174689,
    0.00251792,
    0.967624,
    -0.638768,
    -0.63856,
    -0.870885,
    -0.56505,
    0.727654,
    0.801262,
    -1.05057,
    0.588949,
    -0.675109,
    0.894004,
    0.485551,
    0.657138,
    -0.503956,
    -0.884208,
    -0.938563,
    -0.782952,
    0.840528,
    0.292036,
    0.843751,
    -0.893902,
    -0.543095,
    0.612793,
    -0.611807,
    -0.32324,
    0.164871,
    -0.417236,
    0.194914,
    -0.157862,
    0.056888,
    0.0266489,
    -0.38783,
    0.815733,
    -1.00096,
    0.841547,
    -0.36642,
    -0.0421858,
    0.856424,
    -0.107523,
    0.201558,
    -0.310741,
    -0.316175,
    -0.282314,
    -0.124276,
    -0.543196,
    -0.206083,
    0.957223,
    0.286817,
    -0.446176,
    -0.0265516,
    -0.397776,
    -0.549651,
    -0.364389,
    -0.820444,
    -0.648036,
    0.02367,
    -0.559536,
    -0.801259,
    0.03835,
    -0.446301,
    0.501552,
    -1.03129,
    0.814495,
    0.267699,
    -0.433603,
    -0.356822,
    0.789473,
    -0.511506,
    -0.703499,
    -0.498939,
    0.106742,
    0.429396,
    0.43761,
    0.79068,
    -0.0774863,
    0.575671,
    0.202792,
    -0.360064,
    0.167263,
    -0.0309436,
    0.656266,
    -0.215902,
    -0.362755,
    1.03734,
    -0.0844525,
    -0.421121,
    0.945481,
    0.127261,
    0.378313,
    -0.851271,
    0.233176,
    -0.208573,
    0.970078,
    -0.673793,
    0.0436458,
    0.799187,
    0.436416,
    -0.14611,
    0.911781,
    0.138257,
    0.624495,
    0.401968,
    -0.205764,
    -0.351965,
    -0.630225,
    -0.76535,
    -0.0814447,
    -0.00784206,
    0.0204938,
    -0.404253,
    0.611807,
    -0.385571,
    0.606806,
    -0.0708875,
    0.863215,
    0.493483,
    -0.779054,
    -0.682986,
    -0.505628,
    -0.140304,
    -0.6156,
    -0.111254,
    0.335045,
    0.610716,
    -0.500253,
    0.448632,
    -0.730011,
    -0.0423272,
    -0.593247,
    0.758012,
    -0.274049,
    -0.977199,
    0.865662,
    0.131194,
    -1.03529,
    0.708265,
    -0.676047,
    -0.389517,
    -0.0621602,
    0.177224,
    0.320185,
    0.27656,
    0.261075,
    0.975269,
    -0.753241,
    0.596517,
    -0.0300285,
    0.384726,
    -0.944307,
    0.676943,
    -0.498651,
    -0.539767,
    0.24637,
    0.771699,
    -0.598841,
    -0.0999272,
    -0.804612,
    -0.55262,
    0.77967,
    0.886185,
    0.860585,
    0.666377,
    -0.817736,
    -0.462599,
    -0.981016,
    -0.811973,
    -0.398793,
    -0.508664,
    -0.326971,
    -0.680418,
    -0.917162,
    -0.465695,
    0.414708,
    0.919466,
    -0.664848,
    -0.622479,
    -0.831321,
    0.558835,
    -0.165255,
    0.185891,
    -0.279435,
    0.838446,
    0.379253,
    -0.309851,
    0.503605,
    -0.452383,
    0.801288,
    -0.568711,
    -0.191859,
    -0.367927,
    0.206961,
    -0.806623,
    -0.882424,
    -0.552567,
    -0.314644,
    0.193473,
    0.687266,
    -0.162408,
    -0.864971,
    0.328747,
    0.118043,
    0.584354,
    0.25702,
    0.493061,
    -0.781801,
    -0.231553,
    0.233997,
    0.843842,
    -0.52436,
    -0.619198,
    -1.08607,
    -0.800192,
    -0.0384825,
    -0.520709,
    0.677395,
    -0.984636,
    -0.853001,
    0.00157736,
    0.514645,
    -0.0588719,
    -0.378195,
    -0.977729,
    -0.487369,
    -0.164683,
    -0.12158,
    0.0476382,
    -0.996174,
    -0.73193,
    -0.340229,
    -0.0838009,
    0.723057,
    0.689273,
    -0.816934,
    -0.0837952,
    -0.202919,
    0.19095,
    -1.09468,
    -0.809475,
    -0.698644,
    -0.38563,
    -0.783685,
    -0.0318121,
    -0.303519,
    -0.774917,
    -0.14131,
    0.51181,
    -0.42581,
    -0.162155,
    -0.120797,
    -0.534658,
    -1.01279,
    -0.661596,
    -0.66577,
    0.616171,
    -0.366741,
    -0.22199,
    0.665537,
    0.586262,
    -0.029043,
    -0.426361,
    0.690295,
    0.641273,
    -0.922205,
    -0.833701,
    -0.348283,
    0.505744,
    0.627617,
    -0.302031,
    -0.0907994,
    0.460555,
    -0.0735998,
    -0.234155,
    -0.411363,
    -0.019165,
    -0.512659,
    -0.990289,
    -0.670515,
    -0.18184,
    -0.889811,
    0.799903,
    -0.673117,
    0.652102,
    0.618742,
    0.672691,
    0.83696,
    -0.504984,
    0.990889,
    0.424759,
    0.1161,
    -0.897501,
    0.815174,
    0.760948,
    0.949579,
    -0.906187,
    -0.359278,
    0.507749,
    -0.006579,
    -0.783805,
    -0.181137,
    0.261675,
    1.09092,
    0.259225,
    -0.3165,
    0.779414,
    -0.651227,
    -0.425604,
    1.02995,
    1.00849,
    -0.235231,
    0.457038,
    0.550896,
    -0.294112,
    0.633166,
    0.325325,
    0.892885,
    0.413471,
    0.681217,
    0.0147965,
    -0.585828,
    -0.917062,
    0.38638,
    -0.98669,
    0.795012,
    -0.494688,
    -0.776624,
    -0.639579,
    0.342344,
    -0.0615989,
    -0.696975,
    0.0177286,
    -1.05777,
    -0.642601,
    0.904156,
    0.207525,
    -0.383529,
    -0.813809,
    0.765001,
    -0.482111,
    -0.626996,
    -0.909673,
    -0.922294,
    0.729399,
    -0.545607,
    0.76955,
    -0.0345977,
    0.0824811,
    0.726061,
    0.511391,
    -0.523168,
    -0.893289,
    -0.692672,
    -0.112076,
    -0.594031,
    0.203499,
    -0.633599,
    -0.824798,
    -0.245867,
    0.767586,
    0.736028,
    0.684849,
    -0.186769,
    -0.876083,
    0.126343,
    -0.593144,
    0.573818,
    0.170353,
    -0.307783,
    -0.0556111,
    -0.81804,
    -0.218695,
    0.378519,
    0.51536,
    -0.29945,
    0.183116,
    0.965055,
    0.505933,
    -0.748592,
    0.579173,
    1.03592,
    0.58937,
    0.185387,
    0.967719,
    -0.0370466,
    -0.0771176,
    -0.775348,
    0.543115,
    -0.698058,
    0.708679,
    -0.358254,
    -0.580775,
    -0.0576764,
    -0.215409,
    0.611188,
    0.812844,
    0.915367,
    0.0973317,
    -0.706492,
    0.573346,
    0.399131,
    0.393072,
    0.0766283,
    -0.533468,
    0.644252,
    -0.793934,
    -0.218927,
    0.0181885,
    -0.385341,
    0.81253,
    0.700495,
    -0.491112,
    -0.101878,
    -0.906756,
    0.101288,
    -0.121932,
    0.38004,
    0.331035,
    0.45176,
    0.0416292,
    -0.317078,
    0.0862864,
    0.553525,
    -0.290826,
    -0.609676,
    -0.123475,
    -0.358622,
    0.128592,
    -0.447529,
    0.965094,
    0.891178,
    -1.08008,
    0.772423,
    0.885037,
    -0.665308,
    0.388982,
    -0.8564,
    1.12338,
    -0.446365,
    -0.107825,
    0.79457,
    0.00970352,
    -0.397822,
    -0.829764,
    0.462072,
    -0.30477,
    0.324296,
    -0.707509,
    -0.7918,
    -0.760316,
    -0.351411,
    -0.80685,
    0.193225,
    -1.00251,
    -1.64285,
    -1.15343,
    -1.31064,
    0.692071,
    -0.89035,
    0.883472,
    -0.90365,
    -1.02514,
    -0.8574,
    -1.02124,
    -1.12594,
    -0.800291,
    -0.219777,
    -0.493238,
    0.194742,
    -1.01669,
    -1.21463,
    -0.959625,
    -0.502485,
    -0.934153,
    -0.232588,
    -0.0563762,
    -0.613418,
    0.642099,
    -0.882294,
    0.212441,
    -0.429795,
    0.0910322,
    -0.419102,
    -0.69015,
    0.858572,
    -0.927062,
    0.898758,
    -0.529257,
    0.702713,
    -0.598497,
    -0.90732,
    -0.652399,
    0.925306,
    -0.799647,
    -0.642801,
    0.202471,
    0.695081,
    0.249204,
    0.332936,
    -0.858211,
    -0.313753,
    0.35168,
    0.872589,
    -0.115212,
    0.39678,
    0.252273,
    0.591505,
    0.324049,
    0.379393,
    1.12652,
    -0.481726,
    0.805709,
    0.576823,
    -0.749699,
    0.192872,
    -0.331379,
    -0.0927656,
    -0.772223,
    -0.0218131,
    -0.804718,
    -0.350248,
    0.775215,
    0.844461,
    0.698359,
    -0.533666,
    -0.201751,
    0.343483,
    -0.963678,
    1.01311,
    0.936113,
    -0.980693,
    0.662564,
    -0.24345,
    -0.539421,
    -0.12553,
    0.707883,
    -0.580542,
    -0.446058,
    0.324754,
    0.0188955,
    0.703461,
    0.871896,
    0.574926,
    0.77011,
    0.216985,
    0.885524,
    -0.646494,
    1.02029,
    0.164161,
    0.599275,
    0.454369,
    -1.00515,
    0.111255,
    0.389256,
    -0.753838,
    -0.582411,
    0.156527,
    0.0460358,
    -0.374442,
    -0.180067,
    0.140628,
    0.656089,
    0.551817,
    0.0766182,
    0.41495,
    0.576956,
    -0.940075,
    -0.168936,
    -0.557682,
    -0.469461,
    0.932868,
    0.819618,
    0.947218,
    0.434749,
    -0.413463,
    0.575395,
    -0.472508,
    -0.639816,
    -0.201432,
    0.15332,
    0.475235,
    -0.509981,
    -0.661578,
    -0.463783,
    -0.789408,
    -0.674758,
    -0.172179,
    -0.916122,
    0.719625,
    0.464328,
    0.516897,
    -0.341128,
    -0.802464,
    0.84233,
    -0.790067,
    -0.00501186,
    -0.791424,
    -0.0449277,
    0.689976,
    0.0619313,
    -0.36813,
    -0.105598,
    0.808684,
    0.487576,
    -0.082317,
    0.0462288,
    0.495909,
    0.864827,
    0.804507,
    -0.794093,
    0.429978,
    -0.908741,
    -0.619577,
    -0.593102,
    0.541787,
    -0.948214,
    -1.06542,
    -0.975912,
    -0.0631933,
    -0.567029,
    0.243869,
    -1.0737,
    0.565022,
    -0.51613,
    -0.765058,
    -0.188411,
    0.166714,
    0.831238,
    -0.0603352,
    -0.0827632,
    0.58661,
    0.728882,
    -0.580528,
    0.540185,
    -0.457443,
    -0.181493,
    0.212649,
    0.431146,
    -0.985284,
    -0.646503,
    0.207067,
    -0.900374,
    -0.614771,
    -0.136927,
    -0.365948,
    0.172422,
    -1.0098,
    0.378941,
    -0.445059,
    -0.649572,
    0.854795,
    -0.128674,
    -0.622667,
    -0.294622,
    0.634449,
    -0.777986,
    0.800419,
    -0.0252401,
    -0.423702,
    0.659737,
    1.0263,
    -0.200971,
    0.310254,
    0.566745,
    -0.688216,
    -0.700515,
    -0.533611,
    0.450249,
    -0.0600668,
    -0.782675,
    -1.14667,
    -0.581726,
    0.483318,
    -0.653306,
    -0.191883,
    -0.221056,
    -0.888538,
    -0.0910689,
    -0.0641606,
    -0.692779,
    0.540812,
    -0.696981,
    -0.872857,
    0.695382,
    -0.389088,
    -0.511221,
    -0.798366,
    0.168672,
    -0.305949,
    -0.528631,
    0.0176633,
    0.219344,
    0.0935142,
    0.862611,
    0.124656,
    0.190416,
    -0.581502,
    0.0991571,
    -0.523885,
    -0.33105,
    -0.62262,
    -0.819564,
    0.244758,
    -0.154527,
    0.325323,
    0.117847,
    0.850763,
    0.944037,
    1.1062,
    0.859512,
    0.826418,
    -0.100705,
    0.357174,
    -0.599127,
    0.0396844,
    -0.0719082,
    -0.677113,
    0.161303,
    0.0596436,
    0.765618,
    -0.774181,
    0.372363,
    -0.601016,
    -0.17759,
    -0.16312,
    -0.62386,
    -0.581558,
    0.197217,
    0.63375,
    -0.953542,
    -0.533242,
    -0.788886,
    -0.423595,
    0.251564,
    0.282329,
    0.453224,
    0.0727161,
    0.255331,
    -0.782522,
    -0.497408,
    -0.977097,
    -0.640357,
    -0.467704,
    -0.493553,
    0.132922,
    0.280827,
    -0.717283,
    0.0569461,
    0.638432,
    0.214725,
    -0.0521641,
    -0.562411,
    0.526446,
    -0.439413,
    0.554621,
    -0.242507,
    0.187757,
    0.371574,
    -0.394102,
    0.0493577,
    0.625324,
    0.207717,
    -0.522798,
    0.0834473,
    0.524243,
    0.0250878,
    0.384401,
    -0.473068,
    0.0612012,
    0.84287,
    -0.624775,
    0.243425,
    -0.753471,
    0.816642,
    0.91054,
    0.575504,
    -0.232577,
    -0.0462562,
    1.24311,
    0.562899,
    0.159631,
    -0.374817,
    0.189908,
    0.82666,
    -0.113522,
    0.978426,
    0.220915,
    0.112662,
    -0.383082,
    0.947443,
    0.12009,
    0.347346,
    0.188486,
    0.171119,
    0.236899,
    1.00889,
    0.643717,
    -0.468143,
    0.982932,
    -0.226851,
    0.383331,
    0.862619,
    0.820092,
    0.0397797,
    0.160091,
    -0.671828,
    -0.481325,
    -0.729626,
    -0.187544,
    -0.921442,
    -0.779309,
    0.874999,
    0.954541,
    0.305914,
    0.663645,
    0.585665,
    0.721516,
    0.215911,
    0.933294,
    0.316267,
    0.173877,
    0.714475,
    -0.530653,
    -0.13705,
    0.0540733,
    -0.567847,
    -1.07438,
    -0.325426,
    -0.166861,
    -0.455972,
    0.0616992,
    0.719218,
    -0.671712,
    0.149737,
    0.207709,
    -0.348869,
    0.329572,
    -0.81665,
    -0.949181,
    1.01628,
    -0.930474,
    0.0550042,
    -0.889873,
    0.463191,
    -0.695213,
    -0.547756,
    -0.137986,
    -0.753019,
    -0.667373,
    -0.137368,
    -0.223238,
    0.272091,
    -0.0624767,
    0.31502,
    0.775674,
    -0.62072,
    0.818247,
    0.844747,
    0.135798,
    -0.362005,
    0.314413,
    -0.0935839,
    -0.27385,
    0.39209,
    -0.157777,
    0.572141,
    0.18669,
    -0.784878,
    -0.300207,
    0.212333,
    -0.642321,
    0.753849,
    0.652567,
    -0.37796,
    0.431775,
    0.278325,
    -0.667289,
    -0.950653,
    0.17246,
    -0.930556,
    -0.907641,
    -0.0961356,
    -0.285482,
    -0.45424,
    0.717688,
    -0.552612,
    -0.606327,
    -1.12096,
    0.725115,
    -0.199043,
    -0.480115,
    0.457112,
    -0.539186,
    -0.12,
    0.277035,
    0.389899,
    -0.732459,
    -0.937274,
    -0.0837459,
    -0.721846,
    -0.927832,
    0.344561,
    0.0649046,
    0.00291692,
    0.681979,
    0.307797,
    -0.0217113,
    -0.543694,
    -0.0447547,
    0.630878,
    0.499168,
    0.0236055,
    0.340555,
    0.186292,
    0.19775,
    -0.177684,
    -0.234588,
    0.73576,
    -0.462188,
    -0.515527,
    -0.00395547,
    0.60639,
    0.0415738,
    0.639798,
    -0.488246,
    -0.858649,
    0.510891,
    -1.02929,
    -0.239664,
    0.383143,
    -0.857378,
    0.861015,
    0.721683,
    -0.942968,
    -0.370815,
    0.176086,
    -0.683704,
    0.758987,
    0.561926,
    -0.0373124,
    0.499684,
    -0.221964,
    0.278405,
    0.133129,
    -0.978986,
    -0.310502,
    -0.229035,
    -0.327998,
    -0.603856,
    -0.800912,
    0.0132366,
    0.476944,
    -0.196125,
    0.659919,
    -1.07511,
    -0.332148,
    0.242009,
    -0.708633,
    1.0036,
    0.359199,
    0.36098,
    -0.534546,
    0.562362,
    -0.569403,
    -0.573453,
    0.330298,
    -0.570632,
    0.365828,
    -0.156327,
    0.297657,
    0.0409316,
    0.0185137,
    -0.284743,
    0.826294,
    -0.268222,
    -0.165331,
    0.421502,
    0.460543,
    0.153805,
    0.77516,
    -0.399408,
    -0.609,
    0.160505,
    -0.448454,
    -0.754414,
    0.615921,
    -0.102702,
    -0.199852,
    -0.899247,
    -0.512645,
    0.618264,
    0.622668,
    0.789971,
    -0.76321,
    -1.30721,
    -1.20354,
    -0.959814,
    0.0298943,
    0.409159,
    0.0989373,
    0.404859,
    0.134747,
    -0.973953,
    -0.379693,
    -0.97481,
    -0.939274,
    -0.894282,
    -0.326114,
    -0.403264,
    0.108639,
    -0.116215,
    -0.2642,
    0.286157,
    0.267735,
    -0.412007,
    0.861842,
    -0.896045,
    -0.800024,
    0.866606,
    0.806284,
    -0.225841,
    0.309308,
    -0.71736,
    -0.750113,
    0.770253,
    -0.838137,
    0.394109,
    -0.709686,
    0.496935,
    -0.26315,
    -0.991696,
    -0.103469,
    -0.603796,
    -0.489991,
    -0.780837,
    -0.0628978,
    -0.188863,
    0.730537,
    0.707261,
    0.497746,
    -0.94146,
    -0.262794,
    -0.250025,
    -0.515684,
    -0.794863,
    0.191047,
    -0.993735,
    -0.241661,
    -0.93738,
    -0.960691,
    -0.700455,
    0.49611,
    0.0527028,
    -0.215194,
    0.00350619,
    -0.792832,
    -0.458345,
    -1.01245,
    0.727741,
    0.829108,
    0.871292,
    -0.450867,
    0.737065,
    -0.670905,
    0.231465,
    -0.396169,
    0.675538,
    0.35829,
    0.197833,
    0.590708,
    -0.873811,
    -0.855849,
    -0.846768,
    -0.420381,
    -0.252753,
    0.619613,
    -0.273964,
    -0.816766,
    0.181126,
    0.792033,
    -0.992097,
    -0.0739032,
    0.888983,
    0.962472,
    0.640599,
    -0.317346,
    0.605527,
    0.425607,
    -0.243901,
    0.275933,
    -0.244684,
    -0.982594,
    -0.0206459,
    0.0216273,
    0.28785,
    0.629854,
    -0.107655,
    0.369514,
    -0.0669536,
    0.174741,
    -0.6667,
    -0.435824,
    -0.971631,
    -0.404294,
    -0.0869617,
    0.116786,
    0.69849,
    -0.216937,
    0.0085043,
    0.0699978,
    0.634572,
    0.505477,
    -0.820406,
    0.00842074,
    0.84987,
    -0.113765,
    0.771942,
    0.704867,
    0.737372,
    -1.0131,
    -0.866927,
    0.272272,
    0.93398,
    0.759998,
    0.458462,
    0.36282,
    -0.617815,
    0.49606,
    0.829082,
    -0.0836843,
    -0.0138224,
    -0.693895,
    -0.137355,
    0.583655,
    0.850272,
    0.181206,
    0.909822,
    0.928107,
    -0.663186,
    -0.324552,
    0.730644,
    -0.348116,
    -0.749368,
    -1.0745,
    -0.351449,
    0.563974,
    0.264855,
    -0.56925,
    0.272813,
    -0.690222,
    0.495169,
    0.635669,
    0.779489,
    -0.713869,
    0.65991,
    -0.700405,
    -1.46195,
    0.0776512,
    -0.49672,
    -0.212849,
    -0.675257,
    0.0588976,
    -0.989036,
    -0.891948,
    -0.293086,
    -1.03141,
    -0.133851,
    -0.0352679,
    -0.815439,
    -0.673683,
    -0.600948,
    -0.71073,
    0.576727,
    -0.600017,
    -0.344915,
    0.0154464,
    -0.438135,
    -0.0167606,
    0.28924,
    1.05566,
    0.0207131,
    -0.052945,
    0.965104,
    0.892535,
    0.576026,
    0.677101,
    0.794978,
    0.825389,
    -0.456103,
    0.548631,
    0.587543,
    -0.826665,
    0.283703,
    -0.243724,
    0.918057,
    0.515406,
    -0.342221,
    -0.0346507,
    -0.0218657,
    0.303589,
    0.213457,
    -0.121418,
    -0.307256,
    0.495742,
    0.908112,
    -0.228776,
    -0.292267,
    -0.00561843,
    -0.0918829,
    0.783972,
    0.892488,
    -0.405122,
    -0.194331,
    0.328231,
    0.532142,
    0.345903,
    0.895678,
    -0.402855,
    0.636537,
    0.360434,
    1.04952,
    1.08065,
    -0.808052,
    -0.607433,
    -0.12234,
    0.780296,
    0.874469,
    -0.19292,
    0.413203,
    -0.0771103,
    0.65715,
    0.314843,
    -0.575388,
    -0.718559,
    -0.304071,
    -0.432632,
    -0.245145,
    -0.299819,
    -0.222125,
    -0.283463,
    -0.964039,
    -0.0411196,
    -0.707963,
    -0.414593,
    0.840252,
    0.732794,
    -0.152986,
    -0.671485,
    -0.18098,
    -0.557682,
    -0.292434,
    -0.0105274,
    0.288312,
    0.637814,
    0.153075,
    -0.108263,
    0.301102,
    -0.0514818,
    -0.608998,
    0.0394641,
    -0.86582,
    0.300622,
    -0.237774,
    -0.323219,
    -1.03146,
    -1.00843,
    -0.486909,
    -0.0459186,
    0.053375,
    -0.308631,
    0.510526,
    0.761183,
    0.600222,
    -0.587841,
    -1.06462,
    -0.618458,
    -0.197093,
    -0.625878,
    -0.416932,
    -0.797718,
    -0.394678,
    -0.773221,
    0.707764,
    0.36964,
    0.594355,
    -0.380812,
    -0.090503,
    0.131059,
    0.724359,
    -0.1905,
    0.502542,
    -0.63708,
    -0.812544,
    0.314585,
    -0.418379,
    -0.436253,
    -0.996583,
    -0.885707,
    -0.862402,
    -0.76916,
    0.594493,
    0.87439,
    0.686253,
    0.662295,
    -0.53293,
    0.6105,
    0.932122,
    0.853465,
    0.300136,
    0.661553,
    0.612701,
    0.200771,
    -0.17225,
    0.669917,
    -0.855896,
    0.0259031,
    0.621352,
    0.235143,
    -1.23799,
    -1.34646,
    -1.2693,
    -1.03224,
    0.305333,
    -0.0586382,
    0.730422,
    0.912352,
    0.262361,
    -0.817504,
    -0.497231,
    -0.435937,
    0.233471,
    0.390654,
    0.145896,
    -0.114832,
    0.053786,
    -0.116374,
    -0.837522,
    0.494231,
    -0.920836,
    0.218791,
    -0.140552,
    -0.28683,
    -0.639061,
    0.804517,
    -0.716457,
    -0.562109,
    -0.75964,
    -0.0940344,
    0.922706,
    0.216547,
    -0.450685,
    -0.138798,
    -0.164176,
    -0.496299,
    0.534449,
    -0.19746,
    -0.138514,
    0.239569,
    -0.297004,
    -1.16824,
    -0.390913,
    -0.521644,
    0.0736568,
    -0.162447,
    0.875709,
    -0.35835,
    0.137546,
    -0.938868,
    -0.0455377,
    -0.965009,
    -0.420381,
    -0.0763123,
    -0.545074,
    -0.631291,
    -0.270144,
    0.807417,
    -0.377951,
    -0.306796,
    -0.238592,
    -0.549215,
    0.497517,
    -0.0461012,
    0.344583,
    -0.122511,
    -0.922077,
    0.833737,
    -0.254463,
    -0.469243,
    0.184269,
    0.0703728,
    0.900546,
    0.00307044,
    0.692816,
    -0.176036,
    0.181884,
    0.843642,
    0.259861,
    0.0269169,
    0.914608,
    -0.854443,
    -0.674786,
    0.721403,
    -0.569905,
    -0.575222,
    0.748752,
    0.550959,
    -0.488613,
    -0.0923619,
    0.559498,
    0.209869,
    0.324436,
    -0.20049,
    0.821212,
    -0.129575,
    0.916193,
    0.0221065,
    0.362788,
    -0.489105,
    0.290592,
    0.128689,
    -0.924472,
    -0.01449,
    0.0703339,
    -0.762531,
    -0.745956,
    -0.364725,
    -0.76512,
    -0.23707,
    -0.463589,
    -0.465462,
    0.303585,
    -0.507902,
    -0.348604,
    -0.636945,
    0.408318,
    0.109938,
    -0.6315,
    -0.699239,
    -0.8201,
    -0.118135,
    -0.212623,
    0.88504,
    0.281175,
    0.0939605,
    0.838167,
    0.702108,
    0.083125,
    0.415716,
    0.475816,
    -0.262163,
    0.233948,
    -0.160376,
    0.984906,
    -0.850976,
    -0.40899,
    -0.914268,
    -0.579204,
    -0.122711,
    0.357379,
    -0.612082,
    0.114812,
    0.138287,
    -0.278195,
    0.100967,
    0.35662,
    0.805132,
    -0.405655,
    0.787841,
    0.950907,
    -0.393105,
    -0.534821,
    -0.548801,
    -0.528798,
    -0.507724,
    0.699968,
    0.573838,
    0.693068,
    0.0663796,
    -0.40717,
    -0.885409,
    -0.128662,
    0.037026,
    -0.260878,
    0.747161,
    -0.826966,
    0.721664,
    0.520664,
    0.897917,
    0.154208,
    0.595699,
    -0.413119,
    -0.626344,
    -0.738586,
    0.506933,
    0.657451,
    -0.162495,
    0.61697,
    0.1497,
    0.443293,
    -0.590747,
    -0.198418,
    -0.80427,
    0.897265,
    -0.285365,
    0.645148,
    0.644655,
    0.578061,
    -0.055958,
    1.05651,
    0.953242,
    0.740528,
    0.664687,
    -0.594797,
    0.0981431,
    0.489743,
    -0.529302,
    0.366887,
    -0.436949,
    -0.320808,
    -0.173574,
    -0.779043,
    0.680004,
    0.895845,
    0.686407,
    -0.0691181,
    0.168863,
    -0.646047,
    -0.814685,
    -0.260756,
    0.492884,
    -0.333791,
    0.650291,
    -0.406778,
    -0.118677,
    0.416574,
    -0.852334,
    0.837289,
    -0.800737,
    -0.763527,
    0.79208,
    -0.183215,
    0.156052,
    0.942369,
    -1.06486,
    0.379699,
    -0.684384,
    0.97266,
    -0.757586,
    -0.733805,
    -0.176803,
    -0.343306,
    -0.286151,
    -0.946723,
    0.153078,
    -0.272843,
    0.638755,
    -0.114625,
    0.169892,
    0.537644,
    0.0128881,
    0.967162,
    -0.563469,
    -0.0822992,
    -0.844474,
    0.711591,
    0.209996,
    0.296214,
    -0.387748,
    0.625275,
    -0.87046,
    -0.547605,
    -0.184695,
    0.577794,
    0.507661,
    -0.862654,
    -0.88622,
    -0.525088,
    -1.04896,
    0.602062,
    0.171508,
    0.601349,
    0.549164,
    -0.290129,
    -0.943154,
    0.377091,
    -0.693139,
    -0.568066,
    0.13894,
    0.639364,
    -0.276351,
    0.0867023,
    0.821394,
    -0.986582,
    0.958063,
    0.254019,
    0.750557,
    -0.887303,
    0.0734832,
    -0.0571094,
    0.247464,
    0.95008,
    -0.268503,
    0.77111,
    0.720539,
    -0.566445,
    0.377183,
    -0.09597,
    0.152862,
    -0.164176,
    0.269409,
    -0.162701,
    -0.384821,
    0.121006,
    -0.216931,
    -0.922944,
    -0.0137994,
    -1.16703,
    0.500402,
    0.85796,
    0.607963,
    0.111939,
    -1.04756,
    -0.768084,
    0.473404,
    -0.233717,
    0.176692,
    -0.451161,
    -0.626532,
    -0.425078,
    0.0731691,
    -0.115051,
    -0.258454,
    0.536215,
    0.484935,
    0.283176,
    -0.57236,
    0.795621,
    -0.596473,
    -0.0183783,
    0.450892,
    -0.332186,
    -0.113045,
    -0.111925,
    0.786133,
    0.881883,
    -0.808054,
    -0.666048,
    0.964955,
    -0.287473,
    0.631634,
    -0.0430967,
    -0.868297,
    0.164185,
    -0.315543,
    0.110557,
    0.407591,
    0.740115,
    0.428438,
    -0.392713,
    -0.603287,
    -0.769298,
    0.800463,
    0.333531,
    0.393716,
    0.0261189,
    -0.225934,
    0.275075,
    0.828909,
    0.908551,
    -0.0730729,
    0.420796,
    -0.400539,
    0.346417,
    -0.000920702,
    0.139911,
    0.811233,
    0.185753,
    0.542947,
    -0.846585,
    0.00868393,
    -0.96557,
    0.720243,
    -0.385427,
    -0.680669,
    0.0697198,
    0.460411,
    0.00105933,
    -0.454887,
    -0.967462,
    -0.212691,
    0.795512,
    0.184758,
    -0.568278,
    -0.552994,
    0.234791,
    -0.0587759,
    -0.231082,
    0.200964,
    -0.317364,
    -0.65961,
    -0.338311,
    -0.310139,
    -0.642279,
    -0.571519,
    -0.759761,
    -0.168155,
    0.734497,
    0.574433,
    -0.974044,
    -0.308707,
    -0.642746,
    0.028774,
    -0.924478,
    -0.49533,
    -0.551539,
    0.114966,
    -0.445016,
    -0.812039,
    -0.412826,
    -0.133471,
    -0.767571,
    -0.480131,
    0.22708,
    -0.732307,
    -0.45803,
    -0.577844,
    0.455582,
    0.668453,
    -0.58581,
    -0.269752,
    -0.310526,
    -0.781151,
    -1.13755,
    0.356544,
    -0.603092,
    -0.78602,
    -0.849974,
    -0.924141,
    0.816738,
    0.609315,
    0.0688759,
    -0.833355,
    -0.283438,
    -0.24915,
    0.308225,
    0.247087,
    0.802376,
    -0.0375255,
    -0.801998,
    -0.773834,
    0.106793,
    -0.451564,
    -0.52208,
    -0.832429,
    0.899179,
    0.672859,
    -0.906976,
    0.590154,
    -1.0342,
    -0.710953,
    0.68486,
    0.600722,
    0.00756739,
    -0.966492,
    -0.153084,
    0.933122,
    0.738443,
    -0.917968,
    0.302651,
    -0.221016,
    0.258217,
    -0.0379757,
    0.417951,
    -0.435314,
    -0.496912,
    -0.602788,
    0.0234436,
    -1.1937,
    -1.19271,
    -1.21585,
    -0.0875133,
    -0.630373,
    -0.0728134,
    -0.783483,
    0.402064,
    0.732564,
    -0.0728195,
    0.422176,
    0.300153,
    0.608003,
    -0.224562,
    0.464794,
    -0.413248,
    -1.15216,
    0.74012,
    0.407257,
    -0.52292,
    -0.690198,
    -0.772161,
    0.391891,
    0.530928,
    0.073851,
    -0.0903357,
    -0.667478,
    1.22794,
    1.09048,
    0.650576,
    -0.615201,
    -0.936655,
    -0.273285,
    -0.611458,
    0.444256,
    0.743938,
    0.80914,
    -0.333999,
    -0.888566,
    0.0651731,
    -0.834513,
    0.66517,
    0.520963,
    -0.598889,
    -0.330127,
    -0.606342,
    -0.523726,
    0.365447,
    -0.0849612,
    -0.00950614,
    -0.452781,
    -0.426035,
    0.421235,
    -0.848519,
    -0.644113,
    -0.515387,
    -0.998908,
    0.197276,
    0.198117,
    0.533946,
    -0.0864015,
    -0.457494,
    -1.08475,
    -1.0744,
    -0.407826,
    -0.15819,
    0.155874,
    -0.289913,
    0.327126,
    0.520349,
    0.806422,
    0.833024,
    0.2514,
    0.397134,
    -0.680069,
    0.440981,
    -0.09679,
    0.998004,
    0.749889,
    0.330426,
    -0.193021,
    0.410552,
    1.24711,
    0.0777866,
    -0.355856,
    -0.842171,
    0.599258,
    0.225534,
    0.967403,
    0.397981,
    0.721421,
    -0.344346,
    0.941411,
    0.319941,
    0.553005,
    0.390121,
    0.679928,
    -0.255773,
    1.00412,
    0.551085,
    0.721057,
    0.0161127,
    -0.0538921,
    0.488798,
    -0.216261,
    0.767217,
    -0.140436,
    -0.633993,
    -0.611788,
    0.375664,
    -0.154881,
    -0.171674,
    0.402773,
    0.027154,
    -0.525306,
    0.698762,
    -0.338088,
    0.193252,
    -0.817892,
    -0.90113,
    0.883503,
    0.619334,
    0.919047,
    -0.555986,
    0.414386,
    -0.114416,
    0.27192,
    0.10256,
    0.0219294,
    -0.170014,
    0.105999,
    1.07119,
    -1.0737,
    0.0142212,
    -0.924694,
    -0.360603,
    -0.077316,
    0.427008,
    0.952818,
    0.381234,
    0.223477,
    0.457948,
    0.918945,
    -0.227733,
    -0.328596,
    0.294129,
    0.989624,
    0.0497606,
    -0.90107,
    0.369071,
    0.831848,
    -0.0136246,
    0.759118,
    -0.954406,
    -0.153905,
    0.155931,
    -0.352806,
    0.431093,
    -0.708377,
    -0.695547,
    0.295891,
    -0.0190253,
    0.279043,
    -0.753731,
    0.0315551,
    0.222272,
    0.392982,
    0.754013,
    -0.0173725,
    -0.0547765,
    -0.580121,
    0.849911,
    -0.328897,
    0.627333,
    0.331316,
    -0.0838974,
    -0.223128,
    -0.370879,
    -1.05267,
    -0.157716,
    -0.486811,
    -0.13916,
    -0.280011,
    0.211576,
    0.451084,
    -0.836571,
    0.770281,
    -0.135854,
    0.684829,
    -0.905027,
    0.432227,
    -0.793862,
    0.917382,
    0.535784,
    -0.433321,
    -0.594506,
    -0.415783,
    -0.856631,
    -0.592993,
    0.425136,
    0.820367,
    0.906662,
    -0.0225884,
    0.702194,
    -0.193949,
    0.0429429,
    0.527544,
    -0.0953019,
    -0.921281,
    0.225838,
    -0.446672,
    -0.140098,
    -0.552054,
    0.355302,
    -0.215969,
    -0.246191,
    -0.602867,
    -0.618403,
    0.857376,
    0.913577,
    -0.605131,
    0.295416,
    -0.998934,
    0.0124505,
    0.535495,
    -0.11364,
    -0.687433,
    0.978764,
    0.182581,
    0.611029,
    0.489956,
    0.679766,
    -0.141916,
    -0.897684,
    0.709011,
    0.130306,
    0.65984,
    0.0800665,
    -0.363384,
    0.24521,
    0.474952,
    0.647175,
    0.0658538,
    -1.36897,
    -1.14208,
    -0.39977,
    0.184047,
    0.747004,
    -0.560833,
    -0.0410687,
    0.316519,
    0.0288479,
    0.853657,
    -0.0176684,
    -0.753616,
    0.44166,
    -0.774371,
    -0.0294953,
    -0.694491,
    0.677275,
    -0.012899,
    -0.704969,
    -0.595681,
    0.147416,
    -0.537908,
    0.769718,
    0.189875,
    0.278677,
    -0.0462266,
    -0.413999,
    -1.07011,
    0.182573,
    -0.439579,
    0.375311,
    0.752602,
    -0.285783,
    0.694545,
    -0.947926,
    -0.0254115,
    -0.0170257,
    -0.0570818,
    0.62526,
    0.223912,
    0.227568,
    0.120792,
    -0.447079,
    -0.666395,
    -1.01683,
    0.727215,
    0.587565,
    0.333611,
    -0.239715,
    -0.109908,
    0.584646,
    0.371551,
    0.919719,
    0.971735,
    -0.736768,
    0.668347,
    0.439633,
    0.187164,
    -0.456727,
    -0.388643,
    0.680137,
    0.698921,
    0.332008,
    -0.647788,
    -0.542462,
    0.784473,
    0.913898,
    0.749369,
    -0.495482,
    0.893662,
    0.846268,
    -0.897002,
    -0.555915,
    -0.2831,
    -0.130999,
    0.333612,
    0.0303801,
    -0.694036,
    -0.565621,
    -0.629518,
    -0.79632,
    0.125094,
    -0.310137,
    0.268276,
    -0.553697,
    -0.441465,
    0.855372,
    -0.314492,
    -0.266752,
    -0.407968,
    0.0181587,
    -0.296883,
    0.0040827,
    -1.02701,
    -0.994197,
    0.507877,
    0.940304,
    0.445928,
    0.301264,
    -0.272274,
    -0.536358,
    0.881221,
    0.272863,
    1.00869,
    -0.449599,
    -0.114842,
    0.987147,
    -0.225401,
    0.307469,
    0.717986,
    0.862755,
    0.535549,
    0.0191368,
    0.719665,
    0.143357,
    0.528548,
    0.434382,
    0.307463,
    -0.198007,
    0.0399761,
    -0.108444,
    0.597571,
    -0.15564,
    0.977404,
    0.816355,
    1.06019,
    -0.501746,
    0.708491,
    0.986342,
    0.723181,
    0.64314,
    -0.423633,
    0.87396,
    -0.047441,
    -0.262737,
    0.161748,
    0.225032,
    -0.226984,
    -0.413536,
    0.0282898,
    -1.00033,
    -0.566653,
    0.548462,
    0.499274,
    -0.530513,
    -0.0140903,
    -0.844542,
    -0.143745,
    0.883859,
    0.184419,
    -0.185754,
    -0.0505119,
    0.96701,
    0.340569,
    0.117255,
    0.531741,
    0.890354,
    -0.677448,
    0.922948,
    -0.50678,
    0.038119,
    0.958663,
    -0.401306,
    -0.672198,
    0.870092,
    0.920862,
    -0.572991,
    0.440031,
    0.00643815,
    0.674262,
    0.948285,
    0.593365,
    -0.809672,
    0.206903,
    -0.0406405,
    0.887638,
    0.769317,
    0.606168,
    0.636905,
    0.156464,
    -0.685881,
    -0.256471,
    -0.765822,
    0.120285,
    -0.948928,
    -0.396663,
    0.0770159,
    -0.723623,
    -0.331732,
    0.595397,
    0.665262,
    0.44775,
    -0.76601,
    0.0835132,
    -0.480964,
    -0.616474,
    -0.226621,
    0.486348,
    0.826716,
    -0.769528,
    -0.0179436,
    0.310007,
    -0.911997,
    -0.74145,
    -0.942105,
    0.226073,
    -0.422891,
    -0.749466,
    0.0132891,
    -0.484117,
    -0.24391,
    0.628274,
    -0.768456,
    -0.351187,
    -0.694098,
    -0.217646,
    0.571454,
    0.360393,
    -0.54177,
    -0.920546,
    0.674853,
    0.592238,
    -0.514836,
    -0.3801,
    0.510403,
    0.649463,
    0.134198,
    -0.505517,
    -0.0609584,
    -0.776672,
    0.27698,
    0.916508,
    -0.638219,
    -0.420727,
    -0.118659,
    -0.228095,
    0.353347,
    -1.03322,
    0.528635,
    0.951679,
    -0.469635,
    0.529621,
    0.438978,
    -0.120613,
    -0.859006,
    -0.954676,
    -0.465353,
    -0.908158,
    0.817563,
    -0.0877327,
    -0.94108,
    -0.404722,
    0.686674,
    0.335569,
    -0.987092,
    -0.728401,
    0.81319,
    0.0479617,
    0.391637,
    -0.62411,
    -0.675956,
    -0.818919,
    1.03545,
    -0.743692,
    0.861965,
    0.714267,
    0.84886,
    0.226386,
    0.329925,
    0.469143,
    -0.364853,
    -0.191792,
    0.0463137,
    -0.415926,
    0.351098,
    0.887285,
    0.556268,
    -0.389138,
    0.737584,
    -0.241786,
    -0.48376,
    0.560604,
    -0.2267,
    -0.342755,
    -0.602876,
    -0.759738,
    0.567528,
    -0.361995,
    -0.147382,
    0.279997,
    0.576923,
    0.380054,
    -0.621935,
    0.919693,
    -0.903951,
    -0.681063,
    0.792659,
    0.877716,
    0.927915,
    -0.542057,
    -0.828254,
    -0.891702,
    -0.0366865,
    -0.010098,
    -0.730976,
    0.604569,
    -0.357624,
    -0.557186,
    -0.618352,
    0.533993,
    0.843224,
    -0.899043,
    -0.39444,
    -0.999746,
    0.482536,
    0.537538,
    -0.215122,
    -0.643585,
    -0.991866,
    0.430647,
    0.502434,
    -1.02958,
    0.463174,
    0.716171,
    0.00397646,
    0.18446,
    0.863192,
    -0.908759,
    0.322382,
    0.198177,
    0.24888,
    -0.783174,
    0.459437,
    0.720517,
    0.0285718,
    0.964286,
    -0.576333,
    0.817535,
    -0.519363,
    0.392886,
    0.281735,
    -0.184749,
    0.124,
    0.632856,
    0.824775,
    -0.799887,
    -0.97263,
    0.394711,
    -0.392965,
    0.334572,
    -0.531873,
    0.552031,
    0.760437,
    0.909745,
    0.53653,
    -0.82108,
    0.843642,
    -0.319663,
    0.666261,
    -0.533413,
    -0.542785,
    0.20024,
    -0.700733,
    0.153341,
    -0.193701,
    -1.03325,
    0.621768,
    0.395301,
    0.468077,
    0.125505,
    -0.781904,
    0.492901,
    -0.673076,
    0.184809,
    -0.515931,
    0.839696,
    -0.28545,
    -0.382109,
    -0.411276,
    -0.124793,
    -0.937565,
    0.687863,
    0.270679,
    0.228439,
    0.713084,
    0.863995,
    0.00810674,
    0.394003,
    -0.875067,
    -0.488249,
    -0.451103,
    -0.59284,
    -0.768229,
    -0.813147,
    0.192485,
    -0.509462,
    -0.564928,
    -0.0530863,
    -0.329709,
    -0.742411,
    -0.76826,
    -0.812548,
    0.534065,
    0.785583,
    0.741059,
    -1.2486,
    -1.07755,
    -0.792671,
    0.42205,
    0.829268,
    -1.05853,
    -0.863214,
    -0.860988,
    0.123166,
    0.646521,
    -0.479796,
    -0.614601,
    0.37936,
    0.0947839,
    -0.855532,
    0.396901,
    -0.779102,
    0.54239,
    -0.708213,
    -0.70898,
    -0.842026,
    -0.993985,
    -0.582404,
    -0.396706,
    -0.759293,
    -0.0481217,
    -0.359547,
    1.20458,
    0.85959,
    0.589987,
    -0.35883,
    -0.799781,
    0.31631,
    1.05562,
    -0.51692,
    -0.0951895,
    -0.252765,
    0.311994,
    0.534107,
    1.02332,
    0.829965,
    0.847925,
    0.142249,
    -0.797285,
    0.312663,
    0.902952,
    -0.0341694,
    -0.294689,
    0.974151,
    0.758784,
    0.711989,
    0.953832,
    0.206842,
    -0.732362,
    0.193119,
    0.287013,
    0.521772,
    0.605342,
    0.941292,
    0.669073,
    0.247737,
    -0.943729,
    0.211999,
    0.132702,
    0.325581,
    -0.916968,
    0.162621,
    -0.236481,
    -0.486459,
    0.143778,
    -0.400644,
    0.841076,
    -0.665425,
    -0.788976,
    0.670961,
    -0.162566,
    0.483142,
    0.627167,
    -0.838849,
    -0.740854,
    0.100966,
    0.411707,
    -0.398373,
    -0.31429,
    0.0688789,
    -0.80632,
    -0.933069,
    0.174637,
    -0.474227,
    0.159805,
    -0.357174,
    0.896671,
    0.406338,
    0.227367,
    -0.0586897,
    -0.726016,
    0.30699,
    -0.740391,
    0.664019,
    -0.477073,
    -0.507343,
    -0.64784,
    0.552026,
    -0.0381018,
    -0.18715,
    -0.156266,
    -0.273764,
    -0.698468,
    -0.32254,
    0.634154,
    -0.770686,
    0.366854,
    0.801243,
    0.590715,
    0.356253,
    -0.447836,
    -0.396688,
    -0.868244,
    0.10035,
    -0.105417,
    -0.669649,
    0.10397,
    0.264213,
    -1.00995,
    -0.173047,
    -0.391733,
    0.600883,
    -0.546331,
    0.725421,
    -0.111472,
    -0.420475,
    0.155378,
    -0.989925,
    0.984103,
    -0.964192,
    0.720693,
    0.0276195,
    0.268336,
    0.024508,
    0.0387968,
    -0.414887,
    -0.0936696,
    -0.133163,
    -0.00934896,
    -0.0964237,
    1.06415,
    0.9274,
    0.162224,
    -0.865515,
    -0.48657,
    0.506538,
    -0.208755,
    -0.0562332,
    -0.0228595,
    -0.3331,
    0.680669,
    -0.885373,
    -0.397794,
    0.665047,
    -0.471038,
    -0.0459233,
    0.844243,
    -1.38097,
    -0.576946,
    -1.22629,
    -0.68725,
    0.0800468,
    0.882921,
    0.208896,
    0.778258,
    -0.575193,
    0.352971,
    -0.681288,
    0.0825484,
    0.56038,
    -0.801619,
    0.251852,
    -1.00774,
    0.692731,
    0.888539,
    -0.228862,
    -0.275842,
    0.804678,
    -0.994206,
    0.873954,
    0.3014,
    0.108194,
    -0.202876,
    -0.00762278,
    0.662602,
    -0.842196,
    -0.582959,
    0.557678,
    -1.00605,
    0.761322,
    -0.0398403,
    -0.740358,
    0.468575,
    -0.595886,
    0.255093,
    0.0928474,
    0.383967,
    0.481313,
    0.250933,
    -0.708338,
    0.693245,
    -0.697113,
    -0.619561,
    0.278711,
    -0.947186,
    0.531948,
    0.100979,
    -0.25273,
    0.828195,
    -0.503798,
    -0.966384,
    -0.380615,
    -0.369775,
    0.266825,
    -0.391199,
    -0.968888,
    -0.136278,
    0.269334,
    0.754594,
    0.203635,
    -0.460462,
    0.658406,
    0.0529146,
    0.527546,
    -0.906273,
    -0.459847,
    -0.0566457,
    0.74757,
    -0.902528,
    0.241661,
    0.407985,
    -0.619105
  ],
  "inputBiasWeights": [
    0.801057,
    0.670678,
    0.438819,
    -0.114599,
    -0.876215,
    -0.435211,
    0.0422666,
    0.929021,
    0.437277,
    -0.7263,
    0.696834,
    0.457059,
    -0.204166,
    -0.878849,
    0.145662,
    -0.187784,
    0.836862,
    -0.782997,
    0.663287,
    -0.155735,
    1.06901,
    -0.530668,
    0.661817,
    0.283328,
    0.291137,
    0.291196,
    0.346054,
    -0.130992,
    -0.16214,
    1.01272,
    0.914151,
    -0.555164,
    0.10023,
    0.434639,
    0.719552,
    0.639287,
    0.285009,
    0.806105,
    -0.582584,
    1.02572,
    -0.421752,
    -0.784838,
    0.299433,
    0.385888,
    0.558254,
    -0.801385,
    0.525595,
    0.268322,
    -0.759169,
    -0.654995,
    -0.135685,
    0.330399,
    0.436712,
    0.403133,
    -0.0712939,
    0.0821707,
    0.0844798,
    -0.220751,
    -0.494914,
    0.0442976,
    -0.117079,
    0.411284,
    0.622474,
    0.80076,
    -0.153457,
    -0.769592,
    0.746236,
    -0.180162,
    -0.266049,
    -0.650549,
    0.838794,
    0.731508,
    -0.169121,
    1.04213,
    -0.583614,
    0.199513,
    -0.341817,
    -0.226836,
    0.324676,
    -0.361328,
    0.197132,
    0.820058,
    -0.789118,
    0.00810025,
    -0.674459,
    1.05029,
    -0.14163,
    -0.58904,
    -0.622342,
    0.7364,
    0.835913,
    -0.125145,
    0.913042,
    -0.862058,
    0.0476295,
    -0.433596,
    0.580264,
    0.00726342,
    0.379525,
    0.100713,
    -0.326735,
    -0.486348,
    0.567318,
    0.944328,
    0.0857437,
    -0.82615,
    -0.196547,
    -0.649008,
    0.115744,
    0.413013,
    0.077308,
    0.2857,
    0.893855,
    -0.0330154,
    -0.363474,
    0.133068,
    0.438889,
    0.546178,
    -0.476188,
    0.705572,
    0.916566,
    0.516247,
    0.113594,
    -0.189893,
    0.636454,
    0.685604,
    0.864373,
    0.392712,
    0.267559,
    -0.322478,
    0.525386,
    -0.498744
  ],
  "inputNodes": 17,
  "inputWeights": [
    0.238011,
    -0.452897,
    -0.566192,
    0.585813,
    -0.758308,
    0.131885,
    0.530572,
    0.233902,
    0.0290836,
    -0.626121,
    -0.202195,
    0.220065,
    -0.428677,
    -0.576565,
    -0.965238,
    0.496097,
    -0.257636,
    -0.487263,
    0.756653,
    -0.0238439,
    0.0498068,
    -0.991769,
    0.689054,
    -1.01906,
    0.028866,
    -0.378989,
    -1.0448,
    -0.193111,
    0.116944,
    0.0426413,
    0.457853,
    -0.0901973,
    0.380291,
    0.179659,
    -0.235836,
    -0.473087,
    0.823475,
    0.21703,
    -0.350767,
    0.00419698,
    0.171876,
    -0.141293,
    -0.123684,
    -0.767657,
    0.61228,
    -0.978905,
    0.33035,
    0.521864,
    1.16495,
    -0.0967929,
    -1.12447,
    -0.934554,
    -0.235258,
    0.345673,
    -0.216281,
    -0.0447668,
    0.11731,
    0.569213,
    -1.35199,
    0.61965,
    -0.0302024,
    -0.169915,
    0.304218,
    -0.118957,
    -1.32652,
    -0.731725,
    0.434423,
    -0.272036,
    -0.835332,
    0.709818,
    -0.200897,
    0.30004,
    0.390138,
    0.0831393,
    -0.900465,
    0.762896,
    0.170589,
    -0.187827,
    0.974694,
    0.508799,
    -1.15722,
    -0.885162,
    0.0613114,
    0.293432,
    -0.706371,
    0.885225,
    -0.128349,
    0.369645,
    -0.961589,
    0.672743,
    0.380592,
    -0.842311,
    0.383532,
    -0.939948,
    0.516381,
    0.721651,
    0.620098,
    -1.24099,
    0.696907,
    -0.983729,
    1.16083,
    -0.740588,
    0.644823,
    -0.149273,
    0.625941,
    0.328326,
    0.54222,
    -0.00222001,
    0.405562,
    -1.20796,
    -0.911779,
    -0.600012,
    0.180585,
    0.36081,
    -0.168195,
    -0.540075,
    -0.291482,
    -0.966113,
    0.452437,
    -0.541206,
    0.61176,
    -0.3833,
    -1.29655,
    -0.769968,
    0.0438999,
    0.176691,
    -0.228632,
    -0.654211,
    0.961558,
    -1.16586,
    0.590704,
    -0.651086,
    0.312947,
    0.953685,
    0.0535662,
    -0.68255,
    0.389443,
    0.485132,
    -0.331936,
    0.915826,
    -0.0969505,
    -0.180018,
    -0.0452332,
    0.291708,
    -0.156385,
    -0.510266,
    -0.112419,
    -0.701728,
    -0.303946,
    -0.434795,
    0.609529,
    0.0233147,
    -0.342422,
    0.287257,
    0.912057,
    0.0580776,
    0.734044,
    -0.287061,
    -0.212397,
    -0.325802,
    -0.221689,
    -0.72284,
    0.248068,
    0.298484,
    -0.574206,
    -0.480341,
    -0.495123,
    0.900209,
    0.81338,
    -0.642825,
    0.718674,
    -0.833872,
    -0.869354,
    -0.562589,
    -0.935652,
    0.571476,
    -0.271977,
    -0.122375,
    0.0286808,
    0.594488,
    0.965615,
    0.176762,
    0.574933,
    0.2779,
    -0.215507,
    0.184818,
    -0.940328,
    0.747486,
    -0.831487,
    0.686302,
    -0.642505,
    -0.294736,
    0.230029,
    -0.088553,
    0.0371726,
    -0.909609,
    0.205693,
    0.922795,
    -0.0280995,
    0.941496,
    -0.0655248,
    0.18188,
    0.651638,
    -0.701316,
    0.158062,
    0.772083,
    0.364771,
    -0.522131,
    0.774642,
    0.0951607,
    -0.605168,
    -0.738446,
    -0.573673,
    -0.481563,
    -0.945289,
    0.772996,
    0.352391,
    0.837693,
    0.397023,
    -0.100299,
    0.0966346,
    0.720357,
    -0.0611405,
    0.732802,
    -0.883917,
    0.761342,
    -0.920567,
    0.0814526,
    -0.300175,
    -0.0586989,
    0.535667,
    0.435,
    0.580815,
    -0.510252,
    0.638308,
    -0.513741,
    0.401687,
    -0.0333173,
    0.192184,
    -0.499706,
    0.82928,
    -0.170847,
    0.716281,
    -0.579681,
    -0.690642,
    0.599778,
    0.716399,
    -0.711145,
    -0.261072,
    0.991693,
    0.851197,
    0.739692,
    -0.604197,
    0.223799,
    -0.119853,
    0.540606,
    -0.473005,
    0.904594,
    -0.253377,
    0.974476,
    0.109776,
    -0.00557113,
    -0.168271,
    0.138963,
    0.0808447,
    -0.459767,
    -0.373076,
    -0.834861,
    -0.886243,
    -1.03508,
    0.470664,
    -0.0480806,
    0.455518,
    -0.828318,
    -0.895678,
    0.786661,
    0.407589,
    -0.913034,
    0.0933121,
    -0.956003,
    -0.0859542,
    0.410099,
    0.216643,
    -0.500475,
    0.454823,
    -0.00275837,
    0.0391223,
    -0.898765,
    -0.406198,
    0.519061,
    0.358865,
    0.553394,
    -0.92416,
    -0.889109,
    -0.45167,
    -0.270417,
    0.1603,
    0.0873193,
    -0.58628,
    -0.360888,
    -0.997775,
    -0.664035,
    -0.0852962,
    -0.407799,
    0.446286,
    0.256283,
    -0.204583,
    -0.841927,
    0.228731,
    -0.380564,
    -0.414097,
    0.565028,
    0.26134,
    -0.446853,
    0.0756996,
    -0.871803,
    0.820806,
    0.37481,
    0.1685,
    0.248559,
    -1.09444,
    0.368797,
    -1.06691,
    -1.18265,
    -0.60173,
    0.249364,
    -0.0659128,
    -1.13535,
    0.063758,
    0.261113,
    -0.33261,
    0.160645,
    0.485502,
    -0.886245,
    0.386292,
    -0.227044,
    -0.387933,
    0.511346,
    -0.221681,
    -0.599964,
    -0.616555,
    0.00328175,
    -0.986979,
    0.134576,
    -0.379877,
    0.433643,
    -0.761081,
    0.271856,
    -0.573581,
    -0.0103587,
    0.679051,
    0.641584,
    0.281421,
    -0.867847,
    -0.684402,
    -0.562454,
    -0.891966,
    0.38162,
    0.0982324,
    -0.116041,
    0.636148,
    -0.698531,
    -0.610538,
    -0.12774,
    -0.024274,
    -0.321787,
    0.297797,
    -0.900528,
    0.23171,
    -0.549824,
    -0.00975014,
    -1.17204,
    -0.922337,
    0.513065,
    -0.455658,
    0.424202,
    0.803681,
    0.227224,
    -0.695035,
    0.625384,
    -0.534327,
    -0.634008,
    0.202524,
    -0.212515,
    -0.254476,
    0.936994,
    0.452902,
    -1.33678,
    0.558275,
    -0.290974,
    -0.810468,
    0.438387,
    -0.155837,
    0.232852,
    -0.0544141,
    -0.937807,
    -0.334017,
    0.777075,
    0.372115,
    0.284102,
    -0.347528,
    -0.0297594,
    0.184942,
    -0.373371,
    -0.0514646,
    -0.849832,
    0.202117,
    0.193156,
    0.582336,
    0.604561,
    -0.577247,
    -0.129606,
    0.96791,
    0.653223,
    -0.933642,
    -0.20838,
    0.0658803,
    -0.266543,
    -0.14539,
    0.681659,
    -0.245027,
    0.977208,
    -0.458564,
    -0.35975,
    0.776838,
    0.630857,
    0.0348732,
    -0.660909,
    0.780333,
    -0.157696,
    -0.148724,
    0.320434,
    -0.87206,
    -0.269986,
    0.449498,
    -0.528575,
    0.974153,
    -0.243473,
    -0.313101,
    -0.96719,
    -0.0296459,
    -0.530498,
    -0.529253,
    -0.286889,
    -0.689701,
    0.441224,
    0.631423,
    -0.434037,
    0.223718,
    -0.00532794,
    -0.784469,
    0.401662,
    -0.0469699,
    -0.32958,
    0.381423,
    -0.76638,
    -0.453957,
    0.126322,
    0.408345,
    -0.86564,
    0.238826,
    -0.778396,
    -0.9315,
    0.872881,
    -0.806967,
    0.0454431,
    -0.379119,
    0.0606136,
    0.979486,
    0.854845,
    -0.0519757,
    -0.658144,
    0.570912,
    -0.808518,
    0.396639,
    -0.964772,
    0.334014,
    -0.99213,
    0.096694,
    0.784064,
    -0.949355,
    0.00131059,
    -0.818005,
    0.97479,
    -0.068434,
    -0.941699,
    0.233216,
    -0.498698,
    0.245489,
    -0.46983,
    -0.516692,
    -0.949287,
    -0.205785,
    0.419049,
    0.969499,
    -0.279244,
    -0.916114,
    0.944756,
    -0.32986,
    0.12667,
    0.274508,
    0.647857,
    0.755527,
    -0.588394,
    0.381785,
    -0.723612,
    0.772604,
    0.933435,
    -0.1956,
    -0.968628,
    -0.995186,
    0.261661,
    -0.586192,
    0.997415,
    -0.422599,
    -0.229961,
    0.37482,
    -0.161906,
    -0.191789,
    -0.642733,
    -0.78469,
    0.451971,
    -0.996031,
    -0.157656,
    0.200387,
    -0.0626245,
    -0.435657,
    -0.0843265,
    -0.0554891,
    -0.596905,
    -0.579261,
    0.922668,
    0.854526,
    -0.996102,
    -0.943443,
    -0.306341,
    -0.547207,
    -0.617632,
    0.361881,
    0.420016,
    -0.636536,
    0.376929,
    0.133129,
    0.0912917,
    0.578712,
    0.926821,
    -0.576415,
    0.622606,
    -0.3921,
    0.339392,
    -0.651247,
    -0.797154,
    0.0783,
    0.0950129,
    0.42697,
    -0.206802,
    -0.736533,
    -0.89289,
    -0.642767,
    0.792857,
    0.469534,
    0.43102,
    0.195543,
    -0.11641,
    0.144938,
    -0.725836,
    0.0650063,
    -0.363174,
    -0.812108,
    0.593791,
    -0.651775,
    -0.148877,
    0.364745,
    -0.391491,
    0.870575,
    0.964547,
    -0.398815,
    0.634811,
    0.592604,
    -0.528978,
    -0.624709,
    -0.737616,
    0.219277,
    -0.547909,
    0.30006,
    0.918875,
    -0.59329,
    -0.788445,
    -0.753817,
    -0.087347,
    0.224097,
    -0.697257,
    0.711864,
    -0.940359,
    0.939993,
    -0.788351,
    0.654394,
    -0.132837,
    0.0715086,
    0.113129,
    -0.607645,
    0.468632,
    0.5466,
    -0.452844,
    -0.0470655,
    -0.0650442,
    0.16263,
    -0.0562506,
    0.553,
    0.922464,
    -0.910725,
    0.265573,
    -0.0940483,
    -0.706394,
    0.220207,
    -0.984038,
    -0.902841,
    0.11097,
    0.699311,
    0.171863,
    0.263463,
    -0.884944,
    -0.642386,
    -0.118996,
    -0.881041,
    0.148122,
    0.664184,
    0.752119,
    0.897515,
    0.342382,
    -0.856551,
    0.822084,
    0.278003,
    -0.933568,
    -0.442211,
    -0.176731,
    0.664417,
    -0.156577,
    0.143636,
    -0.68643,
    -0.0678585,
    -0.653898,
    -0.397345,
    0.564592,
    -0.170612,
    0.188469,
    -0.0602126,
    0.829076,
    0.627003,
    -0.220533,
    0.87667,
    0.577199,
    -0.0330479,
    0.849357,
    -0.00993466,
    -0.583781,
    0.91196,
    -0.15032,
    0.849976,
    0.847723,
    1.21556,
    -0.868183,
    -0.450188,
    1.3924,
    -0.452864,
    -0.255464,
    -0.471456,
    -0.155263,
    -1.08318,
    -0.532173,
    -0.873515,
    0.172698,
    -0.5036,
    -0.29689,
    -0.230497,
    -0.748474,
    -1.25721,
    -0.847263,
    -0.98538,
    0.254139,
    -0.74318,
    -0.000233101,
    -0.390896,
    0.656841,
    -0.519756,
    1.33029,
    -0.796778,
    0.162359,
    0.423352,
    0.418191,
    -1.05242,
    0.137741,
    0.642887,
    0.0805744,
    -0.682054,
    -1.07046,
    -0.532514,
    0.521368,
    -0.00367297,
    0.118703,
    0.000290279,
    -1.51651,
    -0.576057,
    -0.358995,
    1.18832,
    -0.33234,
    -0.792766,
    -0.200814,
    -0.24491,
    0.666833,
    -1.66331,
    -0.389125,
    0.930973,
    0.570804,
    0.650023,
    0.562926,
    -1.42298,
    0.460427,
    -0.234368,
    0.391042,
    -0.0900714,
    -0.599598,
    1.26169,
    -0.34764,
    0.133915,
    0.687222,
    -0.900739,
    -0.296662,
    -0.26896,
    -0.157346,
    -1.75985,
    0.18275,
    -1.43063,
    0.427322,
    0.0188859,
    -0.322781,
    -1.58413,
    0.872101,
    0.105697,
    -0.99896,
    -0.918831,
    0.250441,
    -1.83425,
    -0.857888,
    -1.12748,
    -0.748407,
    -1.34149,
    -0.981612,
    -0.923156,
    0.998361,
    -0.828186,
    -1.06678,
    0.216571,
    -1.0898,
    0.763938,
    -0.820336,
    -0.0110112,
    -0.666212,
    -0.437042,
    -1.49952,
    1.60301,
    -0.547072,
    1.41948,
    0.594467,
    0.642773,
    0.219663,
    0.100884,
    0.481059,
    -1.49644,
    -0.639357,
    -0.947471,
    0.0995269,
    1.44753,
    0.229415,
    -0.000978305,
    0.652718,
    0.324268,
    -0.166798,
    -0.239127,
    0.73795,
    0.138493,
    0.723233,
    0.00904413,
    -0.521244,
    1.39379,
    0.0649973,
    -0.191738,
    0.278261,
    1.09176,
    -1.22431,
    -0.90096,
    -0.293927,
    0.465543,
    0.315806,
    -1.13094,
    0.602702,
    -0.00906201,
    0.272614,
    0.215471,
    -0.850976,
    -0.2685,
    -0.173527,
    0.92686,
    -0.455249,
    -0.340174,
    0.264408,
    -0.416357,
    0.468681,
    -0.453869,
    0.677187,
    -0.617093,
    -1.01697,
    -0.50375,
    -0.256315,
    -0.148139,
    -0.149322,
    0.328713,
    0.264435,
    -0.656248,
    -0.653184,
    -1.02755,
    0.629758,
    0.181469,
    0.257279,
    -0.616894,
    -0.95106,
    -0.0123528,
    0.416909,
    0.797052,
    -0.706961,
    0.183485,
    -1.3957,
    -0.553405,
    -0.704158,
    -1.07475,
    0.0307796,
    0.852132,
    -0.283845,
    0.75861,
    0.127539,
    -0.643007,
    0.0618987,
    -1.39659,
    -0.173824,
    -0.449447,
    0.328343,
    0.0323791,
    0.136672,
    -0.0925246,
    -1.25998,
    -0.758472,
    0.795001,
    -0.578041,
    0.371052,
    -0.0924169,
    0.417309,
    -0.774247,
    -0.627849,
    -0.469224,
    0.0355495,
    0.486586,
    -0.00539596,
    -1.49846,
    -1.22913,
    -0.747078,
    -1.02463,
    -0.363127,
    -0.862094,
    0.0460991,
    0.601923,
    0.805101,
    0.148969,
    0.0182177,
    -0.58295,
    -0.168293,
    -0.89474,
    0.312035,
    -0.196456,
    -0.507073,
    -1.12135,
    0.621628,
    -0.230416,
    0.346429,
    0.413088,
    0.780969,
    0.259663,
    -0.681904,
    0.335207,
    -1.28049,
    -0.407456,
    -0.983378,
    0.233028,
    -0.318499,
    0.0466005,
    -0.591129,
    -0.59414,
    0.322338,
    0.0294832,
    -0.647781,
    0.263646,
    -0.57196,
    -0.652059,
    -0.662862,
    -0.186148,
    -0.354651,
    -0.468324,
    0.595415,
    0.459802,
    0.32429,
    -0.3722,
    -1.00367,
    0.441142,
    0.234483,
    0.499427,
    -0.333117,
    -0.906883,
    0.784455,
    -0.549549,
    -0.000921586,
    -0.394908,
    -0.144078,
    0.386428,
    0.254914,
    -0.838483,
    0.709213,
    -0.629469,
    0.121412,
    -0.261253,
    0.518704,
    -0.947826,
    -0.422173,
    0.844893,
    0.0436474,
    -0.620803,
    0.220854,
    0.0921999,
    -0.761347,
    0.113958,
    0.321011,
    -0.601985,
    0.76529,
    0.682327,
    -0.356405,
    0.552586,
    0.49951,
    -0.220508,
    0.377539,
    -0.315504,
    0.769859,
    -0.907272,
    -0.934557,
    0.529566,
    -0.90001,
    -0.484309,
    0.640916,
    0.633881,
    1.08431,
    -0.940398,
    0.725672,
    -0.291167,
    -0.599633,
    0.650266,
    0.380474,
    -0.521677,
    0.110266,
    0.134024,
    0.663413,
    0.51752,
    -0.104727,
    -0.68824,
    0.850704,
    -0.102403,
    -0.893628,
    -0.326856,
    0.382849,
    0.33215,
    -0.502397,
    -0.753706,
    0.613268,
    0.686387,
    -0.639562,
    -0.436932,
    0.350663,
    -0.483628,
    0.745193,
    -0.567161,
    0.292126,
    -0.49344,
    -0.307808,
    -0.425525,
    -0.0696105,
    -0.647571,
    0.836928,
    0.439403,
    0.691459,
    0.693603,
    -0.419603,
    -0.337587,
    -0.279288,
    -0.570239,
    0.183979,
    0.0193238,
    0.98713,
    -0.0810155,
    -1.02021,
    0.81281,
    0.403184,
    -0.957532,
    -0.107919,
    -0.462125,
    0.181887,
    -0.619742,
    -0.768995,
    0.186357,
    0.252721,
    -0.0263043,
    -0.145939,
    0.779784,
    -0.496748,
    0.0269626,
    -0.46984,
    0.510278,
    -0.367412,
    -0.593498,
    0.143128,
    0.0505434,
    0.413106,
    0.436185,
    0.84222,
    -0.367324,
    -0.0522149,
    -0.823837,
    -0.784176,
    0.22258,
    0.917869,
    -0.492872,
    -0.226158,
    -0.614873,
    -0.104882,
    -0.113943,
    -0.803785,
    0.910309,
    0.539893,
    0.041176,
    0.262728,
    -0.605231,
    -0.167709,
    0.753849,
    -0.412946,
    0.776422,
    -0.657522,
    -0.705487,
    0.507461,
    0.0532381,
    -0.84786,
    -0.202786,
    -1.07877,
    0.220264,
    0.773547,
    -0.881316,
    -1.1998,
    -0.450734,
    -1.33567,
    -0.918281,
    0.553067,
    0.426564,
    0.608055,
    -0.0255628,
    -0.11406,
    -1.08287,
    -0.559432,
    -0.0103144,
    0.344243,
    0.58874,
    -0.741908,
    -0.957295,
    0.55512,
    -0.032525,
    -0.11596,
    0.222932,
    0.0130128,
    -0.983527,
    0.401282,
    -0.704129,
    0.0917359,
    -0.939829,
    -0.159472,
    -0.674909,
    -0.686198,
    0.184611,
    0.237107,
    -0.752885,
    -0.329871,
    -0.206155,
    -0.193276,
    -0.328415,
    -0.918494,
    -0.884517,
    -0.644922,
    -0.279712,
    -0.277032,
    0.227889,
    -1.03497,
    0.132935,
    -0.328461,
    0.503286,
    0.933455,
    0.4749,
    -1.00601,
    0.664281,
    0.386013,
    -0.87923,
    0.976434,
    0.308951,
    0.738545,
    -0.195832,
    -0.700451,
    -0.487918,
    -1.01167,
    0.320556,
    0.433098,
    0.0984431,
    -0.603882,
    -0.768644,
    -0.67154,
    0.393109,
    0.84587,
    0.393792,
    -0.589468,
    -0.808441,
    -0.0990779,
    0.0898756,
    0.943458,
    -0.871791,
    -0.505931,
    0.240629,
    -0.193266,
    -0.594032,
    0.822726,
    -0.238317,
    -0.591321,
    -0.553299,
    -0.835411,
    -0.688615,
    0.532879,
    -0.326141,
    -1.01339,
    0.617907,
    -0.123178,
    -1.15079,
    -0.644148,
    -1.14827,
    0.141976,
    0.482286,
    0.360982,
    1.07087,
    -1.3679,
    0.66602,
    -0.937095,
    -0.017493,
    -0.524417,
    0.712999,
    0.248148,
    -0.188872,
    0.546901,
    0.853292,
    -0.261801,
    -1.08961,
    -0.0772859,
    -0.984224,
    -0.622335,
    -1.17675,
    0.10885,
    0.665216,
    0.444176,
    0.0210687,
    0.631545,
    -0.946948,
    0.653001,
    0.776578,
    -1.32563,
    -0.00212325,
    -0.489359,
    -0.386136,
    -0.300089,
    0.557268,
    -0.503124,
    -1.08682,
    -0.272124,
    -0.279635,
    0.385633,
    -0.827645,
    0.220474,
    -0.477886,
    0.524225,
    0.772404,
    -0.510587,
    -0.562452,
    -0.699204,
    -1.09755,
    0.229422,
    0.163731,
    -0.723317,
    -0.287295,
    0.653014,
    0.0542381,
    -0.876702,
    -0.989185,
    0.435318,
    -0.155402,
    -0.0954528,
    -0.465928,
    -0.851952,
    0.201259,
    0.245042,
    0.425799,
    -0.159074,
    -0.847199,
    -0.0912853,
    -0.838763,
    -0.0879079,
    -0.955708,
    -0.127754,
    0.870688,
    0.662283,
    -0.373912,
    -0.531251,
    0.51236,
    -0.695142,
    0.411093,
    0.236192,
    0.441296,
    -1.03647,
    -0.896042,
    -0.822481,
    -0.54544,
    -0.657778,
    0.316507,
    0.492296,
    -0.906684,
    -0.283662,
    -0.461151,
    0.0106307,
    -0.951884,
    0.275631,
    -0.970653,
    0.560203,
    0.0397801,
    -0.404857,
    -0.241041,
    0.468851,
    0.650896,
    0.105845,
    -0.145115,
    -0.0211763,
    0.427377,
    0.0406764,
    0.657002,
    0.604686,
    -0.969894,
    0.67508,
    0.335693,
    -0.452676,
    0.209621,
    -0.799766,
    0.0684337,
    0.599095,
    -0.605032,
    0.897363,
    -1.03351,
    -0.607847,
    0.309894,
    0.623784,
    -0.807074,
    0.0183545,
    -0.560476,
    0.142449,
    0.608148,
    -0.219143,
    -0.586696,
    -0.0955672,
    -0.0322079,
    -0.21472,
    -0.6405,
    -0.736366,
    0.788094,
    -0.62725,
    0.124028,
    -0.89993,
    -1.19545,
    -0.133521,
    -0.333089,
    -0.132767,
    0.714336,
    0.568788,
    -0.662294,
    0.509835,
    -0.231316,
    -0.479314,
    0.128588,
    -0.451392,
    -0.249385,
    0.0854668,
    -0.680688,
    -0.582417,
    -0.4635,
    -0.415233,
    -0.733681,
    -0.0758376,
    0.34237,
    -0.465649,
    0.444301,
    -0.646361,
    -0.73916,
    0.722704,
    -0.64704,
    -0.586754,
    -0.687694,
    -0.00487672,
    0.423076,
    0.205607,
    0.00994873,
    -0.151058,
    -0.735528,
    0.0704124,
    0.569167,
    -0.295877,
    0.520655,
    -0.474007,
    0.296849,
    -0.200836,
    0.575188,
    -0.877148,
    0.367569,
    0.569622,
    0.199949,
    0.868175,
    -0.00103974,
    0.12768,
    -0.454766,
    -0.405091,
    0.208473,
    -0.59182,
    0.403277,
    -0.26691,
    0.653437,
    0.024514,
    0.0477889,
    -0.641367,
    0.556809,
    0.0869513,
    -0.648615,
    -0.435704,
    -0.2171,
    -0.230629,
    -0.180409,
    -0.948184,
    -0.416262,
    -0.73186,
    0.0837207,
    -0.375185,
    -0.696966,
    0.0757935,
    0.372212,
    -0.398988,
    0.224083,
    0.684216,
    -0.603812,
    0.108068,
    -0.379207,
    0.840099,
    -0.822012,
    0.0757861,
    0.38857,
    0.473785,
    -0.314005,
    0.583807,
    -0.0493803,
    -0.374869,
    0.900525,
    0.18806,
    0.271475,
    0.704158,
    0.663053,
    -0.720865,
    0.263506,
    0.0403266,
    0.499442,
    -0.943429,
    0.293149,
    -0.721698,
    -0.761191,
    0.720271,
    -0.739764,
    -0.197769,
    -0.319335,
    0.217579,
    -0.341729,
    -0.254929,
    0.115966,
    -0.000822306,
    -0.966938,
    -0.123601,
    0.128042,
    -0.71701,
    0.0534058,
    0.00538278,
    -0.937694,
    -0.348015,
    -0.408674,
    -0.0615242,
    -0.0950708,
    -0.0691974,
    -0.68509,
    -0.802208,
    -0.797864,
    0.425573,
    0.833241,
    0.501088,
    -0.939478,
    0.599762,
    0.985953,
    0.00416374,
    -0.316545,
    -0.757426,
    0.552999,
    0.483323,
    0.352066,
    -0.851818,
    0.719305,
    0.261021,
    -0.516193,
    0.341023,
    0.262507,
    0.866496,
    -0.0275049,
    -0.469233,
    0.16221,
    -0.478037,
    -0.527003,
    -0.128364,
    0.292814,
    0.870501,
    0.682752,
    -0.849106,
    -0.181251,
    0.822616,
    -0.259545,
    0.0665555,
    0.133962,
    0.351982,
    -0.296183,
    -0.750314,
    0.171986,
    0.428011,
    -0.816884,
    0.0573299,
    0.844047,
    0.465784,
    -0.484501,
    0.173485,
    -0.70546,
    -0.828519,
    0.425526,
    -0.841095,
    -0.155465,
    -0.516469,
    -0.301726,
    -0.127481,
    0.238035,
    -0.993031,
    0.961154,
    -0.846281,
    0.207254,
    -0.942583,
    -0.918232,
    -0.654211,
    0.42146,
    0.944979,
    -0.900659,
    0.0665679,
    -0.919316,
    -0.494464,
    -0.185507,
    -0.922739,
    0.0103927,
    -0.810058,
    -0.873015,
    -0.911909,
    0.776245,
    -0.812273,
    -0.539886,
    0.968255,
    -0.155204,
    0.488269,
    0.667334,
    0.62814,
    0.346884,
    -0.390142,
    -0.635665,
    0.161422,
    0.916883,
    -0.108625,
    -0.137561,
    0.49557,
    0.553311,
    0.576055,
    0.735483,
    0.409909,
    -0.266029,
    0.494995,
    0.726459,
    0.419097,
    -0.0910437,
    -0.263737,
    -0.371241,
    0.109114,
    -0.845916,
    -0.317326,
    0.883389,
    -0.516205,
    0.816068,
    0.589808,
    -0.603352,
    0.316713,
    0.30209,
    0.487842,
    -0.502117,
    0.77625,
    0.293453,
    0.0546708,
    -0.0960922,
    -0.1332,
    0.884691,
    -0.297457,
    -0.451079,
    0.609096,
    0.508036,
    -0.462242,
    -0.185838,
    -0.234539,
    0.0097959,
    -0.486444,
    -0.56938,
    -0.465092,
    0.263557,
    0.781919,
    -0.0126188,
    0.930071,
    0.670132,
    -0.548397,
    -0.266682,
    -0.58681,
    -0.317336,
    0.322715,
    0.359521,
    0.761791,
    0.892732,
    -0.508984,
    -0.412197,
    -0.843138,
    -0.33582,
    0.986803,
    0.787995,
    0.775602,
    0.9924,
    -0.837177,
    0.829776,
    -0.921599,
    -0.364057,
    0.667171,
    0.395452,
    0.13933,
    -0.470031,
    0.813073,
    0.26868,
    -0.899001,
    -0.812406,
    -0.54999,
    0.0890326,
    0.844658,
    -0.6061,
    -0.300194,
    0.977421,
    -0.458783,
    -0.251752,
    -0.687399,
    -0.930834,
    0.206988,
    -0.452958,
    0.764549,
    -0.250191,
    -0.130057,
    0.888698,
    0.278646,
    -0.544568,
    -0.410707,
    -0.335982,
    -0.51303,
    -0.134208,
    0.983996,
    -0.126959,
    -0.727238,
    -0.529248,
    0.720842,
    0.00445437,
    -0.0162764,
    -0.511528,
    0.524895,
    -0.456273,
    0.248053,
    0.361839,
    0.107884,
    -0.41866,
    -0.236781,
    0.861573,
    -0.686548,
    -0.881719,
    0.598837,
    -0.720966,
    -0.572006,
    0.937663,
    -0.866463,
    -0.614035,
    0.612858,
    0.6862,
    -0.979482,
    -0.596425,
    -0.545601,
    -0.35421,
    -0.520844,
    0.939992,
    -0.214629,
    -0.559409,
    0.293945,
    -0.817503,
    -0.693883,
    -0.238513,
    0.573496,
    0.307745,
    -0.972164,
    0.974591,
    -0.844645,
    0.092164,
    -0.475264,
    -0.397979,
    -0.806104,
    -0.0082314,
    0.8054,
    0.233905,
    -0.354725,
    -0.0604115,
    -0.715613,
    -0.46647,
    -0.333107,
    0.0894275,
    0.62487,
    0.250317,
    -0.143605,
    -0.400909,
    -0.5697,
    -0.920661,
    0.233953,
    0.462718,
    0.753514,
    -0.916682,
    0.135651,
    -0.825437,
    0.301111,
    -0.109187,
    -0.365777,
    -0.205109,
    0.785862,
    -0.830685,
    0.406888,
    -0.966584,
    0.398424,
    -0.446268,
    -0.280744,
    0.326187,
    -0.143244,
    -0.726983,
    0.604059,
    -0.123835,
    -0.0979106,
    -0.340014,
    -0.678409,
    0.387457,
    -0.517015,
    -0.850791,
    -0.132589,
    -0.64591,
    0.191083,
    0.0952666,
    0.884481,
    0.421974,
    0.825495,
    0.345512,
    0.885221,
    0.724797,
    -0.91376,
    0.878798,
    0.37581,
    0.557014,
    -0.439076,
    -0.294427,
    0.948741,
    0.148618,
    0.805358,
    -0.303594,
    -0.338859,
    0.738225,
    -0.168582,
    0.540052,
    0.567506,
    -0.142024,
    -0.69143,
    0.597026,
    -0.401862,
    -0.964033,
    0.199966,
    -0.342066,
    0.750775,
    -0.0644133,
    0.121227,
    -0.0484352,
    -0.320104,
    -0.738706,
    -0.980495,
    -0.711011,
    -0.467778,
    -0.32328,
    -0.437591,
    -0.805917,
    -0.527077,
    0.25841,
    0.343711,
    0.805619,
    0.536007,
    -0.443619,
    -0.271725,
    0.16268,
    0.160059,
    0.677538,
    -0.141056,
    -0.0972357,
    0.158712,
    0.498426,
    -0.206804,
    0.813955,
    0.648834,
    0.570384,
    0.708011,
    0.793395,
    -0.593724,
    0.637529,
    0.191759,
    0.509666,
    0.213732,
    0.520108,
    -0.38605,
    0.11735,
    0.240257,
    -0.450096,
    0.883921,
    -0.992541,
    -0.679064,
    -0.740731,
    -0.877881,
    0.133882,
    0.940901,
    0.612174,
    0.232182,
    0.434392,
    0.460421,
    -0.325974,
    0.287581,
    -0.977063,
    0.761297,
    -0.708802,
    0.73699,
    -0.035171,
    0.885628,
    -0.294755,
    -0.406715,
    -0.612055,
    0.333136,
    0.28674,
    0.60621,
    -0.325572,
    -0.334862,
    -0.0239062,
    -0.0470715,
    -0.589441,
    0.643951,
    0.848819,
    0.631608,
    0.911787,
    -0.173515,
    -0.987844,
    0.443732,
    0.932554,
    -0.835249,
    -0.483996,
    -0.536414,
    0.471801,
    0.331874,
    0.553692,
    -0.22062,
    0.0345054,
    0.77961,
    0.589403,
    0.617445,
    0.0337691,
    -0.0206254,
    0.588306,
    -0.207736,
    -0.280179,
    0.702836,
    -0.664093,
    0.0875669,
    0.520591,
    -0.917588,
    -0.698868,
    -0.154294,
    0.216466,
    0.947218,
    0.743604,
    -0.295933,
    -0.389927,
    0.735074,
    -0.20048,
    0.550314,
    0.597644,
    0.58989,
    0.0423574,
    0.426484,
    0.0725229,
    -0.868937,
    -0.217283,
    0.555412,
    -0.624385,
    -0.681191,
    -0.837273,
    -0.88996,
    -0.305677,
    0.799614,
    -0.938555,
    0.885604,
    -0.482309,
    0.365904,
    -0.245464,
    -0.0602155,
    -0.286215,
    0.298407,
    0.894021,
    -0.374167,
    -0.798437,
    0.865115,
    0.961239,
    -0.636292,
    -0.521859,
    -0.742208,
    0.153212,
    0.314086,
    -0.520391,
    0.472807,
    -0.119694,
    -0.390113,
    0.126386,
    0.156882,
    -0.482668,
    -0.682978,
    -0.768563,
    0.335985,
    0.634781,
    0.915287,
    0.635043,
    0.41518,
    -0.951219,
    0.646052,
    0.775372,
    0.813611,
    0.9276,
    -0.836614,
    0.923813,
    0.565445,
    0.696912,
    0.688325,
    0.4332,
    -0.46036,
    -0.0376287,
    -0.658327,
    0.182198,
    -0.737597,
    -0.0883756,
    0.10806,
    -0.586329,
    -0.110114,
    0.442162,
    0.271631,
    -0.646818,
    -0.89292,
    -0.957039,
    -0.293038,
    -0.360076,
    -0.105379,
    0.382229,
    0.362189,
    -0.727496,
    0.50758,
    -0.404212,
    0.0857482,
    0.603732,
    0.606087,
    0.891628,
    -0.736425,
    0.554879,
    0.65722,
    0.0358155,
    0.707489,
    -0.226147,
    0.586958,
    -0.464454,
    -0.274348,
    -0.543987,
    -0.509016,
    0.440156,
    -0.425944,
    0.0675323,
    0.194105,
    -0.662067,
    0.774334,
    0.348267,
    0.466128,
    0.66174,
    0.104133,
    -0.297463,
    -0.817181,
    -0.269944,
    -0.3248,
    0.525179,
    0.574154,
    0.53197,
    0.62355,
    -0.590693,
    0.199958,
    -0.121354,
    -0.0903485,
    0.701476,
    -0.584105,
    -0.685087,
    0.0412357,
    -0.90351,
    0.44482,
    -0.575669,
    -0.817463,
    0.61663,
    -0.418472,
    0.921123,
    0.675646,
    -0.611229,
    -0.0944695,
    0.474108,
    0.148734,
    -0.87495,
    0.340628,
    -0.716195,
    -0.574941,
    0.40661,
    -0.111575,
    -0.800395,
    -0.887721,
    0.09885,
    0.140294,
    0.311949,
    -0.588341,
    -0.245652,
    -0.0206871,
    -0.844155,
    0.628994,
    0.924266,
    0.207192,
    -0.13065,
    -0.625694,
    0.776223,
    0.978149,
    0.636459,
    0.891094,
    0.636404,
    0.771228,
    -0.712598,
    0.680523,
    -0.706223,
    0.568801,
    0.810836,
    0.621524,
    0.244563,
    0.338387,
    0.769061,
    0.739819,
    0.528249,
    0.361017,
    0.0464125,
    -0.402272,
    0.707804,
    0.906393,
    -0.253903,
    0.635237,
    0.669767,
    0.120595,
    -0.682523,
    -0.80839,
    -0.812894,
    0.563299,
    -0.692469,
    0.747289,
    -0.0447705,
    -0.182418,
    0.453959,
    0.965872,
    -0.0898259,
    0.296238,
    0.875618,
    -0.177186,
    0.0601676,
    -0.250705,
    -0.893851,
    -0.486514,
    0.973582,
    0.805803,
    0.458502,
    -0.565821,
    -0.843757,
    0.148421,
    0.825234,
    0.572225,
    0.245587,
    -0.93388,
    0.465658,
    -0.265495,
    -0.910357,
    0.820953,
    0.298737,
    0.654053,
    0.368528,
    0.211258,
    0.431484,
    0.239108,
    -0.0165355,
    -0.718217,
    -0.447992,
    -0.293234,
    0.384042,
    0.324137,
    -0.203733,
    -0.823062,
    0.772055,
    -0.73263,
    0.961003,
    -0.22355,
    0.0279746,
    0.749326,
    0.15861,
    0.848901,
    -0.435198,
    0.819134,
    -0.297096,
    -0.21513,
    0.283958,
    0.617527,
    0.721244,
    0.370178,
    -0.896486,
    0.164064,
    -0.947463,
    0.90166,
    0.742202,
    0.54616,
    -0.51957,
    0.311174,
    0.975283,
    0.811319,
    -0.784282,
    -0.252787,
    0.0960248,
    -0.0954165,
    0.273866,
    -0.744553,
    0.182062,
    0.808185,
    -0.52993,
    0.506292,
    0.288899,
    0.637659,
    -0.019628,
    -0.957278,
    0.561107,
    -0.978833,
    0.243981,
    -0.552692,
    0.277219,
    -0.770683,
    0.933072,
    -0.134903,
    -0.540284,
    -0.169605,
    -0.809904,
    0.0712454,
    -0.693268,
    -0.00682044,
    0.0198274,
    -0.626292,
    0.705509,
    0.678258,
    0.185969,
    0.222656,
    -0.846961,
    0.0418749,
    -0.845225,
    -0.543988,
    0.642172,
    -0.226946,
    0.859533,
    -0.527853,
    -0.178157,
    0.0616438,
    0.506632,
    0.586654,
    0.476468,
    -0.878633,
    -0.970964,
    -0.310661,
    0.650862,
    0.863722,
    -0.611134,
    -0.321293,
    -0.802047,
    0.549711,
    -0.569023,
    0.197639,
    0.694357,
    -0.7637,
    -0.19945,
    -0.967228,
    0.574158,
    -0.727134,
    0.562523,
    0.694852,
    -0.0671835,
    -0.0185363,
    0.340581,
    -0.0662467,
    0.66112,
    0.836777,
    0.813165,
    -0.0295901,
    0.480735,
    0.862775,
    -0.0252409,
    0.566806,
    -0.859721,
    -0.854594,
    -0.202471,
    0.360627,
    -0.089247,
    0.418962,
    -0.531628,
    -0.487992,
    0.351602,
    -0.855719,
    0.02127,
    -0.550195,
    0.251399,
    -0.0166752,
    -0.573076,
    0.00301313,
    -0.701917,
    -0.320527,
    -0.0731859,
    0.848716,
    0.574604,
    0.752809,
    -0.293129,
    0.267501,
    0.406784,
    0.948889,
    0.45393,
    0.561719,
    -0.134166,
    -0.35393,
    0.988796,
    0.437639,
    -0.159301,
    0.236372,
    0.495534,
    -0.299433,
    -0.464538,
    0.128937,
    0.256145,
    0.985294,
    0.109001,
    -0.393868,
    0.439766,
    0.913139,
    0.334697,
    -0.139985,
    0.581452,
    -0.628061,
    -0.131115,
    -0.88072,
    -0.718876,
    -0.273211,
    0.576818,
    0.773189,
    -0.668302,
    0.103564,
    -0.375663,
    0.62465,
    0.231221,
    0.304211,
    0.797049,
    -0.346692,
    0.389261,
    0.674473,
    -0.54942,
    0.805246,
    -0.0694015,
    -0.361886,
    -0.672194,
    0.00332665,
    -0.55808,
    -0.165649,
    0.366477,
    0.472646,
    -0.0114653,
    0.0912156,
    0.453758,
    0.185246,
    -0.834229,
    0.384332,
    0.0393922,
    -0.438595,
    0.486046
  ],
  "outputNodes": 27
}